{
  "calibration": {
    "intercept": 0.10402317190281578,
    "slope": 0.8599849449524689
  },
  "champion": "neural_sweep",
  "fail_closed": {
    "missing_assessment": true,
    "non_finite": true,
    "unknown_intent": true
  },
  "feature_names": [
    "assessment.missing",
    "contract.changed",
    "contract.exact_items",
    "contract.exact_sentences",
    "contract.kind.code",
    "contract.kind.free_text",
    "contract.kind.json",
    "contract.kind.label",
    "contract.kind.list",
    "contract.kind.number",
    "contract.max_words_log",
    "contract.strict",
    "contract.valid",
    "fg.deterministic_fit",
    "fg.format_complexity",
    "fg.generation_demand",
    "fg.knowledge_uncertainty",
    "fg.reasoning_demand",
    "intent.code_debugging",
    "intent.code_generation",
    "intent.factual_qa",
    "intent.logic_puzzle",
    "intent.math_reasoning",
    "intent.ner",
    "intent.sentiment",
    "intent.summarization",
    "mechanical.ambiguity",
    "mechanical.code_branch_count",
    "mechanical.code_language.javascript",
    "mechanical.code_language.other",
    "mechanical.code_language.python",
    "mechanical.code_language.typescript",
    "mechanical.code_lines_log",
    "mechanical.code_loop_count",
    "mechanical.code_present",
    "mechanical.currentness",
    "mechanical.entity_type_count",
    "mechanical.external_knowledge",
    "mechanical.json_requested",
    "mechanical.language_en",
    "mechanical.language_es",
    "mechanical.language_other",
    "mechanical.language_pt",
    "mechanical.negation",
    "mechanical.number_density",
    "mechanical.operator_count",
    "mechanical.prompt_chars_log",
    "mechanical.prompt_injection",
    "mechanical.prompt_tokens_log",
    "mechanical.sentence_limit",
    "mechanical.shape.boolean",
    "mechanical.shape.code",
    "mechanical.shape.free_text",
    "mechanical.shape.json",
    "mechanical.shape.list",
    "mechanical.shape.number",
    "mechanical.shape.short_text",
    "mechanical.source_chars_log",
    "mechanical.strict_format",
    "mechanical.variable_count",
    "mechanical.verifier.closed_label",
    "mechanical.verifier.code_syntax",
    "mechanical.verifier.json_structure",
    "mechanical.verifier.numeric",
    "mechanical.word_count_log",
    "mechanical.word_limit",
    "prompt.char_log",
    "prompt.constraint_count",
    "prompt.line_log",
    "proof.registered",
    "proof.supported",
    "proof.unique",
    "proof.valid"
  ],
  "fit": {
    "calibration_rows": 459,
    "protected_rows_accessed": 0,
    "rows": 2625,
    "threshold_rows": 415
  },
  "model": {
    "kind": "ensemble",
    "members": [
      {
        "activation": "gelu",
        "kind": "mlp_dense",
        "layers": [
          {
            "bias": [
              -0.011697626672685146,
              -0.11917661130428314,
              -0.08286038041114807,
              0.15430346131324768,
              -0.19750486314296722,
              -0.0916399136185646,
              -0.2554357051849365,
              -0.09122992306947708
            ],
            "weights": [
              [
                -0.04859977215528488,
                -0.3535473346710205,
                -0.20414026081562042,
                -0.07341703772544861,
                0.11997777223587036,
                0.044981297105550766,
                0.0811697393655777,
                -0.0075503066182136536,
                -0.03414471074938774,
                0.03749390318989754,
                -0.23129494488239288,
                0.15752029418945312,
                0.3905251920223236,
                0.12040696293115616,
                0.10085594654083252,
                -0.025825655087828636,
                -0.17930035293102264,
                -0.08317264169454575,
                0.1814909130334854,
                -0.005374379456043243,
                0.10144858807325363,
                -0.33026358485221863,
                -0.1764770746231079,
                -0.032466188073158264,
                0.06692510843276978,
                0.012710453942418098,
                0.09997203946113586,
                -0.0892137661576271,
                0.014568652957677841,
                0.008056119084358215,
                0.13294565677642822,
                0.09748274087905884,
                -0.14329694211483002,
                -0.10221493989229202,
                -0.03760480135679245,
                -0.16014666855335236,
                0.0947728157043457,
                0.21710632741451263,
                -0.018217764794826508,
                0.06514845788478851,
                -0.11182229965925217,
                -0.14577829837799072,
                0.07312606275081635,
                0.06355248391628265,
                0.12408622354269028,
                -0.19227176904678345,
                -0.04687901958823204,
                -0.10388819128274918,
                -0.24998725950717926,
                -0.1739550530910492,
                -0.15897201001644135,
                3.389936682651751e-05,
                -0.12747232615947723,
                0.09878728538751602,
                -0.006727883126586676,
                0.0831611156463623,
                -0.02980986423790455,
                0.23174205422401428,
                -0.13365799188613892,
                -0.04466963931918144,
                0.07086718082427979,
                0.1490357220172882,
                0.03877677768468857,
                -0.05203799903392792,
                -0.19411319494247437,
                -0.15253253281116486,
                -0.09663376957178116,
                0.0875888243317604,
                0.2715778052806854,
                -0.14217908680438995,
                -0.1362854540348053,
                0.0413508415222168,
                0.20126762986183167
              ],
              [
                -0.08887814730405807,
                0.01815168932080269,
                0.002547978423535824,
                -0.005168697331100702,
                -0.11080434173345566,
                0.20138856768608093,
                -0.09569747745990753,
                -0.027065107598900795,
                -0.008889080956578255,
                0.026925260201096535,
                0.019342666491866112,
                0.11018641293048859,
                0.246114119887352,
                0.03912771865725517,
                0.04825383424758911,
                -0.1461905539035797,
                0.042841315269470215,
                0.07065825909376144,
                0.2270587533712387,
                -0.20792020857334137,
                0.008594910614192486,
                -0.05192500725388527,
                -0.166785329580307,
                -0.35281679034233093,
                0.20321273803710938,
                0.09428219497203827,
                0.1481420248746872,
                -0.2144923061132431,
                -0.018416274338960648,
                0.03599988669157028,
                0.10628263652324677,
                0.05401277914643288,
                -0.2723603844642639,
                -0.007005574647337198,
                0.14008265733718872,
                -0.096412293612957,
                -0.1908770054578781,
                -0.2147408425807953,
                -0.06315580755472183,
                0.029819872230291367,
                0.10652033239603043,
                0.08542903512716293,
                0.04119185358285904,
                -0.31652286648750305,
                -0.1564183384180069,
                -0.22077982127666473,
                0.04440402239561081,
                -0.09683654457330704,
                -0.06049565225839615,
                0.001274485606700182,
                0.1082124188542366,
                0.030931789427995682,
                -0.005244949366897345,
                0.02638137899339199,
                0.2079637050628662,
                0.039823248982429504,
                -0.09465231746435165,
                0.2098851203918457,
                0.1153876781463623,
                -0.033900707960128784,
                -0.07345770299434662,
                0.19632482528686523,
                -0.08609221875667572,
                -0.06145656481385231,
                -0.013777291402220726,
                -0.4247974455356598,
                -0.04053016006946564,
                -0.13825005292892456,
                0.2107417732477188,
                0.11903729289770126,
                0.007607809733599424,
                0.19292661547660828,
                0.1417088806629181
              ],
              [
                0.05953240022063255,
                0.31874337792396545,
                0.05636654794216156,
                0.021698249503970146,
                0.06216665729880333,
                -0.06569148600101471,
                0.09338336437940598,
                -0.11882849782705307,
                0.04168224334716797,
                0.3990204334259033,
                -0.059388212859630585,
                0.1079418733716011,
                -0.5948453545570374,
                0.21408306062221527,
                -0.009804904460906982,
                0.08607138693332672,
                -0.22070243954658508,
                0.16218149662017822,
                -0.12429425865411758,
                0.17387448251247406,
                -0.04221849888563156,
                -0.11899439990520477,
                -0.04239409789443016,
                -0.06895291805267334,
                -0.2970717251300812,
                0.07426689565181732,
                0.18327587842941284,
                0.3797686696052551,
                0.02433689683675766,
                -0.013675449416041374,
                0.09913717210292816,
                -0.009044468402862549,
                0.14925742149353027,
                -0.14655469357967377,
                -0.05806608125567436,
                0.030198225751519203,
                0.2657948434352875,
                -0.1571158766746521,
                0.0783667266368866,
                0.09976698458194733,
                0.16703464090824127,
                -0.0345459058880806,
                -0.09777563810348511,
                0.12842784821987152,
                0.30945712327957153,
                0.08039913326501846,
                0.29711678624153137,
                -0.09636639803647995,
                0.27353471517562866,
                -0.11816481500864029,
                0.03365474194288254,
                0.1879943311214447,
                -0.15439718961715698,
                0.015686005353927612,
                -0.007980435155332088,
                -0.004231032449752092,
                0.029798591509461403,
                -0.04138541966676712,
                0.02145416848361492,
                0.04734952375292778,
                0.06823419779539108,
                0.11299799382686615,
                0.06095854938030243,
                -0.13116687536239624,
                0.3091512620449066,
                0.1025119498372078,
                0.10670988261699677,
                -0.3192764222621918,
                -0.08776845782995224,
                0.13942936062812805,
                0.23726296424865723,
                -0.05098606273531914,
                0.15192873775959015
              ],
              [
                -0.09621259570121765,
                0.42093852162361145,
                0.06953088194131851,
                -0.1327194720506668,
                0.060556791722774506,
                0.03619708493351936,
                0.16087810695171356,
                -0.08248861134052277,
                -0.08530833572149277,
                -0.3994199335575104,
                -0.03406772017478943,
                0.15527105331420898,
                -0.6770674586296082,
                0.18971237540245056,
                -0.07102181762456894,
                0.0894114226102829,
                -0.20081748068332672,
                0.0988677516579628,
                -0.013749143108725548,
                0.09998983889818192,
                0.05031326785683632,
                0.048069629818201065,
                0.48723942041397095,
                -0.06953152269124985,
                -0.3452555239200592,
                0.07119068503379822,
                0.031419746577739716,
                0.39669278264045715,
                0.006372316740453243,
                0.062110282480716705,
                0.04434451460838318,
                -0.024174764752388,
                0.09424284845590591,
                -0.299726665019989,
                -0.1841152459383011,
                0.09253261983394623,
                0.2766920328140259,
                -0.27489423751831055,
                -0.030638957396149635,
                -0.19036471843719482,
                0.05024059861898422,
                -0.054468244314193726,
                0.03434883430600166,
                0.011494590900838375,
                0.31580111384391785,
                0.2513463795185089,
                0.13763202726840973,
                -0.13250327110290527,
                0.16803060472011566,
                -0.18674807250499725,
                0.04495122656226158,
                0.22344684600830078,
                -0.09648115932941437,
                0.026345301419496536,
                0.03874766081571579,
                -0.15517228841781616,
                0.07952047884464264,
                0.06313218921422958,
                -0.0025056712329387665,
                0.04671362042427063,
                0.009356536902487278,
                0.2549346685409546,
                0.11205766350030899,
                -0.1418839395046234,
                0.2660255432128906,
                0.07119850069284439,
                0.20122861862182617,
                -0.23883186280727386,
                -0.12941965460777283,
                0.18863415718078613,
                0.1452927440404892,
                0.16027122735977173,
                0.024285007268190384
              ],
              [
                0.04486502334475517,
                -0.3508528769016266,
                0.05170528218150139,
                0.06304866075515747,
                0.12689635157585144,
                0.019455980509519577,
                0.10486294329166412,
                -0.03428681939840317,
                0.07926122099161148,
                0.09454457461833954,
                -0.21777641773223877,
                0.11889716982841492,
                0.49732041358947754,
                -0.12611514329910278,
                0.16525182127952576,
                0.2739281952381134,
                -0.1752065122127533,
                -0.19115005433559418,
                0.2278870940208435,
                0.018622685223817825,
                -0.29625368118286133,
                0.1223834827542305,
                -0.09898007661104202,
                -0.07905560731887817,
                0.146274134516716,
                0.38855716586112976,
                -0.13564226031303406,
                0.026737794280052185,
                -0.0624336414039135,
                -0.15249234437942505,
                0.19912169873714447,
                0.11846168339252472,
                -0.12242208421230316,
                0.06019129231572151,
                0.10906050354242325,
                -0.019390933215618134,
                0.21227256953716278,
                -0.128015398979187,
                0.19981276988983154,
                -0.057251010090112686,
                0.08837397396564484,
                -0.1576225310564041,
                0.12766771018505096,
                0.13297900557518005,
                -0.01973768323659897,
                -0.10276955366134644,
                -0.30764251947402954,
                -0.0019701127894222736,
                -0.32008129358291626,
                -0.10746218264102936,
                0.0966590866446495,
                0.10080157220363617,
                -0.028201229870319366,
                0.064630888402462,
                0.14494183659553528,
                0.014873035252094269,
                0.0997614711523056,
                0.06324444711208344,
                -0.05491606891155243,
                -0.05008827522397041,
                -0.013438738882541656,
                -0.01128426194190979,
                0.050160378217697144,
                -0.009112664498388767,
                -0.36403927206993103,
                -0.23161466419696808,
                -0.32862281799316406,
                0.23003998398780823,
                0.14674867689609528,
                -0.009286309592425823,
                0.09527970850467682,
                0.093940868973732,
                0.2663751542568207
              ],
              [
                0.06554345041513443,
                -0.26260149478912354,
                0.026059355586767197,
                0.09254136681556702,
                0.06381811946630478,
                0.06976502388715744,
                -0.0072483159601688385,
                0.07703956961631775,
                0.010387750342488289,
                0.025838814675807953,
                -0.02976284548640251,
                -0.1905423104763031,
                0.5066731572151184,
                -0.024209002032876015,
                0.28675347566604614,
                0.21306289732456207,
                -0.05202506110072136,
                0.12752719223499298,
                0.30010461807250977,
                0.17906153202056885,
                -0.40688830614089966,
                -0.06159255653619766,
                -0.3021823465824127,
                -0.2772739827632904,
                0.3276498317718506,
                0.22420012950897217,
                -0.3749900460243225,
                0.1674661785364151,
                -0.09717782586812973,
                -0.13417290151119232,
                0.031887903809547424,
                0.11780508607625961,
                -0.16247566044330597,
                0.08774801343679428,
                0.10459598898887634,
                -0.20647107064723969,
                0.05247984081506729,
                -0.5016468167304993,
                -0.04131719470024109,
                -0.08265963941812515,
                0.0042264340445399284,
                -0.010995022021234035,
                -0.13622644543647766,
                0.09391018003225327,
                -0.12042313814163208,
                -0.13704513013362885,
                -0.21507112681865692,
                -0.061776984483003616,
                -0.2671074867248535,
                -0.0035427005495876074,
                -0.0978192463517189,
                -0.11664745211601257,
                0.1550717055797577,
                -0.01945706084370613,
                0.16469453275203705,
                0.053126025944948196,
                0.10208385437726974,
                0.08489862084388733,
                0.18634003400802612,
                0.04426117613911629,
                -0.034063395112752914,
                -0.15074028074741364,
                0.10150407254695892,
                -0.11240971833467484,
                -0.2404399812221527,
                -0.007721973583102226,
                -0.3579002320766449,
                0.15225298702716827,
                0.1952425092458725,
                -0.004759235307574272,
                0.10056716948747635,
                -0.21900591254234314,
                -0.23567403852939606
              ],
              [
                -0.10213883966207504,
                -0.008586369454860687,
                -0.11990900337696075,
                -0.10122757405042648,
                -0.07578594982624054,
                0.16971147060394287,
                -0.005500540137290955,
                0.028358712792396545,
                -0.0071001602336764336,
                -0.07425465434789658,
                -0.20295853912830353,
                0.08768438547849655,
                0.30770236253738403,
                0.15119990706443787,
                0.210902601480484,
                -0.2821054458618164,
                -0.23865577578544617,
                -0.11779090017080307,
                0.006638731807470322,
                0.1703314632177353,
                0.07527127861976624,
                -0.3483233153820038,
                -0.008135013282299042,
                -0.045164451003074646,
                0.1451956182718277,
                -0.30373698472976685,
                -0.06208869069814682,
                -0.09078508615493774,
                -0.004942511674016714,
                0.03880752995610237,
                0.12592123448848724,
                0.09264596551656723,
                -0.10341323912143707,
                -0.028570855036377907,
                -0.03565726801753044,
                0.3390524983406067,
                0.09540422260761261,
                0.15191829204559326,
                -0.04719734191894531,
                -0.0575798936188221,
                -0.21281199157238007,
                0.15480247139930725,
                0.1601734459400177,
                0.13347719609737396,
                -0.1777205616235733,
                -0.21427710354328156,
                -0.07156481593847275,
                0.08883611112833023,
                0.010018555447459221,
                0.011809717863798141,
                -0.09564206749200821,
                -0.03177666664123535,
                0.08274392038583755,
                0.07257168740034103,
                -0.1107211783528328,
                0.0348808579146862,
                0.07779119163751602,
                0.2915218770503998,
                -0.273393839597702,
                -0.119041308760643,
                0.06403651088476181,
                -0.13940837979316711,
                0.14534896612167358,
                -0.026113128289580345,
                0.05496538430452347,
                0.13086336851119995,
                0.1056361272931099,
                0.17430125176906586,
                0.18370270729064941,
                0.01222810335457325,
                -0.03351779282093048,
                0.037841904908418655,
                0.09589549899101257
              ],
              [
                0.10755989700555801,
                0.14228509366512299,
                -0.18319092690944672,
                0.07181759923696518,
                -0.17820344865322113,
                0.23652730882167816,
                -0.05499177798628807,
                -0.026625219732522964,
                0.03373537212610245,
                0.1293947547674179,
                -0.07086671888828278,
                0.026579365134239197,
                0.48893406987190247,
                0.08769936114549637,
                0.1829472929239273,
                -0.04063728079199791,
                -0.09869219362735748,
                -0.1669338345527649,
                0.17908726632595062,
                -0.12354619801044464,
                0.0005984336021356285,
                0.27376532554626465,
                -0.04332033917307854,
                -0.46659189462661743,
                0.32724303007125854,
                -0.06633878499269485,
                0.20629557967185974,
                0.12661008536815643,
                -0.017820829525589943,
                0.10555745661258698,
                -0.08441875129938126,
                -0.03902176767587662,
                -0.28796809911727905,
                -0.030869165435433388,
                0.16983599960803986,
                0.2770347595214844,
                -0.13879844546318054,
                -0.04096009209752083,
                -0.17746631801128387,
                -0.01423619594424963,
                0.13020649552345276,
                0.10286306589841843,
                -0.026386559009552002,
                -0.23873774707317352,
                -0.24164287745952606,
                -0.05262783542275429,
                0.03180655464529991,
                0.0037051765248179436,
                -0.08671562373638153,
                -0.011603876017034054,
                -0.13566771149635315,
                0.08821398764848709,
                -0.04112657159566879,
                -0.11614543944597244,
                0.1299518346786499,
                -0.05153393745422363,
                0.04819626361131668,
                0.3004515469074249,
                0.1095329150557518,
                -0.22275342047214508,
                -0.09271913021802902,
                0.11137771606445312,
                -0.1869659125804901,
                0.017359234392642975,
                -0.023806549608707428,
                -0.2790316641330719,
                0.05717625096440315,
                -0.07898805290460587,
                0.03702844679355621,
                0.01846809685230255,
                0.10587065666913986,
                0.23526830971240997,
                0.1320498138666153
              ]
            ]
          },
          {
            "bias": [
              -0.6177636384963989
            ],
            "weights": [
              [
                0.7218250036239624,
                0.5693981051445007,
                -0.4760730564594269,
                -0.5201593637466431,
                0.7499949336051941,
                0.638294517993927,
                0.8041526079177856,
                0.47106999158859253
              ]
            ]
          }
        ]
      },
      {
        "activation": "gelu",
        "kind": "mlp_dense",
        "layers": [
          {
            "bias": [
              -0.05373860150575638,
              -0.16892178356647491,
              -0.00618812395259738,
              0.0169836338609457,
              -0.26306483149528503,
              0.27880859375,
              -0.24617590010166168,
              -0.139197438955307
            ],
            "weights": [
              [
                -0.03867839276790619,
                -0.45200207829475403,
                -0.15686580538749695,
                -0.14019818603992462,
                0.18213880062103271,
                0.08089251816272736,
                0.11602894961833954,
                -0.10756587237119675,
                -0.08966357260942459,
                0.07896440476179123,
                -0.16176830232143402,
                0.15441370010375977,
                0.4561983048915863,
                -0.01982002519071102,
                0.19448384642601013,
                0.16489876806735992,
                -0.1606535166501999,
                -0.2083103060722351,
                0.23033545911312103,
                -0.004760571289807558,
                -0.1382206529378891,
                -0.08232487738132477,
                -0.12463966012001038,
                -0.18295636773109436,
                0.14350031316280365,
                -0.046151258051395416,
                0.2723025977611542,
                -0.11733800172805786,
                -0.043806593865156174,
                0.010442385450005531,
                -0.023030394688248634,
                -0.08803656697273254,
                -0.027950644493103027,
                -0.12832297384738922,
                0.08667059242725372,
                -0.06809170544147491,
                0.14499378204345703,
                0.3011789917945862,
                -0.006501601543277502,
                -0.01712888292968273,
                0.02862151339650154,
                -0.1218206137418747,
                0.1408122181892395,
                0.027928298339247704,
                0.03757646307349205,
                -0.24453993141651154,
                -0.21932168304920197,
                0.045107342302799225,
                -0.2898715138435364,
                0.1007772833108902,
                0.08727829903364182,
                0.15685422718524933,
                -0.21647289395332336,
                0.11837255954742432,
                0.1338430792093277,
                -0.0022533645387738943,
                0.13629740476608276,
                0.06310424208641052,
                -0.0953364446759224,
                0.0043009924702346325,
                -0.10317956656217575,
                0.15184099972248077,
                0.1380370557308197,
                -0.04229461029171944,
                -0.14858031272888184,
                -0.11247503012418747,
                -0.27983370423316956,
                0.18891476094722748,
                0.21112313866615295,
                -0.058737918734550476,
                0.039287716150283813,
                0.16947393119335175,
                0.02140738070011139
              ],
              [
                0.1153445839881897,
                0.03324596956372261,
                0.04392288625240326,
                0.08016582578420639,
                -0.11263678967952728,
                0.03424100950360298,
                0.042476676404476166,
                -0.006276050582528114,
                -0.10700998455286026,
                -0.10442771017551422,
                0.0476449579000473,
                0.00981320720165968,
                0.23791082203388214,
                0.03230820223689079,
                -0.07357292622327805,
                -0.05057376250624657,
                -0.017210423946380615,
                0.17462897300720215,
                0.49680495262145996,
                -0.1094169169664383,
                -0.11635508388280869,
                -0.339120477437973,
                -0.340874582529068,
                -0.2202121913433075,
                0.30560266971588135,
                0.13684305548667908,
                -0.2736932337284088,
                -0.08649300783872604,
                -0.038460586220026016,
                -0.044504329562187195,
                0.04349000006914139,
                0.17244403064250946,
                -0.2931653559207916,
                0.026765789836645126,
                0.16524352133274078,
                -0.23454399406909943,
                -0.3367725610733032,
                -0.4637296795845032,
                0.02453089877963066,
                -0.20325765013694763,
                -0.051719214767217636,
                0.10005873441696167,
                0.08987237513065338,
                -0.22523686289787292,
                -0.46054187417030334,
                -0.23424135148525238,
                0.029857369139790535,
                -0.3094992935657501,
                0.07965891063213348,
                0.019191080704331398,
                -0.07401856780052185,
                -0.15645739436149597,
                0.020526250824332237,
                0.05484473705291748,
                0.25259220600128174,
                -0.0009297040523961186,
                -0.010392114520072937,
                0.4610542953014374,
                0.18270578980445862,
                -0.05695167928934097,
                -0.1391044408082962,
                0.034948140382766724,
                -0.05469752103090286,
                0.011925973929464817,
                0.04120663180947304,
                -0.08694134652614594,
                0.08672046661376953,
                -0.19145675003528595,
                0.08493613451719284,
                0.05130608752369881,
                -0.010568833909928799,
                0.19763240218162537,
                0.06559198349714279
              ],
              [
                -0.044135794043540955,
                -0.25469669699668884,
                -0.18248915672302246,
                -0.04516402259469032,
                0.1417892873287201,
                0.11682802438735962,
                0.16478954255580902,
                0.04514513164758682,
                -0.06762700527906418,
                -0.09242034703493118,
                -0.07008995860815048,
                0.15692052245140076,
                0.3949446976184845,
                0.17332376539707184,
                0.18373706936836243,
                -0.17201440036296844,
                -0.29905611276626587,
                -0.05817105993628502,
                0.04228804260492325,
                0.05062711611390114,
                0.11299815028905869,
                -0.44004127383232117,
                -0.09275410324335098,
                -0.1012168824672699,
                0.16749441623687744,
                -0.28856590390205383,
                0.05302093178033829,
                -0.03672131896018982,
                -0.027053313329815865,
                -0.1639389544725418,
                0.09895692765712738,
                0.10716463625431061,
                -0.12570832669734955,
                0.022972628474235535,
                -0.08843906223773956,
                0.3108029067516327,
                0.1513344645500183,
                0.0814644917845726,
                0.027492361143231392,
                0.07676132768392563,
                -0.1678927093744278,
                -0.006581850815564394,
                0.18298938870429993,
                0.283186674118042,
                -0.14566200971603394,
                -0.2751406729221344,
                -0.1367243379354477,
                0.0675361230969429,
                -0.07752452790737152,
                -0.049173515290021896,
                -0.10621753334999084,
                -0.09839069098234177,
                -0.004866409115493298,
                -0.039443597197532654,
                -0.10664348304271698,
                0.03408517315983772,
                0.01660294458270073,
                0.19187593460083008,
                -0.3415098190307617,
                -0.08747776597738266,
                0.03424821421504021,
                -0.07721453905105591,
                0.02451729215681553,
                -0.04560817405581474,
                -0.05175177380442619,
                -0.22474265098571777,
                -0.04859093949198723,
                0.15328073501586914,
                0.2669151723384857,
                0.031257741153240204,
                -0.04112052172422409,
                0.12714873254299164,
                0.16383755207061768
              ],
              [
                -0.042082641273736954,
                0.30952009558677673,
                0.04455069452524185,
                -0.0944761335849762,
                0.11296352744102478,
                -0.051907941699028015,
                0.04722154140472412,
                -0.15038549900054932,
                0.10623237490653992,
                0.059529662132263184,
                0.01531923282891512,
                0.048826515674591064,
                -0.46727433800697327,
                0.18670041859149933,
                -0.1746111661195755,
                0.07400786876678467,
                -0.33286145329475403,
                0.030937884002923965,
                -0.08062749356031418,
                0.10832051932811737,
                -0.03990740329027176,
                0.02107074484229088,
                0.31128162145614624,
                -0.17043805122375488,
                -0.31459876894950867,
                0.1162780150771141,
                0.045605164021253586,
                0.1682819426059723,
                -0.16933703422546387,
                -0.004052459727972746,
                -0.014278815127909184,
                0.006075799465179443,
                0.24399861693382263,
                -0.36410513520240784,
                0.04746636375784874,
                0.12698853015899658,
                0.14850933849811554,
                -0.17718827724456787,
                -0.023234860971570015,
                -0.143040269613266,
                0.05293043702840805,
                -0.06899765133857727,
                0.06928989291191101,
                0.05969592183828354,
                0.2914007306098938,
                0.11254392564296722,
                0.09200798720121384,
                -0.12313306331634521,
                0.18762822449207306,
                -0.14504924416542053,
                -0.08057264983654022,
                0.10295070707798004,
                -0.1400533765554428,
                0.14592714607715607,
                0.08720226585865021,
                -0.08561962842941284,
                0.05151659622788429,
                0.17423635721206665,
                0.006566397845745087,
                0.08767997473478317,
                0.0046190437860786915,
                0.12345275282859802,
                0.07839930802583694,
                -0.19356194138526917,
                0.1214878037571907,
                0.09768883883953094,
                0.12674106657505035,
                -0.1817670464515686,
                -0.09799830615520477,
                0.22034204006195068,
                0.181447833776474,
                0.0920102670788765,
                0.06081070005893707
              ],
              [
                -0.04691462218761444,
                0.23736315965652466,
                0.023993203416466713,
                0.02679937332868576,
                0.07921256870031357,
                -0.14122214913368225,
                0.03446177393198013,
                -0.04169710725545883,
                -0.014429405331611633,
                0.2208314836025238,
                -0.1622508317232132,
                0.08589829504489899,
                -0.5348633527755737,
                0.09377416968345642,
                -0.016544967889785767,
                0.12960073351860046,
                -0.01875724084675312,
                0.03478371724486351,
                -0.08185509592294693,
                0.12219177186489105,
                -0.08386259526014328,
                0.1471382975578308,
                -0.05033018812537193,
                0.014709665440022945,
                0.0025997250340878963,
                0.20131915807724,
                0.16493164002895355,
                0.23241561651229858,
                0.0479465089738369,
                -0.07127926498651505,
                0.11511562019586563,
                -0.00904479157179594,
                0.10994257032871246,
                -0.03659764677286148,
                -0.05288928002119064,
                -0.033425766974687576,
                0.2058517187833786,
                0.06957127153873444,
                0.08563148230314255,
                -0.08730825781822205,
                0.04353037849068642,
                -0.016649071127176285,
                -0.004432654939591885,
                0.01740221492946148,
                0.08692686259746552,
                0.07999682426452637,
                0.1234745904803276,
                -0.035278886556625366,
                0.17265701293945312,
                -0.11838340759277344,
                0.029415396973490715,
                0.011850392445921898,
                0.001741179614327848,
                -0.0695677325129509,
                0.009526347741484642,
                -0.1430126428604126,
                -0.06526822596788406,
                0.07321731001138687,
                0.05717780813574791,
                0.07529688626527786,
                0.01189765427261591,
                0.02616172842681408,
                0.01020099502056837,
                -0.011306841857731342,
                0.19325323402881622,
                -0.49123209714889526,
                0.16222363710403442,
                -0.14693382382392883,
                -0.012635251507163048,
                0.05592728033661842,
                -0.024715203791856766,
                -0.049024030566215515,
                0.12545117735862732
              ],
              [
                0.08327816426753998,
                0.2241353988647461,
                0.004613620229065418,
                -0.08290078490972519,
                -0.14057718217372894,
                -0.017019351944327354,
                -0.08248491585254669,
                -0.00471919821575284,
                -0.0553952157497406,
                -0.005130627192556858,
                -0.008328101597726345,
                0.23530592024326324,
                -0.5853954553604126,
                -0.1955433189868927,
                -0.0692538246512413,
                -0.007627260871231556,
                0.11652828752994537,
                0.19291089475154877,
                -0.08160131424665451,
                0.07074740529060364,
                -0.18861618638038635,
                -0.07265709340572357,
                0.37922024726867676,
                0.3490646481513977,
                -0.2032316029071808,
                -0.04879169538617134,
                0.12915977835655212,
                0.08214706182479858,
                -0.25849178433418274,
                0.007556636817753315,
                -0.13976697623729706,
                -0.06179547682404518,
                0.14789646863937378,
                0.04607916250824928,
                -0.1815212219953537,
                -0.05946841835975647,
                0.04359518364071846,
                -0.3305680453777313,
                0.0022705672308802605,
                0.10359064489603043,
                0.04494096711277962,
                -0.03350749611854553,
                -0.09579500555992126,
                0.02419441193342209,
                0.08352414518594742,
                0.23265260457992554,
                0.19753222167491913,
                0.06764192879199982,
                0.17429694533348083,
                0.03254842385649681,
                -0.06504012644290924,
                0.14734001457691193,
                -0.07220689207315445,
                0.00015988985251169652,
                -0.061512306332588196,
                -0.2907598316669464,
                0.023001549765467644,
                -0.23815135657787323,
                -0.16045281291007996,
                -0.07684317976236343,
                -0.11344597488641739,
                0.03688183054327965,
                -0.05678286403417587,
                -0.23856580257415771,
                0.12022240459918976,
                0.07429229468107224,
                0.23709575831890106,
                -0.33065348863601685,
                -0.2962571978569031,
                -0.0322134904563427,
                0.051946401596069336,
                -0.11494801938533783,
                -0.09184689074754715
              ],
              [
                0.10617874562740326,
                0.24150995910167694,
                -0.19663171470165253,
                0.03236410766839981,
                -0.14027224481105804,
                0.248717799782753,
                -0.16691775619983673,
                -0.07931240648031235,
                0.06993428617715836,
                -0.005082066170871258,
                -0.1360524743795395,
                -0.006736318115144968,
                0.19007830321788788,
                0.08411365002393723,
                0.17362995445728302,
                -0.18067100644111633,
                -0.19866830110549927,
                0.012535108253359795,
                -0.19620683789253235,
                0.03262029588222504,
                -0.0025501276832073927,
                -0.029088234528899193,
                -0.13281001150608063,
                -0.3958449065685272,
                0.213295578956604,
                -0.03663863241672516,
                0.2302057445049286,
                0.06321582198143005,
                0.04108298942446709,
                0.05804940685629845,
                -0.11969897150993347,
                0.059774819761514664,
                -0.0989890918135643,
                -0.01654093712568283,
                -0.07909736782312393,
                0.3092961609363556,
                -0.03711984306573868,
                0.01452604029327631,
                -0.12399020791053772,
                -0.0019851166289299726,
                -0.003987771924585104,
                0.12955830991268158,
                -0.10066022723913193,
                -0.14623458683490753,
                -0.1992400735616684,
                -0.031116511672735214,
                0.044383689761161804,
                0.035025205463171005,
                -0.15437890589237213,
                -0.07605091482400894,
                -0.09522847086191177,
                -0.03825416415929794,
                0.0810423195362091,
                -0.17473234236240387,
                0.09223640710115433,
                0.06799498945474625,
                0.04248761013150215,
                0.4020160436630249,
                0.16409049928188324,
                -0.16419295966625214,
                -0.03098725900053978,
                0.01646682620048523,
                -0.05976390838623047,
                -0.08229590952396393,
                -0.11833816021680832,
                -0.2099616974592209,
                -0.02555089443922043,
                -0.08925523608922958,
                0.13655893504619598,
                0.04951362684369087,
                0.04874763265252113,
                0.06591758877038956,
                0.20674076676368713
              ],
              [
                -0.06339532136917114,
                -0.24295324087142944,
                0.04877052828669548,
                0.13170596957206726,
                0.0856158658862114,
                0.017297914251685143,
                -0.027543608099222183,
                0.0017625982873141766,
                -0.10224203020334244,
                0.09693143516778946,
                -0.08624875545501709,
                -0.018709342926740646,
                0.25272512435913086,
                -0.18121792376041412,
                0.20385923981666565,
                0.0994274839758873,
                -0.05948236584663391,
                0.06447330117225647,
                0.18579183518886566,
                0.07292511314153671,
                -0.31203559041023254,
                0.15304887294769287,
                -0.19040071964263916,
                -0.28926730155944824,
                0.202305868268013,
                0.41022351384162903,
                0.2475694715976715,
                0.0494619756937027,
                -0.035435184836387634,
                -0.07633859664201736,
                0.04370156675577164,
                -0.0269247405230999,
                -0.11697155237197876,
                -0.00641830638051033,
                0.20797093212604523,
                -0.18019360303878784,
                -0.13188180327415466,
                -0.3268680274486542,
                -0.13208912312984467,
                0.027311967685818672,
                0.2272549271583557,
                -0.07101910561323166,
                -0.06407807022333145,
                -0.08691811561584473,
                0.006189337000250816,
                -0.1016593873500824,
                -0.31836768984794617,
                -0.1035565435886383,
                -0.1662622094154358,
                -0.04134991765022278,
                0.08886517584323883,
                0.13221856951713562,
                -0.07677344977855682,
                -0.10078269988298416,
                0.34931546449661255,
                -0.0023139931727200747,
                0.022675273939967155,
                0.20194624364376068,
                0.2344481199979782,
                -0.16927483677864075,
                -0.015627289190888405,
                0.045737117528915405,
                0.009907484985888004,
                -0.036104753613471985,
                -0.330434113740921,
                -0.14932894706726074,
                -0.3131349980831146,
                0.10562349855899811,
                0.1291012018918991,
                -0.019116852432489395,
                0.03819439187645912,
                0.11738836765289307,
                0.33652326464653015
              ]
            ]
          },
          {
            "bias": [
              -0.28719356656074524
            ],
            "weights": [
              [
                0.6573451161384583,
                0.4933614730834961,
                0.6441701650619507,
                -0.7061945796012878,
                -0.723339855670929,
                -0.6763637065887451,
                0.5195590853691101,
                0.5605143904685974
              ]
            ]
          }
        ]
      },
      {
        "activation": "gelu",
        "kind": "mlp_dense",
        "layers": [
          {
            "bias": [
              -0.24218156933784485,
              0.08812113851308823,
              -0.13641434907913208,
              -0.1830395758152008,
              -0.21208252012729645,
              0.2131805270910263,
              -0.04691554978489876,
              0.009908126667141914
            ],
            "weights": [
              [
                -0.07683026045560837,
                -0.29391810297966003,
                0.0502578429877758,
                0.10240498930215836,
                0.08307454735040665,
                -0.11732345819473267,
                0.04598052427172661,
                0.05378378555178642,
                0.11471060663461685,
                0.07871639728546143,
                -0.2264929562807083,
                0.02424246445298195,
                0.4249853491783142,
                -0.11123303323984146,
                0.14186526834964752,
                0.236502543091774,
                -0.1048906147480011,
                -0.06370630860328674,
                0.1658966839313507,
                0.01338869147002697,
                -0.4059547483921051,
                -0.0030003839638084173,
                -0.26849687099456787,
                -0.1707923412322998,
                0.08533058315515518,
                0.4256240427494049,
                -0.24345728754997253,
                0.0555279515683651,
                -0.02385721728205681,
                -0.01060565561056137,
                0.18548783659934998,
                -0.10541470348834991,
                0.03582613542675972,
                0.005802685860544443,
                0.051899734884500504,
                -0.21947228908538818,
                0.14960137009620667,
                -0.2774156928062439,
                0.04261232540011406,
                -0.03496743366122246,
                0.09264723211526871,
                -0.06464610993862152,
                0.050483670085668564,
                0.06651069968938828,
                0.01985344849526882,
                -0.10197584331035614,
                -0.37909096479415894,
                -0.050913672894239426,
                -0.3084310293197632,
                -0.09343471378087997,
                0.05625445768237114,
                -0.14101572334766388,
                -0.12100015580654144,
                0.05993543937802315,
                0.1635991334915161,
                0.011869851499795914,
                0.06975100934505463,
                0.12305589765310287,
                0.06132274493575096,
                -0.03704265505075455,
                0.0866776555776596,
                0.08979670703411102,
                0.08518150448799133,
                -0.01943167857825756,
                -0.2781195640563965,
                0.04767054691910744,
                -0.3130924701690674,
                0.12998813390731812,
                0.1361790895462036,
                0.033581845462322235,
                -0.0646168664097786,
                0.18816618621349335,
                0.1248975396156311
              ],
              [
                0.003860606113448739,
                0.2814673185348511,
                0.05600596219301224,
                0.06760881096124649,
                0.11137718707323074,
                -0.10606636852025986,
                0.019845297560095787,
                -0.05258585885167122,
                -0.07629392296075821,
                0.24771609902381897,
                0.007325396873056889,
                0.17563050985336304,
                -0.5488162636756897,
                0.2258029282093048,
                -0.026042908430099487,
                0.1285446733236313,
                -0.21281908452510834,
                0.12482810020446777,
                -0.10636258125305176,
                0.16110774874687195,
                0.007521228864789009,
                0.1189291700720787,
                0.1386285275220871,
                -0.014979840256273746,
                -0.10214775800704956,
                0.0832521915435791,
                0.1658816933631897,
                0.3140268325805664,
                0.013172847218811512,
                -0.09788892418146133,
                -0.02118927799165249,
                -0.020133307203650475,
                0.23233777284622192,
                -0.19899098575115204,
                -0.07632114738225937,
                0.022185858339071274,
                0.29529333114624023,
                -0.08138906955718994,
                0.059541717171669006,
                -0.17760327458381653,
                0.08325856924057007,
                -0.13194718956947327,
                0.03322518989443779,
                0.06749261915683746,
                0.2540798783302307,
                0.08160117268562317,
                0.29404953122138977,
                -0.071330226957798,
                0.28399544954299927,
                -0.10980672389268875,
                -0.03852246329188347,
                0.10766822099685669,
                -0.08482332527637482,
                -0.04145238175988197,
                0.0050129941664636135,
                0.18026530742645264,
                -0.0002420054515823722,
                -0.06230360269546509,
                0.06631029397249222,
                -0.02104412578046322,
                0.03494581580162048,
                0.10775560140609741,
                0.0850054919719696,
                0.005914635490626097,
                0.22207948565483093,
                0.10093645751476288,
                0.09340304136276245,
                -0.19106394052505493,
                -0.11196033656597137,
                0.07852846384048462,
                0.08148280531167984,
                0.05395815148949623,
                0.08800364285707474
              ],
              [
                -0.05489920452237129,
                0.19101479649543762,
                -0.20266535878181458,
                -0.0531199686229229,
                -0.16745926439762115,
                0.16691695153713226,
                -0.12673263251781464,
                -0.07827113568782806,
                -0.004402185790240765,
                -0.1604575216770172,
                -0.14861907064914703,
                0.008204546757042408,
                0.1581486463546753,
                0.11522413790225983,
                0.025206856429576874,
                -0.03841589018702507,
                -0.36689361929893494,
                -0.0711209625005722,
                0.03390955552458763,
                0.02562945894896984,
                0.07992225140333176,
                0.0015410886844620109,
                -0.04575933516025543,
                -0.302629292011261,
                0.17428158223628998,
                -0.22191007435321808,
                0.22601450979709625,
                0.00834594015032053,
                -0.02640524134039879,
                0.01805238053202629,
                -0.19295230507850647,
                -0.06228317692875862,
                -0.257828027009964,
                0.10916878283023834,
                -0.048565734177827835,
                0.5002000331878662,
                -0.005603468976914883,
                0.20048649609088898,
                -0.038563307374715805,
                -0.02566566690802574,
                0.0153283616527915,
                0.13808995485305786,
                -0.03105236031115055,
                -0.027497686445713043,
                -0.22229298949241638,
                -0.09468236565589905,
                0.056350480765104294,
                0.04676041007041931,
                0.05553114041686058,
                -0.09054233878850937,
                0.0688818171620369,
                -0.11670608073472977,
                -0.027505576610565186,
                -0.19811682403087616,
                -0.04727999493479729,
                0.005969026125967503,
                0.027878722175955772,
                0.4289425313472748,
                0.15908530354499817,
                -0.26008331775665283,
                -0.030014466494321823,
                -0.004413513001054525,
                -0.03279145434498787,
                -0.02971223182976246,
                0.03963795676827431,
                -0.29000619053840637,
                -0.11776501685380936,
                0.058166973292827606,
                -0.1348365694284439,
                0.1007680669426918,
                0.0888298749923706,
                0.02072719670832157,
                -0.02641105093061924
              ],
              [
                0.09614657610654831,
                -0.025263406336307526,
                -0.02113613858819008,
                -0.10856298357248306,
                -0.08226261287927628,
                0.1698400229215622,
                0.08105667680501938,
                0.06864060461521149,
                0.03475923091173172,
                -0.10214653611183167,
                -0.09478319436311722,
                0.11157705634832382,
                0.24216587841510773,
                0.16433805227279663,
                0.11834375560283661,
                -0.2101413607597351,
                -0.19461601972579956,
                -0.12549856305122375,
                0.28899022936820984,
                -0.027539055794477463,
                0.1204080879688263,
                -0.31816768646240234,
                0.005402399227023125,
                -0.16923056542873383,
                0.21752141416072845,
                -0.5470389127731323,
                0.03398864343762398,
                -0.19134430587291718,
                -0.014737632125616074,
                -0.012904125265777111,
                -0.037088800221681595,
                0.01700723171234131,
                -0.2980351150035858,
                -0.10359008610248566,
                0.0735279843211174,
                0.12069183588027954,
                0.15446865558624268,
                0.19527976214885712,
                0.007932096719741821,
                0.02034197747707367,
                -0.10767452418804169,
                0.19982479512691498,
                0.20116285979747772,
                0.09883391857147217,
                -0.20251712203025818,
                -0.19452239573001862,
                0.13232530653476715,
                0.0796302855014801,
                0.1011783704161644,
                0.1536531001329422,
                -0.10495825111865997,
                0.00468320120126009,
                -0.09219568967819214,
                -0.0294518880546093,
                -0.19148419797420502,
                -0.07057768106460571,
                0.050576500594615936,
                0.3164443373680115,
                -0.41088008880615234,
                -0.11666905879974365,
                -0.03701398894190788,
                0.1081366240978241,
                0.052764736115932465,
                0.01157576683908701,
                0.11930391192436218,
                -0.1289275735616684,
                0.0762566402554512,
                0.12845313549041748,
                0.12386928498744965,
                -0.009579947218298912,
                -0.06438162177801132,
                0.0043801963329315186,
                -0.07346180081367493
              ],
              [
                -0.03786218911409378,
                -0.3756209909915924,
                0.04826318100094795,
                0.0221504308283329,
                0.09282530099153519,
                0.16680485010147095,
                -0.14293517172336578,
                0.0013624976854771376,
                -0.07329433411359787,
                0.14174124598503113,
                0.0006568865501321852,
                -0.1400488317012787,
                0.5886027216911316,
                -0.051575757563114166,
                0.31405413150787354,
                0.1648426651954651,
                -0.01597498543560505,
                0.2386281043291092,
                0.2542610466480255,
                -0.05070224776864052,
                -0.1705269068479538,
                -0.0716763287782669,
                -0.23268485069274902,
                -0.4100108742713928,
                0.4192299544811249,
                0.17167216539382935,
                0.18440601229667664,
                0.20408175885677338,
                -0.015605565160512924,
                -0.10786537081003189,
                0.024496247991919518,
                0.1429516226053238,
                -0.34264928102493286,
                -0.032052792608737946,
                -0.020530495792627335,
                -0.27387306094169617,
                -0.2516607642173767,
                -0.2736217975616455,
                -0.18596889078617096,
                0.03173469752073288,
                0.10030943900346756,
                -0.13620895147323608,
                -0.1005207896232605,
                -0.12283022701740265,
                -0.051124051213264465,
                -0.32310163974761963,
                -0.142093226313591,
                -0.07711002975702286,
                -0.22255367040634155,
                0.07646802067756653,
                -0.11992426961660385,
                0.08575715869665146,
                -0.008341318927705288,
                -0.10296648740768433,
                0.28752419352531433,
                0.07400792837142944,
                -0.03355550393462181,
                0.09288810938596725,
                0.23001402616500854,
                -0.12561626732349396,
                -0.16839921474456787,
                -0.00779694365337491,
                -0.08005022257566452,
                -0.14355528354644775,
                -0.1312149167060852,
                -0.5098826885223389,
                -0.2661275267601013,
                0.14040523767471313,
                0.44354167580604553,
                0.023514529690146446,
                -0.10506517440080643,
                0.11817584931850433,
                0.33355554938316345
              ],
              [
                -0.0910579189658165,
                0.3355545997619629,
                0.05811716243624687,
                -0.16473300755023956,
                0.0709369108080864,
                0.09074244648218155,
                0.12214624136686325,
                -0.09611804038286209,
                0.007106517907232046,
                0.058341920375823975,
                -0.10761953145265579,
                0.07007338851690292,
                -0.5184310674667358,
                -0.058760274201631546,
                -0.05337381735444069,
                0.04226955771446228,
                -0.062263038009405136,
                0.1813351809978485,
                -0.15648850798606873,
                0.07462206482887268,
                -0.1399437040090561,
                -0.04243019223213196,
                0.49550744891166687,
                0.005648845806717873,
                -0.28927287459373474,
                -0.07317642867565155,
                0.1419147104024887,
                0.22166040539741516,
                -0.21309496462345123,
                0.07510768622159958,
                0.00684286467730999,
                -0.2673596739768982,
                0.12806692719459534,
                0.002990174340084195,
                -0.054018281400203705,
                0.0009771873010322452,
                0.15907828509807587,
                -0.25642403960227966,
                -0.048989538103342056,
                0.07158933579921722,
                0.12541458010673523,
                0.01099696010351181,
                0.00891557615250349,
                0.028533807024359703,
                0.21116161346435547,
                0.12597854435443878,
                0.1360885053873062,
                0.047425515949726105,
                0.19623909890651703,
                -0.10837598890066147,
                -0.1914353221654892,
                0.16432954370975494,
                -0.05742016062140465,
                0.055076029151678085,
                -0.018907591700553894,
                -0.25029078125953674,
                0.06101785972714424,
                0.010114442557096481,
                -0.034857772290706635,
                0.06062471121549606,
                -0.05650532618165016,
                0.1719602644443512,
                0.08143704384565353,
                -0.2475949078798294,
                0.2579985558986664,
                0.05067126452922821,
                0.11186283826828003,
                -0.3724955916404724,
                -0.2371671497821808,
                0.11961318552494049,
                0.16482731699943542,
                -0.1821991503238678,
                -0.06982821226119995
              ],
              [
                0.006246728822588921,
                0.05504397302865982,
                -0.16796837747097015,
                0.14449898898601532,
                -0.25562921166419983,
                0.3182520866394043,
                -0.09545107185840607,
                -0.04615171626210213,
                -0.1106659546494484,
                -0.23278194665908813,
                -0.1425330638885498,
                0.11029018461704254,
                0.45444241166114807,
                0.12028082460165024,
                0.2685967981815338,
                -0.12173385173082352,
                -0.10157351195812225,
                0.010686465539038181,
                0.3791196048259735,
                -0.20120935142040253,
                -0.0650998055934906,
                0.0015605075750499964,
                -0.19593748450279236,
                -0.5720822215080261,
                0.3533242642879486,
                -0.0833987444639206,
                0.17085500061511993,
                -0.3578716218471527,
                -0.04836279898881912,
                -0.06977038085460663,
                0.08993843197822571,
                0.06315401941537857,
                -0.2574738562107086,
                0.02168324962258339,
                0.1303720772266388,
                0.05948742851614952,
                -0.11124522984027863,
                -0.09442711621522903,
                -0.1298096776008606,
                0.02593265287578106,
                0.022937241941690445,
                0.10703059285879135,
                -0.1454353779554367,
                -0.42427223920822144,
                -0.3416149616241455,
                -0.19525904953479767,
                -0.10297483205795288,
                -0.3204667568206787,
                -0.24790695309638977,
                -0.40803197026252747,
                -0.10191648453474045,
                0.05474341660737991,
                0.057159747928380966,
                -0.10785558074712753,
                0.13551439344882965,
                0.11054551601409912,
                -0.014919568784534931,
                0.4931196868419647,
                0.06827599555253983,
                -0.11172911524772644,
                0.07573156803846359,
                0.06629463285207748,
                -0.09023329615592957,
                0.0049999370239675045,
                0.021869774907827377,
                -0.2769085168838501,
                0.006526927463710308,
                -0.38586822152137756,
                0.30258268117904663,
                0.02808266319334507,
                0.1116914451122284,
                0.16233418881893158,
                0.2622101902961731
              ],
              [
                0.09749501943588257,
                -0.33608701825141907,
                0.03157995268702507,
                0.02646680921316147,
                0.10074350982904434,
                0.03305874019861221,
                0.07955460995435715,
                -0.06337159126996994,
                0.05860898271203041,
                0.04279457777738571,
                -0.07606872916221619,
                0.19432981312274933,
                0.33735236525535583,
                0.006395567674189806,
                0.14675752818584442,
                -0.009937597438693047,
                -0.20620164275169373,
                -0.20329086482524872,
                0.05605559051036835,
                -0.017269862815737724,
                -0.0695481151342392,
                -0.19662965834140778,
                -0.1512341946363449,
                -0.1154227927327156,
                0.10356024652719498,
                0.051173895597457886,
                0.11046222597360611,
                -0.019095275551080704,
                -0.09731409698724747,
                -0.13917097449302673,
                0.21166642010211945,
                0.1170792207121849,
                -0.1038970798254013,
                0.03561675548553467,
                0.18642528355121613,
                0.07403998076915741,
                0.13134612143039703,
                0.08136419206857681,
                0.1183822900056839,
                -0.03694046288728714,
                -0.04369014874100685,
                -0.10455312579870224,
                0.20816980302333832,
                0.14691144227981567,
                -0.02616978995501995,
                -0.2721116840839386,
                -0.22249425947666168,
                0.0678630843758583,
                -0.25719574093818665,
                -0.05996745452284813,
                0.04530620947480202,
                -0.10967763513326645,
                -0.1634031981229782,
                0.08809088170528412,
                0.052858758717775345,
                -0.002267161151394248,
                0.01912175863981247,
                0.2546151876449585,
                -0.10113059729337692,
                0.010921613313257694,
                -0.1455317586660385,
                -0.06426598131656647,
                0.04185035079717636,
                0.013426120392978191,
                -0.20333579182624817,
                -0.2287936955690384,
                -0.18971624970436096,
                0.20640017092227936,
                0.05160296708345413,
                -0.04809876158833504,
                0.0378907285630703,
                0.13754339516162872,
                0.07272688299417496
              ]
            ]
          },
          {
            "bias": [
              -0.42475447058677673
            ],
            "weights": [
              [
                0.8215378522872925,
                -0.5912439823150635,
                0.3639114797115326,
                0.5920048356056213,
                0.5678815841674805,
                -0.707961916923523,
                0.322640061378479,
                0.6169826984405518
              ]
            ]
          }
        ]
      }
    ]
  },
  "normalization": {
    "mean": [
      0.0,
      0.05523809523809524,
      0.016,
      0.07276190476190476,
      0.10476190476190476,
      0.6906666666666667,
      0.14323809523809525,
      0.0419047619047619,
      0.0,
      0.01180952380952381,
      0.05506305178493114,
      0.18780952380952382,
      0.8636190476190476,
      0.3509714285714314,
      0.4760761904761849,
      0.43984761904761926,
      0.07070476190475952,
      0.45066666666666344,
      0.11123809523809523,
      0.14361904761904762,
      0.088,
      0.11466666666666667,
      0.16266666666666665,
      0.1401904761904762,
      0.12380952380952381,
      0.1158095238095238,
      0.027047619047619046,
      0.041942857142857067,
      0.001142857142857143,
      0.7432380952380953,
      0.25295238095238093,
      0.0026666666666666666,
      0.053659164760927434,
      0.06771428571428571,
      0.1356190476190476,
      0.072,
      0.0883174603174603,
      0.054857142857142854,
      0.14323809523809525,
      0.7859047619047619,
      0.07809523809523809,
      0.046857142857142854,
      0.08914285714285715,
      0.5314285714285715,
      0.3335992356278552,
      0.21066666666666697,
      0.593867129008047,
      0.01561904761904762,
      0.5346635828106314,
      0.0010857142857142858,
      0.002285714285714286,
      0.27390476190476193,
      0.5268571428571428,
      0.14323809523809525,
      0.022857142857142857,
      0.0026666666666666666,
      0.02819047619047619,
      0.43083854351051887,
      0.24076190476190476,
      0.40073015873015955,
      0.19428571428571428,
      0.27390476190476193,
      0.14323809523809525,
      0.0026666666666666666,
      0.4872819673182407,
      0.0014857142857142853,
      6.174578014597306,
      1.278857142857143,
      1.8782105306512755,
      0.3238095238095238,
      0.3238095238095238,
      0.019809523809523808,
      0.019809523809523808
    ],
    "scale": [
      1e-06,
      0.2284444091514603,
      0.2114151861914864,
      0.39284189292191285,
      0.30624638458693104,
      0.46221880340615923,
      0.35031549110859556,
      0.20037153698683147,
      1e-06,
      0.10802804708461614,
      0.4341512495774431,
      0.39055999100773287,
      0.3431926400851532,
      0.18602613524232692,
      0.2529954524431571,
      0.2584436488621632,
      0.04551167800100536,
      0.13966126822161892,
      0.3144267504616896,
      0.35070303217971494,
      0.283294899354015,
      0.3186192433331978,
      0.3690612716368723,
      0.34718454253603975,
      0.3293641231579183,
      0.319996371861523,
      0.16222220979715715,
      0.10960029792898267,
      0.03378684685507231,
      0.4368469171517088,
      0.43470389223343026,
      0.051570878948836656,
      0.14191541286600506,
      0.1215887458988339,
      0.3423835883069548,
      0.2584879107424613,
      0.21734089178088667,
      0.22770120055611207,
      0.35031549110859556,
      0.4101932070624466,
      0.2683213966162389,
      0.21133279684045894,
      0.28494983446787236,
      0.4990112673056273,
      0.3153815555945219,
      0.30697444872384827,
      0.07592287563453103,
      0.12399634256912853,
      0.08560385372243526,
      0.012101250848934686,
      0.04775447409320286,
      0.445960697047014,
      0.4992781728431025,
      0.35031549110859556,
      0.14944796377853817,
      0.05157087894883938,
      0.16551668569249672,
      0.2730478788514181,
      0.42754603258284407,
      0.3100691102183763,
      0.3956498142426039,
      0.445960697047014,
      0.35031549110859556,
      0.05157087894883938,
      0.07995924115663855,
      0.011490877777996334,
      0.7893882247381135,
      1.7162391410044202,
      0.8253612898845205,
      0.4679283236776426,
      0.4679283236776426,
      0.13934527826935417,
      0.13934527826935417
    ]
  },
  "schema_version": "router-ml-v3-runtime-v1",
  "thresholds": {
    "code_debugging": {
      "correct": 0,
      "coverage": 0.0,
      "precision": 0.0,
      "selected": 0,
      "threshold": 1.0,
      "wilson_lower_90": 0.0
    },
    "code_generation": {
      "correct": 0,
      "coverage": 0.0,
      "precision": 0.0,
      "selected": 0,
      "threshold": 1.0,
      "wilson_lower_90": 0.0
    },
    "factual_qa": {
      "correct": 0,
      "coverage": 0.0,
      "precision": 0.0,
      "selected": 0,
      "threshold": 1.0,
      "wilson_lower_90": 0.0
    },
    "logic_puzzle": {
      "correct": 0,
      "coverage": 0.0,
      "precision": 0.0,
      "selected": 0,
      "threshold": 1.0,
      "wilson_lower_90": 0.0
    },
    "math_reasoning": {
      "correct": 0,
      "coverage": 0.0,
      "precision": 0.0,
      "selected": 0,
      "threshold": 1.0,
      "wilson_lower_90": 0.0
    },
    "ner": {
      "correct": 0,
      "coverage": 0.0,
      "precision": 0.0,
      "selected": 0,
      "threshold": 1.0,
      "wilson_lower_90": 0.0
    },
    "sentiment": {
      "correct": 34,
      "coverage": 0.625,
      "precision": 0.9714285714285714,
      "selected": 35,
      "threshold": 0.899075,
      "wilson_lower_90": 0.8816029615908946
    },
    "summarization": {
      "correct": 0,
      "coverage": 0.0,
      "precision": 0.0,
      "selected": 0,
      "threshold": 1.0,
      "wilson_lower_90": 0.0
    }
  }
}

