{
  "calibration": {
    "intercept": 0.13703651639315678,
    "slope": 0.7986009295933553
  },
  "champion": "neural_sweep",
  "fail_closed": {
    "missing_assessment": true,
    "non_finite": true,
    "unknown_intent": true
  },
  "feature_names": [
    "assessment.missing",
    "contract.changed",
    "contract.exact_items",
    "contract.exact_sentences",
    "contract.kind.code",
    "contract.kind.free_text",
    "contract.kind.json",
    "contract.kind.label",
    "contract.kind.list",
    "contract.kind.number",
    "contract.max_words_log",
    "contract.strict",
    "contract.valid",
    "fg.deterministic_fit",
    "fg.format_complexity",
    "fg.generation_demand",
    "fg.knowledge_uncertainty",
    "fg.reasoning_demand",
    "intent.code_debugging",
    "intent.code_generation",
    "intent.factual_qa",
    "intent.logic_puzzle",
    "intent.math_reasoning",
    "intent.ner",
    "intent.sentiment",
    "intent.summarization",
    "mechanical.ambiguity",
    "mechanical.code_branch_count",
    "mechanical.code_language.javascript",
    "mechanical.code_language.other",
    "mechanical.code_language.python",
    "mechanical.code_language.typescript",
    "mechanical.code_lines_log",
    "mechanical.code_loop_count",
    "mechanical.code_present",
    "mechanical.currentness",
    "mechanical.entity_type_count",
    "mechanical.external_knowledge",
    "mechanical.json_requested",
    "mechanical.language_en",
    "mechanical.language_es",
    "mechanical.language_other",
    "mechanical.language_pt",
    "mechanical.negation",
    "mechanical.number_density",
    "mechanical.operator_count",
    "mechanical.prompt_chars_log",
    "mechanical.prompt_injection",
    "mechanical.prompt_tokens_log",
    "mechanical.sentence_limit",
    "mechanical.shape.boolean",
    "mechanical.shape.code",
    "mechanical.shape.free_text",
    "mechanical.shape.json",
    "mechanical.shape.list",
    "mechanical.shape.number",
    "mechanical.shape.short_text",
    "mechanical.source_chars_log",
    "mechanical.strict_format",
    "mechanical.variable_count",
    "mechanical.verifier.closed_label",
    "mechanical.verifier.code_syntax",
    "mechanical.verifier.json_structure",
    "mechanical.verifier.numeric",
    "mechanical.word_count_log",
    "mechanical.word_limit",
    "prompt.char_log",
    "prompt.constraint_count",
    "prompt.line_log",
    "proof.registered",
    "proof.supported",
    "proof.unique",
    "proof.valid"
  ],
  "fit": {
    "calibration_rows": 459,
    "protected_rows_accessed": 0,
    "rows": 2625,
    "threshold_rows": 415
  },
  "model": {
    "kind": "ensemble",
    "members": [
      {
        "activation": "tanh",
        "kind": "mlp_dense",
        "layers": [
          {
            "bias": [
              -0.07411268353462219,
              0.20789659023284912,
              0.09807025641202927,
              -0.16322876513004303,
              -0.058777812868356705,
              -0.09348377585411072,
              -0.055039096623659134,
              0.20905520021915436,
              -0.1402307003736496,
              -0.2583177983760834,
              0.31600067019462585,
              -0.07753254473209381,
              0.03804698586463928,
              -0.22978127002716064,
              -0.1727021038532257,
              0.020973140373826027,
              -0.5761873722076416,
              -0.35870441794395447,
              -0.17719510197639465,
              -0.358056902885437,
              0.2645535171031952,
              -0.17568789422512054,
              -0.34093114733695984,
              0.24023374915122986,
              0.015036089345812798,
              -0.11587962508201599,
              0.3112867474555969,
              -0.03749663755297661,
              -0.026057593524456024,
              0.10269532352685928,
              -0.05042443796992302,
              -0.0010811715619638562
            ],
            "weights": [
              [
                -0.04863673448562622,
                0.015739135444164276,
                0.03624995797872543,
                0.149668887257576,
                0.12392304837703705,
                -0.0745185986161232,
                0.010357385501265526,
                0.06921598315238953,
                -0.0341716893017292,
                -0.06497015058994293,
                -0.03743457794189453,
                0.03515446186065674,
                -0.24816469848155975,
                -0.03191480040550232,
                -0.08217212557792664,
                -0.036718130111694336,
                -0.16829605400562286,
                0.07861504703760147,
                -0.0690237432718277,
                0.10334338247776031,
                -0.08686968684196472,
                0.07139121741056442,
                -0.03662702068686485,
                0.16252508759498596,
                -0.14138886332511902,
                0.14076237380504608,
                -0.034181151539087296,
                0.06122402474284172,
                0.2721015512943268,
                0.052295319736003876,
                0.09465224295854568,
                -0.030276942998170853,
                0.140356183052063,
                -0.23975327610969543,
                -0.0922403633594513,
                0.019189663231372833,
                0.0022701697889715433,
                0.0918106958270073,
                -0.08910588175058365,
                0.00433683255687356,
                0.038789913058280945,
                -0.11884648352861404,
                0.06758779287338257,
                0.078254833817482,
                0.15793052315711975,
                0.13675442337989807,
                0.11367291957139969,
                0.16499948501586914,
                -0.05184782296419144,
                -0.005178431980311871,
                -0.13754674792289734,
                -0.033340997993946075,
                -0.05772740766406059,
                0.027988387271761894,
                0.04032118245959282,
                0.05515497550368309,
                -0.07396639138460159,
                0.012522082775831223,
                0.1261834055185318,
                -0.04623996093869209,
                0.14272227883338928,
                0.1157742291688919,
                -0.03206789866089821,
                -0.08014688640832901,
                -0.0064147040247917175,
                0.12481513619422913,
                0.06388074904680252,
                -0.06557995080947876,
                0.04482221603393555,
                -0.04207807406783104,
                -0.03618014603853226,
                -0.0644221231341362,
                0.09561633318662643
              ],
              [
                -0.08894415944814682,
                0.19613617658615112,
                -0.04929444193840027,
                0.14007273316383362,
                -0.21594811975955963,
                0.15957196056842804,
                -0.12445811927318573,
                -0.4939463138580322,
                -0.008895967155694962,
                -0.06363927572965622,
                0.21201461553573608,
                -0.17281244695186615,
                -0.40180066227912903,
                0.39091047644615173,
                -0.035819120705127716,
                -0.23354178667068481,
                0.23066948354244232,
                0.19121132791042328,
                -0.07744845002889633,
                -0.1041218489408493,
                -0.45937255024909973,
                0.21974381804466248,
                0.2810533046722412,
                0.22535061836242676,
                -0.12266794592142105,
                -0.3574047088623047,
                0.017169635742902756,
                0.20471537113189697,
                0.027535101398825645,
                0.22411325573921204,
                -0.08512867987155914,
                -0.03828710690140724,
                0.01993037946522236,
                -0.06571289151906967,
                -0.17518796026706696,
                -0.017665119841694832,
                -0.2494305968284607,
                -0.24067974090576172,
                -0.091891810297966,
                0.35384872555732727,
                -0.19995424151420593,
                0.08222176134586334,
                -0.1164255440235138,
                0.05541268363595009,
                0.29591473937034607,
                0.18309888243675232,
                0.3339599668979645,
                -0.1017855852842331,
                0.2682097852230072,
                -0.07611476629972458,
                -0.2526576519012451,
                -0.11316391080617905,
                0.19104400277137756,
                -0.0022863878402858973,
                -0.14019203186035156,
                0.10372919589281082,
                -0.1298852413892746,
                -0.3457717001438141,
                0.19598610699176788,
                0.22257326543331146,
                0.013793383724987507,
                0.052355021238327026,
                -0.11484558135271072,
                0.0023723847698420286,
                0.3050406873226166,
                -0.1252925992012024,
                0.24896106123924255,
                -0.22798439860343933,
                -0.10593158006668091,
                0.16145963966846466,
                0.04994531720876694,
                0.02574434131383896,
                -0.02551226131618023
              ],
              [
                0.059577103704214096,
                -0.3042621910572052,
                -0.3597353398799896,
                -0.165707066655159,
                0.1200847178697586,
                0.03127308189868927,
                -0.02855396457016468,
                0.19581793248653412,
                0.04171483963727951,
                0.035556286573410034,
                0.32686305046081543,
                -0.13705608248710632,
                0.3535759449005127,
                -0.031225737184286118,
                0.039124198257923126,
                0.08960935473442078,
                0.10583720356225967,
                0.24164153635501862,
                0.09817319363355637,
                -0.02654697187244892,
                -0.2630326449871063,
                -0.37779197096824646,
                -0.26074907183647156,
                -0.21873721480369568,
                0.20159609615802765,
                0.08391598612070084,
                -0.16595607995986938,
                0.05535693094134331,
                -0.02566688507795334,
                0.02382410317659378,
                0.061957914382219315,
                0.0004925427492707968,
                -0.14196062088012695,
                -0.3067464828491211,
                0.16027496755123138,
                0.40017426013946533,
                0.052880410104990005,
                0.3623195290565491,
                -0.04358202964067459,
                0.2123076319694519,
                0.014467527158558369,
                -0.39047735929489136,
                0.003915189765393734,
                -0.043557606637477875,
                0.10132443159818649,
                -0.27274566888809204,
                -0.05367128923535347,
                -0.13997113704681396,
                -0.07799773663282394,
                -0.15263360738754272,
                0.14487336575984955,
                0.055219702422618866,
                0.051934365183115005,
                -0.10631047934293747,
                -0.18945282697677612,
                0.05326072499155998,
                -0.15461641550064087,
                -0.023274384438991547,
                0.0907653421163559,
                -0.16995106637477875,
                0.29289889335632324,
                -0.01983371190726757,
                -0.06100344657897949,
                -0.07377154380083084,
                -0.066734179854393,
                -0.32207345962524414,
                -0.2442232072353363,
                0.12256990373134613,
                0.33416157960891724,
                0.10520932078361511,
                0.20311762392520905,
                0.014750056900084019,
                0.217818945646286
              ],
              [
                -0.09628337621688843,
                0.27583035826683044,
                0.0030392042826861143,
                0.19248469173908234,
                0.004915637895464897,
                0.12218522280454636,
                -0.014366481453180313,
                0.1336919665336609,
                -0.08537352830171585,
                0.15649321675300598,
                0.3035432994365692,
                0.39693817496299744,
                -0.41307079792022705,
                -0.029192866757512093,
                -0.16361859440803528,
                -0.13965582847595215,
                -0.07641089707612991,
                -0.28692975640296936,
                0.08307193219661713,
                0.08833500742912292,
                0.06672798842191696,
                -0.4244896471500397,
                0.3598928153514862,
                0.20110978186130524,
                -0.25849735736846924,
                -0.1409197598695755,
                -0.13835346698760986,
                0.13018929958343506,
                0.3112115263938904,
                -0.04876423254609108,
                0.14991526305675507,
                -0.1011459082365036,
                0.21803781390190125,
                -0.4883579611778259,
                0.0803692415356636,
                0.27834656834602356,
                0.3705746531486511,
                0.1159098893404007,
                -0.2060292810201645,
                -0.10207574814558029,
                0.15306270122528076,
                -0.09124696254730225,
                -0.14566989243030548,
                -0.56252121925354,
                0.11535947769880295,
                0.4804064929485321,
                -0.22604945302009583,
                0.17316488921642303,
                -0.1304602473974228,
                0.21673037111759186,
                0.16767287254333496,
                0.2829858958721161,
                -0.1024911180138588,
                -0.14900188148021698,
                0.030449936166405678,
                -0.14080888032913208,
                -0.05080855265259743,
                -0.32284781336784363,
                -0.0820562094449997,
                -0.04055263474583626,
                0.17307870090007782,
                0.3144982159137726,
                -0.06322427839040756,
                -0.12751038372516632,
                -0.06547386944293976,
                0.08446723967790604,
                -0.16240425407886505,
                -0.045685041695833206,
                -0.2878813147544861,
                0.20213839411735535,
                0.1587645560503006,
                -0.22939054667949677,
                -0.36548057198524475
              ],
              [
                0.04489907622337341,
                -0.10332582145929337,
                -0.08162271976470947,
                0.021807149052619934,
                -0.008536559529602528,
                -0.020773768424987793,
                -0.07141073793172836,
                0.10456781834363937,
                0.07932082563638687,
                0.2090068906545639,
                0.12390942871570587,
                0.011580821126699448,
                0.3301461338996887,
                0.015706349164247513,
                0.000683064863551408,
                0.013472894206643105,
                -0.053643956780433655,
                0.14529776573181152,
                0.18757757544517517,
                -0.014500048942863941,
                -0.1654973030090332,
                0.1256123185157776,
                0.009022700600326061,
                0.0012298879446461797,
                0.030216624960303307,
                0.1663348227739334,
                -0.29927828907966614,
                -0.023087847977876663,
                0.07557419687509537,
                -0.10241223126649857,
                0.14998342096805573,
                0.043410882353782654,
                -0.20530450344085693,
                0.15121275186538696,
                0.019083941355347633,
                -0.16227197647094727,
                0.15384343266487122,
                0.39068904519081116,
                0.02361132763326168,
                0.051855966448783875,
                0.11247539520263672,
                -0.014034665189683437,
                -0.21490542590618134,
                0.24338576197624207,
                0.0382128581404686,
                0.018506783992052078,
                0.04813697561621666,
                -0.011179426684975624,
                0.04947653040289879,
                0.05118951201438904,
                -0.04603400081396103,
                0.06116097792983055,
                0.1067645400762558,
                -0.1116732582449913,
                0.11719177663326263,
                -0.1144075095653534,
                -0.046189840883016586,
                -0.04877994582056999,
                0.0471021831035614,
                0.04486819729208946,
                -0.04855632781982422,
                -0.051010116934776306,
                -0.12615494430065155,
                -0.13841156661510468,
                -0.06810802966356277,
                -0.2165420800447464,
                0.027140608057379723,
                0.19666510820388794,
                -0.08660174906253815,
                0.11370594799518585,
                0.2183513045310974,
                -0.06511422246694565,
                0.10745120048522949
              ],
              [
                0.06559374183416367,
                0.18886317312717438,
                -0.06403466314077377,
                -0.07632966339588165,
                0.07837624847888947,
                -0.16213548183441162,
                0.04796748608350754,
                -0.11169624328613281,
                0.010395782999694347,
                -0.013330592773854733,
                0.44320303201675415,
                0.20141351222991943,
                -0.3460661768913269,
                0.1426127851009369,
                -0.049268558621406555,
                -0.19835689663887024,
                -0.2515576183795929,
                0.17948894202709198,
                -0.196760892868042,
                0.18510934710502625,
                -0.31161296367645264,
                0.3941439092159271,
                0.3281361758708954,
                -0.02014944516122341,
                -0.2725349962711334,
                -0.20956167578697205,
                0.09151730686426163,
                0.12298613041639328,
                -0.004899594932794571,
                0.09094768017530441,
                -0.18393288552761078,
                -0.07703450322151184,
                0.1337098628282547,
                0.004668667912483215,
                0.12018366903066635,
                -0.11591754108667374,
                -0.0856415182352066,
                -0.4705967605113983,
                0.01387274730950594,
                0.2020392268896103,
                -0.23968146741390228,
                -0.06664808094501495,
                -0.19660788774490356,
                0.07520077377557755,
                0.5006468892097473,
                0.20512992143630981,
                0.32402729988098145,
                0.03237741068005562,
                0.3226620852947235,
                0.07798443734645844,
                -0.2501509189605713,
                0.060561541467905045,
                0.015321905724704266,
                0.03574943542480469,
                0.09679532051086426,
                0.07548477500677109,
                -0.05570323020219803,
                -0.06843668222427368,
                -0.2616996765136719,
                -0.1458122879266739,
                -0.28792256116867065,
                0.026442818343639374,
                0.15680266916751862,
                -0.09017675369977951,
                0.3146546483039856,
                0.03458293527364731,
                0.1810891181230545,
                -0.10718904435634613,
                0.05851781368255615,
                -0.12641243636608124,
                -0.021005747839808464,
                -0.18292777240276337,
                -0.19960856437683105
              ],
              [
                -0.10221628844738007,
                -0.0062882667407393456,
                0.08176727592945099,
                -0.16236096620559692,
                0.08001101016998291,
                0.030546139925718307,
                -0.06655289977788925,
                0.03758033737540245,
                -0.007105499971657991,
                0.21065567433834076,
                0.06974028050899506,
                -0.052049413323402405,
                0.18599645793437958,
                0.0062784235924482346,
                0.02753235585987568,
                -0.12319185584783554,
                -0.22115564346313477,
                0.04318583011627197,
                -0.010714351199567318,
                0.10877297818660736,
                -0.10886513441801071,
                0.01011730544269085,
                -0.010067067109048367,
                -0.0014572346117347479,
                0.002938892226666212,
                -0.04552776366472244,
                0.0626678317785263,
                -0.15495948493480682,
                0.05626349523663521,
                0.06192664057016373,
                0.10003115236759186,
                0.05710039287805557,
                -0.09220617264509201,
                -0.03911583870649338,
                -0.03537096455693245,
                0.21849727630615234,
                0.022157274186611176,
                0.00032023381209000945,
                -0.10828130692243576,
                -0.09991812705993652,
                -0.22318238019943237,
                0.04998047277331352,
                0.21458974480628967,
                -0.04030754789710045,
                0.09878219664096832,
                -0.19457663595676422,
                -0.09542382508516312,
                0.07432164251804352,
                -0.008118919096887112,
                -0.03921909257769585,
                -0.05550301820039749,
                -0.09771087020635605,
                0.1430991142988205,
                0.011578687466681004,
                -0.2236277312040329,
                0.020308228209614754,
                0.006767820101231337,
                0.10870695859193802,
                -0.05258951336145401,
                -0.12081514298915863,
                0.18273985385894775,
                -0.20542418956756592,
                0.0844116136431694,
                -0.04073222726583481,
                0.08402866870164871,
                0.059329643845558167,
                0.08191154152154922,
                0.06334836035966873,
                0.04837293177843094,
                0.04266012832522392,
                -0.003120413050055504,
                -0.03371049463748932,
                0.024387177079916
              ],
              [
                0.10764185339212418,
                -0.24774207174777985,
                0.006282533053308725,
                -0.022636406123638153,
                0.04877740144729614,
                -0.21467821300029755,
                0.06558173149824142,
                0.30349016189575195,
                0.03376144915819168,
                -0.10049756616353989,
                0.1792265772819519,
                0.03848051279783249,
                0.37419411540031433,
                -0.19064605236053467,
                0.01982124149799347,
                -0.027054425328969955,
                0.25683140754699707,
                -0.173182412981987,
                0.05040150508284569,
                0.14937682449817657,
                0.274648517370224,
                0.005415699910372496,
                -0.010538144037127495,
                -0.3298909068107605,
                0.2587592899799347,
                -0.10471188277006149,
                -0.05677543580532074,
                0.003989923745393753,
                -0.01421364862471819,
                -0.02117946371436119,
                0.03706450015306473,
                0.04196454584598541,
                -0.12793555855751038,
                -0.02162037044763565,
                0.10084082931280136,
                0.03193102404475212,
                0.15800048410892487,
                0.12719698250293732,
                -0.056985944509506226,
                0.05595351383090019,
                0.03206871077418327,
                -0.0524870939552784,
                0.1203485056757927,
                -0.00426725298166275,
                -0.14495614171028137,
                0.017606766894459724,
                -0.0355997309088707,
                -0.02497333101928234,
                -0.15174400806427002,
                -0.28204333782196045,
                -0.13129839301109314,
                -0.08296116441488266,
                0.0410468727350235,
                0.00438165757805109,
                -0.006483975797891617,
                -0.03551021218299866,
                0.0011093324283137918,
                0.06425455212593079,
                0.002352849580347538,
                -0.3285801112651825,
                -0.025544360280036926,
                -0.059779997915029526,
                -0.06649251282215118,
                0.03343530744314194,
                -0.18289954960346222,
                0.08203081786632538,
                -0.010210754349827766,
                0.15142275393009186,
                -0.05009399354457855,
                0.06579647958278656,
                0.15326546132564545,
                -0.013945075683295727,
                -0.1172419860959053
              ],
              [
                -0.1003853976726532,
                0.14671434462070465,
                -0.0650680810213089,
                -0.12236388772726059,
                0.02924228087067604,
                -0.23113323748111725,
                -0.02936505898833275,
                0.008590125478804111,
                0.11246602237224579,
                0.1326107382774353,
                0.11261652410030365,
                0.12935899198055267,
                -0.08076520264148712,
                0.2297300398349762,
                0.07845838367938995,
                0.05653944984078407,
                -0.2691750228404999,
                -0.017626069486141205,
                -0.028382813557982445,
                0.01552912313491106,
                -0.05598394572734833,
                0.49968421459198,
                -0.059425149112939835,
                -0.2535473108291626,
                0.05857079103589058,
                -0.21818289160728455,
                -0.09921850264072418,
                -0.06088118255138397,
                0.026613011956214905,
                -0.04216707870364189,
                0.02724112942814827,
                0.3781488537788391,
                0.00153985689394176,
                -0.11646554619073868,
                -0.04352877661585808,
                0.16333815455436707,
                0.29289013147354126,
                0.05402864143252373,
                -0.014024018310010433,
                0.18711738288402557,
                -0.058577604591846466,
                -0.4212208092212677,
                -0.2540742754936218,
                0.1706620454788208,
                0.003211459843441844,
                -0.08288557827472687,
                0.14747212827205658,
                -0.4889379143714905,
                0.15365780889987946,
                -0.05750301480293274,
                0.04635388031601906,
                -0.016725730150938034,
                0.02785523049533367,
                0.15550753474235535,
                -0.16104727983474731,
                0.006223103031516075,
                0.0241080354899168,
                0.16737589240074158,
                -4.731943045044318e-05,
                0.1453920304775238,
                0.1265629231929779,
                -0.09678011387586594,
                0.09059862792491913,
                0.016322951763868332,
                0.14550592005252838,
                0.052133433520793915,
                0.12574560940265656,
                -0.02424408309161663,
                0.24847054481506348,
                0.24400371313095093,
                0.18523499369621277,
                -0.0512426532804966,
                -0.05703466758131981
              ],
              [
                -0.10684338957071304,
                0.0559605173766613,
                0.011436114087700844,
                0.10653986781835556,
                -0.15459735691547394,
                0.06138907000422478,
                0.10875152051448822,
                -0.05933435261249542,
                0.10018579661846161,
                0.07139261811971664,
                -0.20744124054908752,
                0.04277793690562248,
                -0.33320632576942444,
                -0.08387764543294907,
                0.032557301223278046,
                0.13115012645721436,
                0.03218044713139534,
                0.15734846889972687,
                -0.01207930687814951,
                -0.003014751709997654,
                -0.056597914546728134,
                -0.14271119236946106,
                0.2124888300895691,
                0.08543876558542252,
                -0.19531606137752533,
                0.023313939571380615,
                0.004604715388268232,
                0.20898908376693726,
                0.002960596000775695,
                -0.06659819185733795,
                -0.04281047359108925,
                -0.03658542409539223,
                0.027215393260121346,
                0.05092991143465042,
                -0.10153836011886597,
                -0.0434170700609684,
                -0.04626404121518135,
                -0.11442918330430984,
                0.09879964590072632,
                0.06195656582713127,
                0.1659940481185913,
                0.020263949409127235,
                -0.08856288343667984,
                0.09601937979459763,
                0.08101611584424973,
                0.10771916061639786,
                0.136841282248497,
                0.08279354125261307,
                0.08046997338533401,
                -0.12195887416601181,
                -0.04367351159453392,
                -0.08321215957403183,
                -0.0036229677498340607,
                0.02215621992945671,
                0.024197448045015335,
                -0.014387852512300014,
                -0.018902746960520744,
                -0.15624798834323883,
                0.13299560546875,
                0.21182024478912354,
                0.0698598176240921,
                0.06577879190444946,
                -0.0034074338618665934,
                0.050185028463602066,
                0.17361150681972504,
                -0.09149700403213501,
                -0.024100055918097496,
                -0.081634521484375,
                -0.1650710254907608,
                -0.09288357198238373,
                0.08083948493003845,
                0.0634445771574974,
                -0.08168841898441315
              ],
              [
                -0.045222241431474686,
                0.17363214492797852,
                -0.05335176736116409,
                -0.17677292227745056,
                -0.02241276577115059,
                0.08815400302410126,
                -0.1812404841184616,
                0.10961569845676422,
                4.0778624679660425e-05,
                -0.08789177238941193,
                0.17477798461914062,
                -0.14226901531219482,
                -0.1508711576461792,
                0.25581303238868713,
                -0.014412914402782917,
                0.014643882401287556,
                -0.10410318523645401,
                0.12205979973077774,
                -0.25094130635261536,
                0.12853670120239258,
                -0.4314281940460205,
                -0.011931020766496658,
                0.29401376843452454,
                0.14576493203639984,
                0.07116616517305374,
                -0.24836622178554535,
                -0.15990351140499115,
                0.023540955036878586,
                0.004953095223754644,
                0.20713284611701965,
                -0.052655406296253204,
                -0.07685557007789612,
                0.2176603078842163,
                0.028072156012058258,
                -0.028595641255378723,
                0.010967249982059002,
                0.027827663347125053,
                0.1501699835062027,
                -0.16091038286685944,
                0.37693092226982117,
                -0.18036898970603943,
                0.05059963837265968,
                -0.08092249184846878,
                0.032431744039058685,
                0.04465801641345024,
                -0.09388168901205063,
                0.1515335887670517,
                -0.07093372195959091,
                0.2244008481502533,
                -0.36089131236076355,
                -0.029332352802157402,
                -0.11891496181488037,
                0.13940685987472534,
                -0.07820110768079758,
                -0.31685078144073486,
                0.054111700505018234,
                -0.13271553814411163,
                -0.11675035953521729,
                0.15946991741657257,
                0.08331209421157837,
                0.08071136474609375,
                -0.11125088483095169,
                -0.1583995521068573,
                0.029627660289406776,
                0.1634504646062851,
                -0.10191109031438828,
                0.24865546822547913,
                0.026808859780430794,
                0.24749334156513214,
                -0.020649682730436325,
                -0.11789468675851822,
                0.016587194055318832,
                -0.12980489432811737
              ],
              [
                0.09784652292728424,
                0.27822867035865784,
                -0.023499416187405586,
                -0.3788047730922699,
                -0.13853523135185242,
                0.007685182616114616,
                -0.09936156868934631,
                0.2568632662296295,
                -0.0015471685910597444,
                0.09653637558221817,
                -0.1437777429819107,
                -0.25032490491867065,
                -0.32498788833618164,
                -0.08060722053050995,
                0.044942572712898254,
                -0.028465157374739647,
                0.40540367364883423,
                -0.02133152447640896,
                -0.07816477864980698,
                -0.055643074214458466,
                -0.08866024017333984,
                -0.4472391903400421,
                0.2143617570400238,
                0.09842997044324875,
                0.05845987796783447,
                0.1279495805501938,
                -0.08443158119916916,
                0.07977702468633652,
                0.024785194545984268,
                0.04084330424666405,
                -0.11314067989587784,
                -0.0556599460542202,
                0.10497511178255081,
                0.09815585613250732,
                -0.0335376039147377,
                0.04960947483778,
                -0.02175787091255188,
                -0.18315401673316956,
                -0.08800230920314789,
                0.1443759649991989,
                0.12555386126041412,
                0.21491330862045288,
                -0.26893529295921326,
                0.014351966790854931,
                0.02913672663271427,
                0.09398052841424942,
                -0.019705530256032944,
                -0.0645795464515686,
                0.1286344975233078,
                -0.2138957381248474,
                0.02496410347521305,
                -0.008854868821799755,
                -0.011766686104238033,
                -0.12391847372055054,
                -0.1121974065899849,
                -0.07686817646026611,
                0.20726574957370758,
                -0.010912967845797539,
                0.0355171300470829,
                0.060961123555898666,
                0.03807378560304642,
                -0.03780369088053703,
                0.053883153945207596,
                0.0569903701543808,
                0.07369630038738251,
                0.46678104996681213,
                0.13009288907051086,
                -0.1701929271221161,
                -0.18809287250041962,
                0.09172248840332031,
                0.026273155584931374,
                -0.15091779828071594,
                -0.16818350553512573
              ],
              [
                0.008004839532077312,
                -0.15384690463542938,
                0.0033458888065069914,
                -0.01878751628100872,
                -0.027335360646247864,
                0.07313930243253708,
                -0.1629079133272171,
                -0.037781972438097,
                0.0746130645275116,
                -0.03267807140946388,
                0.0151644516736269,
                -0.06819318979978561,
                0.25279995799064636,
                0.30620914697647095,
                -0.06848848611116409,
                -0.11561122536659241,
                -0.032643288373947144,
                -0.17556001245975494,
                0.03695040941238403,
                0.05308254063129425,
                -0.06534744799137115,
                0.209524005651474,
                -0.16403822600841522,
                -0.21025802195072174,
                0.16460363566875458,
                -0.0331287756562233,
                0.15058429539203644,
                -0.013756188564002514,
                -0.009206492453813553,
                -0.17661650478839874,
                0.14237083494663239,
                0.031583789736032486,
                -0.11684992164373398,
                0.05503079295158386,
                0.05636512115597725,
                0.010054216720163822,
                -0.13164080679416656,
                -0.28950390219688416,
                -0.0008632790995761752,
                0.04935499653220177,
                0.022536899894475937,
                -0.16633671522140503,
                -0.24760554730892181,
                -0.2381659597158432,
                -0.02859770506620407,
                -0.10651486366987228,
                0.05166090652346611,
                0.31077003479003906,
                0.05418695509433746,
                0.08283420652151108,
                -0.08050289750099182,
                0.0956805869936943,
                0.06134958192706108,
                -0.07576114684343338,
                0.10343145579099655,
                -0.06300686299800873,
                -0.13097473978996277,
                0.029927661642432213,
                0.14682967960834503,
                0.040946703404188156,
                0.13175933063030243,
                -0.014992074109613895,
                -0.142685666680336,
                -0.17068259418010712,
                -0.14141106605529785,
                -0.32396644353866577,
                -0.09852022677659988,
                0.02149640955030918,
                0.015932902693748474,
                0.01815105229616165,
                0.07084406167268753,
                0.003759807674214244,
                0.02121078595519066
              ],
              [
                -0.0333653949201107,
                0.3226858973503113,
                0.482864648103714,
                -0.07695871591567993,
                -0.010007860139012337,
                0.09476903080940247,
                -0.21813517808914185,
                -0.026683300733566284,
                0.004152405541390181,
                0.05519990622997284,
                0.43798011541366577,
                0.0594632551074028,
                -0.3646804392337799,
                -0.11708380281925201,
                -0.2516326904296875,
                0.11570882052183151,
                0.07245767116546631,
                0.2006615549325943,
                0.0252890232950449,
                -0.07705967128276825,
                0.2766035795211792,
                -0.06285128742456436,
                0.2730971872806549,
                -0.03791080042719841,
                -0.41366225481033325,
                0.1255582720041275,
                -0.27323514223098755,
                0.30432283878326416,
                0.03889930248260498,
                -0.03352237492799759,
                -0.013813056983053684,
                -0.022738559171557426,
                -0.012517771683633327,
                0.029792174696922302,
                -0.09619434177875519,
                -0.033121876418590546,
                -0.018183713778853416,
                -0.13158360123634338,
                -0.03129125013947487,
                -0.2936760187149048,
                0.34406614303588867,
                -0.04671080783009529,
                -0.06578295677900314,
                0.3945111930370331,
                0.14680787920951843,
                0.3407755196094513,
                0.05985049530863762,
                0.0026827496476471424,
                0.04525913670659065,
                0.16784876585006714,
                0.08245332539081573,
                -0.05201670527458191,
                -0.025362497195601463,
                -0.05959292873740196,
                0.03684234619140625,
                0.07956840842962265,
                0.07739053666591644,
                -0.041923630982637405,
                -0.250420480966568,
                -0.0001856868912000209,
                -0.4301968216896057,
                -0.16721445322036743,
                -0.014153124764561653,
                -0.033510416746139526,
                0.2683555483818054,
                -0.15096580982208252,
                0.014166015200316906,
                -0.2396366149187088,
                -0.23369841277599335,
                0.1865072399377823,
                0.0285637229681015,
                -0.12303174287080765,
                -0.18110549449920654
              ],
              [
                0.015533912926912308,
                -0.004439460579305887,
                0.046142373234033585,
                0.06735178083181381,
                -0.03959076106548309,
                -0.02047109417617321,
                -0.03262069821357727,
                -0.09730499982833862,
                0.006571090314537287,
                -0.0226290300488472,
                -0.1548110693693161,
                0.17176005244255066,
                -0.3151644170284271,
                -0.18582168221473694,
                -0.08532927930355072,
                -0.014389772899448872,
                0.36065924167633057,
                -0.08606334030628204,
                -0.15029406547546387,
                0.1692657470703125,
                0.06086231395602226,
                -0.03861105069518089,
                0.051197633147239685,
                0.2075149267911911,
                -0.045167770236730576,
                0.051455508917570114,
                0.03673050180077553,
                -0.023785805329680443,
                0.2289588302373886,
                -0.05783000588417053,
                0.06355656683444977,
                -0.07117973268032074,
                0.34274739027023315,
                0.28050678968429565,
                0.07633516937494278,
                0.18361623585224152,
                0.13651247322559357,
                0.23571906983852386,
                0.014791710302233696,
                0.0038053267635405064,
                0.20559324324131012,
                0.05747343972325325,
                -0.1307310312986374,
                0.05979979783296585,
                -0.01637359708547592,
                0.026341723278164864,
                0.05618809536099434,
                0.22833748161792755,
                -0.07951031625270844,
                -0.025554971769452095,
                -0.20353497564792633,
                0.0024403310380876064,
                -0.09336232393980026,
                -0.08205404132604599,
                -0.06665189564228058,
                -0.07234382629394531,
                0.06700292229652405,
                -0.09542021155357361,
                0.20886698365211487,
                0.03359225019812584,
                0.07412847876548767,
                -0.17628048360347748,
                0.047208234667778015,
                0.0746353268623352,
                0.10105466842651367,
                -0.05438092723488808,
                -0.039535701274871826,
                0.03849923983216286,
                0.0023478204384446144,
                0.0014499714598059654,
                0.01486793253570795,
                0.03916105628013611,
                -0.0938350185751915
              ],
              [
                0.08223915100097656,
                0.011045964434742928,
                -0.01812714897096157,
                0.06254727393388748,
                0.040349170565605164,
                -0.03880247846245766,
                0.030130745843052864,
                0.09062843024730682,
                0.09049631655216217,
                -0.011305299587547779,
                -0.03109901398420334,
                -0.04456936940550804,
                -0.09005405753850937,
                0.0774284154176712,
                -0.06295642256736755,
                0.027767013758420944,
                -0.14720168709754944,
                -0.0320662297308445,
                -0.05372269079089165,
                -0.038159314543008804,
                0.11173160374164581,
                0.20827104151248932,
                -0.05070294067263603,
                -0.011119741946458817,
                -0.10657284408807755,
                -0.060096628963947296,
                -0.06845331192016602,
                -0.020305322483181953,
                0.007487092632800341,
                0.05243511125445366,
                -0.0017950860783457756,
                -0.026882236823439598,
                0.18824556469917297,
                -0.019737187772989273,
                -0.042353082448244095,
                0.10047076642513275,
                0.11209763586521149,
                0.2822019159793854,
                0.08772139251232147,
                0.06268107891082764,
                0.03546794876456261,
                -0.03212263807654381,
                0.018762430176138878,
                -0.05680970102548599,
                0.026451725512742996,
                0.19175073504447937,
                0.009177756495773792,
                -0.19606758654117584,
                -0.0025866266805678606,
                0.025796940550208092,
                -0.13433042168617249,
                0.03639218211174011,
                -0.08229149878025055,
                -0.05066663399338722,
                -0.04845850169658661,
                -0.13264872133731842,
                -0.14837053418159485,
                -0.12962819635868073,
                -0.15733614563941956,
                -0.11008955538272858,
                -0.04162894934415817,
                0.15097355842590332,
                0.10230883210897446,
                -0.18000094592571259,
                0.07289605587720871,
                0.031036851927638054,
                0.1446567177772522,
                -0.01248603593558073,
                -0.1547154188156128,
                0.10102342069149017,
                -0.022664641961455345,
                -0.09633468091487885,
                -0.11550147831439972
              ],
              [
                0.004980906378477812,
                0.13738253712654114,
                0.02354106865823269,
                -0.0428096279501915,
                0.0909358486533165,
                -0.44255396723747253,
                0.23419605195522308,
                0.4117118716239929,
                -0.06079784780740738,
                0.277917742729187,
                0.21969722211360931,
                -0.24971814453601837,
                -0.2750350534915924,
                -0.032246094197034836,
                0.13207009434700012,
                0.2076881378889084,
                -0.1329018622636795,
                -0.003916590940207243,
                -0.11182969063520432,
                0.15993338823318481,
                -0.210952028632164,
                -0.07033691555261612,
                0.17496134340763092,
                0.043060339987277985,
                -0.030055176466703415,
                0.10882164537906647,
                0.14859262108802795,
                0.2640300691127777,
                0.043138135224580765,
                -0.022591477259993553,
                0.05377402901649475,
                -0.022400468587875366,
                0.159819558262825,
                -0.028180964291095734,
                0.03625881299376488,
                -0.03024519979953766,
                0.1756465882062912,
                0.1292514055967331,
                0.05298502743244171,
                -0.05307399854063988,
                0.07382473349571228,
                -0.15254893898963928,
                0.09662563353776932,
                0.1605057418346405,
                0.39431074261665344,
                0.21931496262550354,
                0.30891096591949463,
                0.4215565025806427,
                0.387713760137558,
                -0.1756804883480072,
                0.041537072509527206,
                0.1821305751800537,
                -0.09468351304531097,
                0.19133751094341278,
                -0.02294444851577282,
                -0.024402206763625145,
                -0.21738353371620178,
                0.05985016003251076,
                0.026575034484267235,
                0.012424933724105358,
                0.1875707358121872,
                0.022880274802446365,
                0.03541680425405502,
                0.117649607360363,
                0.35475924611091614,
                0.0323868952691555,
                0.28146371245384216,
                -0.020207814872264862,
                -0.19424958527088165,
                0.17567646503448486,
                0.25293317437171936,
                -0.06691203266382217,
                0.009178828448057175
              ],
              [
                0.039962735027074814,
                0.04332893714308739,
                0.09123116731643677,
                0.1936090886592865,
                0.06679903715848923,
                -0.03820090740919113,
                0.18393856287002563,
                0.3477848172187805,
                -0.038723964244127274,
                0.08780815452337265,
                -0.414509654045105,
                0.05400688946247101,
                0.2570509910583496,
                -0.11532187461853027,
                0.3067469298839569,
                0.21689045429229736,
                -0.08743032813072205,
                0.011342345736920834,
                0.07376854866743088,
                0.009668640792369843,
                -0.30188798904418945,
                0.043706342577934265,
                -0.012216109782457352,
                -0.19349876046180725,
                0.3151949644088745,
                -0.09058377146720886,
                -0.24887600541114807,
                -0.18097510933876038,
                0.4357038140296936,
                -0.242190882563591,
                0.13898880779743195,
                0.05417245253920555,
                0.06681963801383972,
                0.08772153407335281,
                0.24107535183429718,
                -0.0872512012720108,
                -0.041606929153203964,
                0.5531375408172607,
                0.1224622130393982,
                -0.00419497350230813,
                0.16376911103725433,
                -0.12247803807258606,
                0.05144163593649864,
                0.3068518042564392,
                -0.09823941439390182,
                -0.15279802680015564,
                -0.40728095173835754,
                0.18609455227851868,
                -0.4369719326496124,
                -0.15194563567638397,
                0.1905084252357483,
                0.16332094371318817,
                -0.13499055802822113,
                0.14707355201244354,
                0.2509934902191162,
                0.48437389731407166,
                0.13969025015830994,
                -0.008434802293777466,
                -0.09088798612356186,
                -0.007227079477161169,
                -0.12374085932970047,
                0.180709108710289,
                0.055167220532894135,
                0.49303704500198364,
                -0.3650650382041931,
                0.27264493703842163,
                -0.42314231395721436,
                0.12121838331222534,
                0.16426222026348114,
                0.2938315272331238,
                0.20778755843639374,
                0.17175403237342834,
                0.2670564353466034
              ],
              [
                0.04539036750793457,
                0.08801598846912384,
                0.021610325202345848,
                -0.15059106051921844,
                -0.15037669241428375,
                0.14730529487133026,
                0.03743043541908264,
                -0.11941499263048172,
                0.033733904361724854,
                -0.1936560720205307,
                0.031545866280794144,
                0.32838642597198486,
                0.13893471658229828,
                0.033768244087696075,
                -0.08535052090883255,
                -0.007740803062915802,
                0.07560756802558899,
                0.03705059736967087,
                0.08221916109323502,
                -0.12400512397289276,
                0.05140634998679161,
                -0.4040612280368805,
                -0.0030074892565608025,
                -0.0125574367120862,
                -0.013151049613952637,
                -0.15329626202583313,
                -0.2669573724269867,
                0.05680009350180626,
                -0.04510745033621788,
                0.01174317579716444,
                -0.025217590853571892,
                0.08477041125297546,
                -0.012879887595772743,
                -0.023401835933327675,
                0.24100139737129211,
                0.4139758050441742,
                0.13177287578582764,
                -0.30040454864501953,
                -0.021024689078330994,
                0.025560962036252022,
                -0.11173354089260101,
                0.08724980801343918,
                0.10498906672000885,
                -0.08200248330831528,
                0.07543563097715378,
                -0.03289540857076645,
                -0.010028176940977573,
                -0.13171815872192383,
                0.11776162683963776,
                -0.2286829948425293,
                0.1807166486978531,
                -0.14633555710315704,
                -0.03734199330210686,
                -0.06196567416191101,
                0.35292375087738037,
                0.059608057141304016,
                0.2560669183731079,
                0.2454879879951477,
                -0.003530701622366905,
                -0.14085492491722107,
                0.16106195747852325,
                -0.14025108516216278,
                0.0359124094247818,
                -0.043105144053697586,
                0.05741853639483452,
                0.1239725798368454,
                -0.049041032791137695,
                -0.08876629918813705,
                0.35343900322914124,
                0.06656402349472046,
                0.12694324553012848,
                0.05838649347424507,
                0.07064048945903778
              ],
              [
                0.020122181624174118,
                -0.4426186978816986,
                0.11838093400001526,
                -0.26671046018600464,
                0.11215674132108688,
                0.1054130420088768,
                0.23667801916599274,
                -0.14373573660850525,
                -0.07503174990415573,
                0.004756523761898279,
                -0.3694017827510834,
                0.25935083627700806,
                0.2134937047958374,
                -0.0994596779346466,
                0.2598116099834442,
                0.058961935341358185,
                -0.33530086278915405,
                -0.155547097325325,
                0.07046212255954742,
                0.1269596368074417,
                -0.061443209648132324,
                -0.06106593459844589,
                -0.09386052936315536,
                -0.14372453093528748,
                0.2029159814119339,
                -0.045799799263477325,
                0.356947124004364,
                -0.3080790042877197,
                -0.015740370377898216,
                -0.026677222922444344,
                -0.0031226964201778173,
                0.4752900004386902,
                -0.17858131229877472,
                -0.08314832299947739,
                0.2477254867553711,
                -0.09360678493976593,
                -0.06479396671056747,
                0.4594267010688782,
                0.1737411916255951,
                -0.3825724124908447,
                0.12627267837524414,
                0.46636882424354553,
                -0.18305335938930511,
                0.26278695464134216,
                0.0716642439365387,
                -0.14696498215198517,
                -0.20506687462329865,
                0.10080389678478241,
                -0.21740084886550903,
                0.22152437269687653,
                0.06040344014763832,
                0.3167766332626343,
                -0.2390320599079132,
                0.23407897353172302,
                0.3550908863544464,
                -0.02948118932545185,
                0.1118910163640976,
                0.06251790374517441,
                -0.15868031978607178,
                0.21417823433876038,
                -0.16166628897190094,
                0.3600979447364807,
                0.24305373430252075,
                0.048989102244377136,
                -0.3066468834877014,
                -0.056561294943094254,
                -0.2775680422782898,
                0.037003517150878906,
                0.11105076968669891,
                -0.01736307330429554,
                -0.09797286987304688,
                0.30088427662849426,
                0.24050700664520264
              ],
              [
                -0.11116328090429306,
                0.2792961299419403,
                -0.11027529835700989,
                -0.4997637867927551,
                -0.12153053283691406,
                -0.05959759280085564,
                -0.18047644197940826,
                0.10415119677782059,
                0.10513855516910553,
                -0.02380361035466194,
                0.32326826453208923,
                -0.09466058760881424,
                -0.28081566095352173,
                0.09364107996225357,
                -0.0814240425825119,
                -0.058073870837688446,
                0.28578421473503113,
                0.1949656903743744,
                -0.05145328864455223,
                -0.0331290103495121,
                -0.01776766963303089,
                0.17050473392009735,
                -0.026402238756418228,
                0.13123035430908203,
                -0.15152223408222198,
                0.09378055483102798,
                -0.20690488815307617,
                -0.006186997517943382,
                -0.06376680731773376,
                -0.07670856267213821,
                0.08151012659072876,
                0.035021308809518814,
                0.17283082008361816,
                0.041154783219099045,
                -0.11380482465028763,
                -0.08182782679796219,
                -0.12076280266046524,
                -0.10726001858711243,
                -0.18408504128456116,
                0.10754910111427307,
                0.04823143780231476,
                0.02250322699546814,
                -0.036820556968450546,
                -0.0953417718410492,
                0.050903648138046265,
                0.09290800988674164,
                0.14130899310112,
                -0.043856386095285416,
                -0.02693215198814869,
                0.2206568717956543,
                -0.37740424275398254,
                -0.11141597479581833,
                0.22899270057678223,
                -0.0016237640520557761,
                0.011688770726323128,
                0.03095439076423645,
                -0.038062434643507004,
                -0.21125899255275726,
                -0.028135454282164574,
                0.0077988989651203156,
                0.0800294354557991,
                -0.15930473804473877,
                -0.09490682184696198,
                0.01380220241844654,
                0.14425615966320038,
                -0.11209983378648758,
                -0.01387814711779356,
                -0.2183021754026413,
                -0.03804953396320343,
                0.14100149273872375,
                0.21801069378852844,
                -0.16860470175743103,
                -0.1907774806022644
              ],
              [
                -0.023467497900128365,
                0.10777991265058517,
                0.0002989241329487413,
                -0.3378385007381439,
                0.2243150770664215,
                0.02817036211490631,
                -0.1066151112318039,
                -0.029756316915154457,
                -0.09727124869823456,
                0.007756747305393219,
                -0.28916728496551514,
                0.22178970277309418,
                -0.26293617486953735,
                -0.05698041990399361,
                -0.051669877022504807,
                -0.06359023600816727,
                0.16284270584583282,
                0.08416673541069031,
                0.001973785227164626,
                0.1210605651140213,
                0.12906789779663086,
                -0.257034569978714,
                0.03476899117231369,
                0.1367349922657013,
                -0.1263273060321808,
                0.11074063926935196,
                0.3128855526447296,
                0.019722817465662956,
                0.04768505319952965,
                -0.02165120095014572,
                -0.138893261551857,
                -0.060821015387773514,
                0.05023094639182091,
                -0.07710306346416473,
                -0.11226504296064377,
                0.0604020319879055,
                0.10730582475662231,
                -0.2894899845123291,
                -0.03579825535416603,
                0.10677269101142883,
                0.0428297221660614,
                -0.046841736882925034,
                -0.09899170696735382,
                -0.0664215087890625,
                0.1306605488061905,
                0.2609517276287079,
                0.1049065887928009,
                0.11161712557077408,
                0.026920689269900322,
                -0.03078329935669899,
                0.14443597197532654,
                0.09064292162656784,
                -0.11857528984546661,
                0.04527048394083977,
                -0.053190652281045914,
                -0.09298288077116013,
                0.05632299184799194,
                -0.25891807675361633,
                0.028191082179546356,
                0.10643566399812698,
                -0.14799028635025024,
                0.03864714875817299,
                -0.037943050265312195,
                0.07780082523822784,
                -0.034770455211400986,
                0.2988789677619934,
                -0.0035730183590203524,
                -0.4033849537372589,
                -0.16952991485595703,
                -0.03669683262705803,
                0.13007523119449615,
                -0.16859908401966095,
                -0.12146462500095367
              ],
              [
                0.06257004290819168,
                0.13912120461463928,
                -0.0040269577875733376,
                -0.01343387272208929,
                -0.12040626257658005,
                0.22624729573726654,
                -0.16498175263404846,
                -0.05846746265888214,
                -0.05443842336535454,
                0.10716288536787033,
                0.0965680480003357,
                0.03247636929154396,
                0.15900571644306183,
                0.39869630336761475,
                0.053171832114458084,
                -0.112295001745224,
                0.018948696553707123,
                -0.07075978815555573,
                0.11658240109682083,
                -0.1694367378950119,
                0.07825549691915512,
                0.18571053445339203,
                0.08180159330368042,
                -0.25942879915237427,
                0.16670021414756775,
                -0.009298808872699738,
                0.0848313719034195,
                0.049593862146139145,
                -0.019860543310642242,
                0.029710356146097183,
                -0.01483539491891861,
                -0.019692864269018173,
                -0.20867010951042175,
                0.02948535606265068,
                0.196372851729393,
                0.22094522416591644,
                -0.15820486843585968,
                -0.24958044290542603,
                -0.15639029443264008,
                -0.025057727470993996,
                0.09432719647884369,
                0.0059895142912864685,
                -0.2457343190908432,
                -0.4532470703125,
                -0.010779187083244324,
                0.03629497438669205,
                0.08033398538827896,
                -0.06503470987081528,
                -0.09420750290155411,
                0.017536232247948647,
                -0.14159531891345978,
                0.02571481466293335,
                0.09095479547977448,
                -0.15713326632976532,
                0.08205769211053848,
                0.2511216700077057,
                0.29285570979118347,
                0.0646975114941597,
                0.21345371007919312,
                -0.07003320008516312,
                -0.11311723291873932,
                -0.02828093431890011,
                -0.09319563955068588,
                0.1249687597155571,
                -0.0007581494865007699,
                -0.04248730465769768,
                0.06227218732237816,
                -0.39683064818382263,
                0.24372267723083496,
                0.025493955239653587,
                0.10476426035165787,
                0.03535653278231621,
                0.1664661467075348
              ],
              [
                0.05838446319103241,
                0.4512835144996643,
                0.3886251449584961,
                -0.6190952062606812,
                -0.057314682751894,
                -0.190918430685997,
                -0.01024142187088728,
                0.14417602121829987,
                0.0031464772764593363,
                -0.35018715262413025,
                0.4654023051261902,
                -0.1926397979259491,
                -0.4751119315624237,
                0.08175677061080933,
                -0.18394912779331207,
                -0.17526854574680328,
                0.2821100354194641,
                -0.4746122360229492,
                -0.18615466356277466,
                0.21400576829910278,
                -0.11472712457180023,
                0.35990071296691895,
                -0.12071111798286438,
                -0.008429447188973427,
                -0.33014705777168274,
                0.257646381855011,
                -0.1939241588115692,
                -0.5203884840011597,
                -0.2652546465396881,
                -0.11414191126823425,
                0.13579638302326202,
                0.2805127501487732,
                0.22572973370552063,
                0.5411836504936218,
                0.23631450533866882,
                -0.2918201982975006,
                -0.27070996165275574,
                -0.2542991042137146,
                -0.06942635029554367,
                -0.17533256113529205,
                -0.22519485652446747,
                0.49912580847740173,
                0.16942282021045685,
                -0.01337534748017788,
                -0.2783140540122986,
                0.10736160725355148,
                -0.10631117969751358,
                0.175232395529747,
                -0.21342051029205322,
                -0.22252872586250305,
                -0.1905631721019745,
                -0.18424972891807556,
                0.1363869458436966,
                -0.10810952633619308,
                0.2526688277721405,
                -0.24192973971366882,
                0.22461539506912231,
                0.2311280220746994,
                -0.30920833349227905,
                0.08216776698827744,
                0.21858453750610352,
                -0.14457553625106812,
                -0.16047900915145874,
                -0.1968454271554947,
                -0.09462839365005493,
                0.48945534229278564,
                -0.2998652756214142,
                -0.05980539694428444,
                -0.1831170916557312,
                0.404529869556427,
                0.3798741102218628,
                0.19447636604309082,
                0.256588876247406
              ],
              [
                -0.03463656082749367,
                0.08908506482839584,
                0.026505623012781143,
                0.3191140592098236,
                -0.4146113693714142,
                0.2093886137008667,
                0.1649041324853897,
                0.07859010994434357,
                -0.10557696968317032,
                0.0024470000062137842,
                -0.0594925731420517,
                0.0034272754564881325,
                0.28162455558776855,
                0.023290125653147697,
                0.17669717967510223,
                -0.2833603024482727,
                -0.3210776746273041,
                0.11223740130662918,
                0.2292935997247696,
                -0.22030946612358093,
                -0.1183910220861435,
                0.5243688821792603,
                -0.1728721261024475,
                -0.25023263692855835,
                -0.04326438903808594,
                -0.05970613658428192,
                -0.547021210193634,
                -0.48798543214797974,
                0.17267288267612457,
                0.1856788843870163,
                -0.27592194080352783,
                0.23237347602844238,
                -0.14904168248176575,
                0.02160770259797573,
                0.1376616507768631,
                -0.25202837586402893,
                -0.13696777820587158,
                0.12544293701648712,
                0.18766531348228455,
                0.1147511675953865,
                -0.09595085680484772,
                0.09605559706687927,
                -0.08026216924190521,
                0.19956812262535095,
                -0.030260443687438965,
                -0.04666072875261307,
                0.26168376207351685,
                0.3825598657131195,
                0.24911879003047943,
                0.019122760742902756,
                -0.01471007987856865,
                -0.19798406958580017,
                0.25091513991355896,
                0.24496707320213318,
                -0.12477250397205353,
                -0.16862572729587555,
                -0.31878992915153503,
                0.2744256258010864,
                0.12491166591644287,
                0.33197104930877686,
                -0.13364382088184357,
                -0.29389289021492004,
                0.21965231001377106,
                -0.1464158147573471,
                0.2625955045223236,
                -0.03359171003103256,
                0.23701973259449005,
                0.423576682806015,
                0.25255951285362244,
                -0.3452669084072113,
                -0.38834232091903687,
                0.1512882113456726,
                0.15376701951026917
              ],
              [
                -0.08439657092094421,
                -0.002612382173538208,
                0.0007925006211735308,
                -0.0939711183309555,
                0.17059151828289032,
                0.07617925852537155,
                -0.014588897116482258,
                0.04437502101063728,
                0.11413154751062393,
                -0.08113070577383041,
                0.02005837671458721,
                -0.16390720009803772,
                0.19644449651241302,
                0.016706928610801697,
                0.19782695174217224,
                0.04797268658876419,
                -0.06796277314424515,
                0.034444231539964676,
                0.21146836876869202,
                -0.0452226884663105,
                -0.06504998356103897,
                0.046767234802246094,
                -0.21632035076618195,
                -0.030220074579119682,
                -0.026474380865693092,
                0.348710834980011,
                0.5640398263931274,
                0.0366542786359787,
                0.14972883462905884,
                -0.05940236151218414,
                0.20948705077171326,
                0.04885336756706238,
                -0.07354358583688736,
                0.23245848715305328,
                0.044511325657367706,
                -0.26239481568336487,
                -0.060791339725255966,
                -0.5219796895980835,
                -0.10493261367082596,
                -0.04720909893512726,
                -0.19446682929992676,
                0.21439127624034882,
                0.2108951210975647,
                0.32072094082832336,
                -0.18377463519573212,
                -0.00814773514866829,
                0.010019986890256405,
                0.13461965322494507,
                -0.09784591197967529,
                -0.07521434873342514,
                0.16196948289871216,
                -0.03810182213783264,
                0.0026994904037564993,
                0.09039170295000076,
                0.03888999670743942,
                -0.12768959999084473,
                0.10997787863016129,
                0.09946486353874207,
                -0.12598733603954315,
                0.19201551377773285,
                0.0675482228398323,
                -0.06150275468826294,
                0.03723585605621338,
                -0.018765095621347427,
                -0.1120939776301384,
                -0.05741266906261444,
                0.025020036846399307,
                -0.1995314508676529,
                0.059339504688978195,
                0.14085909724235535,
                0.05413112789392471,
                0.05364990234375,
                0.03696546331048012
              ],
              [
                -0.04470212385058403,
                -0.09162740409374237,
                0.0020410465076565742,
                -0.08233055472373962,
                0.05446375161409378,
                -0.08555004745721817,
                0.040544524788856506,
                0.17457443475723267,
                0.10055452585220337,
                -0.061080820858478546,
                0.04751930013298988,
                0.0015093678375706077,
                0.3292044997215271,
                0.2180584967136383,
                0.11448781192302704,
                0.010828825645148754,
                0.20790834724903107,
                -0.11126961559057236,
                0.1839824616909027,
                -0.10553137212991714,
                0.19785076379776,
                -0.37194669246673584,
                -0.13916374742984772,
                0.1275128871202469,
                0.10518363118171692,
                -0.10776915401220322,
                -0.004237400367856026,
                -0.10812411457300186,
                0.0010170399909839034,
                -0.008331961929798126,
                0.05119786038994789,
                0.038434915244579315,
                -0.0740109235048294,
                0.1773761510848999,
                0.08136249333620071,
                -0.023911528289318085,
                -0.10793048143386841,
                -0.022527610883116722,
                -0.05071499943733215,
                0.02703702449798584,
                0.019119177013635635,
                0.23004496097564697,
                -0.05538113787770271,
                -0.24262064695358276,
                -0.23993945121765137,
                -0.07285625487565994,
                -0.06123587116599083,
                -0.06929419934749603,
                -0.1842375546693802,
                -0.07602512836456299,
                0.12304263561964035,
                -0.21504409611225128,
                0.0023080743849277496,
                0.07154998928308487,
                -0.07810242474079132,
                0.04077896103262901,
                -0.027015000581741333,
                -0.21741145849227905,
                -0.30512240529060364,
                -0.11192800104618073,
                -0.1704012006521225,
                -0.10678919404745102,
                0.0537387989461422,
                -0.039155393838882446,
                -0.08497273921966553,
                -0.05435209348797798,
                0.028251824900507927,
                0.0171541478484869,
                -0.17841526865959167,
                -0.06962884962558746,
                -0.127463698387146,
                -0.009034342132508755,
                0.01446720864623785
              ],
              [
                0.013641958124935627,
                0.1944677233695984,
                0.008140399120748043,
                -0.10914075374603271,
                0.07611649483442307,
                0.13875523209571838,
                0.07127838581800461,
                -0.014013810083270073,
                -0.09698361903429031,
                0.07776085287332535,
                -0.021454140543937683,
                0.09679491817951202,
                -0.20909662544727325,
                -0.012658410705626011,
                -0.1101096123456955,
                4.221435301587917e-05,
                -0.16825465857982635,
                0.13849715888500214,
                -0.11730225384235382,
                -0.06835988909006119,
                0.3025360405445099,
                -0.11178181320428848,
                0.0023904365953058004,
                -0.003985859453678131,
                -0.18987473845481873,
                -0.012677423655986786,
                0.22737273573875427,
                -0.0146534014493227,
                0.18835826218128204,
                -0.07958262413740158,
                -0.09063607454299927,
                -0.03709810972213745,
                0.028884265571832657,
                -0.08493559807538986,
                0.0472896583378315,
                0.026836108416318893,
                0.06156019866466522,
                -0.28661981225013733,
                -0.05764075741171837,
                0.04666254296898842,
                0.07095917314291,
                -0.01039618719369173,
                0.04907376691699028,
                -0.03242749348282814,
                0.1501062661409378,
                0.17310625314712524,
                0.1541198492050171,
                -0.035646382719278336,
                0.12272629886865616,
                -0.10052366554737091,
                0.14243850111961365,
                0.09116873145103455,
                -0.1409592181444168,
                -0.007252047769725323,
                -0.08590319007635117,
                0.08333013206720352,
                0.051414526998996735,
                -0.02849993295967579,
                -0.1090436652302742,
                -0.12174493819475174,
                0.041569340974092484,
                0.15026049315929413,
                0.06829962879419327,
                0.09790827333927155,
                0.049120232462882996,
                0.0054365419782698154,
                0.04089920595288277,
                -0.17703194916248322,
                -0.2239871472120285,
                -0.055589448660612106,
                -0.013531799428164959,
                -0.04712997376918793,
                -0.01634814776480198
              ],
              [
                0.028519198298454285,
                0.06997144967317581,
                0.2630069851875305,
                0.048903774470090866,
                -0.04051550105214119,
                -0.014454520307481289,
                -0.08178666979074478,
                0.055410582572221756,
                0.06740876287221909,
                -0.12825404107570648,
                -0.011611562222242355,
                -0.03226804360747337,
                -0.26033705472946167,
                -0.03357340022921562,
                -0.11337154358625412,
                -0.018879344686865807,
                -0.10729524493217468,
                0.04158763960003853,
                0.035473547875881195,
                -0.04311889037489891,
                0.25954586267471313,
                0.07052984088659286,
                0.17711685597896576,
                -0.04468165710568428,
                -0.23144151270389557,
                -0.1274154782295227,
                -0.46062010526657104,
                0.0100808534771204,
                -0.02456052228808403,
                0.0449894517660141,
                -0.09773203730583191,
                -0.005418896675109863,
                0.0711950734257698,
                -0.051235590130090714,
                0.05446082353591919,
                -0.38178861141204834,
                -0.0656186044216156,
                0.38397443294525146,
                -0.011628448031842709,
                0.011224648915231228,
                0.2455729842185974,
                0.0019052072893828154,
                -0.059855904430150986,
                0.08452624827623367,
                -0.04186633229255676,
                -0.003128648968413472,
                0.1405578851699829,
                0.11295665055513382,
                0.038210898637771606,
                -0.17078298330307007,
                -0.10912472754716873,
                0.08160578459501266,
                -0.06695912778377533,
                0.030484410002827644,
                0.04642803221940994,
                0.03478396683931351,
                0.08016520738601685,
                -0.027284378185868263,
                -0.08540090173482895,
                -0.02352803573012352,
                -0.19678686559200287,
                0.10291267931461334,
                -0.10598471015691757,
                -0.002234110375866294,
                0.16182535886764526,
                -0.06458970159292221,
                0.10061764717102051,
                0.04126526415348053,
                -0.15149709582328796,
                0.03703125938773155,
                -0.002039519604295492,
                -0.08821161091327667,
                0.026273570954799652
              ],
              [
                -0.09677549451589584,
                0.17595906555652618,
                -0.03127618134021759,
                -0.3935321867465973,
                -0.09635630995035172,
                0.11573778092861176,
                -0.06337650120258331,
                -0.2721800208091736,
                -0.11556665599346161,
                0.06639893352985382,
                -0.15959052741527557,
                -0.044533781707286835,
                -0.33449870347976685,
                0.20067201554775238,
                0.09061022102832794,
                -0.06537284702062607,
                0.11218935996294022,
                -0.01986711099743843,
                -0.11295715719461441,
                -0.11331187188625336,
                -0.09113768488168716,
                0.3698006272315979,
                0.003124146955087781,
                0.12979553639888763,
                -0.046639975160360336,
                -0.03242000192403793,
                -0.05475729703903198,
                0.19745515286922455,
                0.040171634405851364,
                0.05516969785094261,
                0.04096657782793045,
                -0.06256159394979477,
                0.06037835776805878,
                -0.089835524559021,
                -0.08615951985120773,
                0.08669864386320114,
                -0.007629570085555315,
                -0.3622995913028717,
                -0.032754987478256226,
                0.0532861091196537,
                -0.16816391050815582,
                0.16829581558704376,
                -0.23713837563991547,
                -0.05517015978693962,
                -0.028310855850577354,
                0.07445147633552551,
                0.04020402580499649,
                0.009186473675072193,
                0.12401849031448364,
                0.23996467888355255,
                0.044078029692173004,
                -0.07699527591466904,
                0.1576886773109436,
                -0.12407206743955612,
                0.1151442900300026,
                -0.078199103474617,
                -0.2158842384815216,
                -0.08158409595489502,
                0.017353137955069542,
                -0.05771514028310776,
                0.029226798564195633,
                0.05365137383341789,
                0.02784591168165207,
                0.09464426338672638,
                0.1611156165599823,
                0.1631903201341629,
                0.0473802275955677,
                -0.14010439813137054,
                0.07825461030006409,
                -0.08001503348350525,
                -0.06172443926334381,
                -0.16253550350666046,
                -0.026989620178937912
              ],
              [
                -0.11599838733673096,
                0.26704588532447815,
                0.26784947514533997,
                0.07482238858938217,
                0.049072977155447006,
                -0.20158842206001282,
                0.2006349116563797,
                -0.20483313500881195,
                -0.05190912261605263,
                0.20615066587924957,
                0.21378542482852936,
                0.22120599448680878,
                -0.30830827355384827,
                -0.48867058753967285,
                0.09792713820934296,
                0.15984788537025452,
                -0.028577638790011406,
                -0.22565656900405884,
                -0.17898985743522644,
                0.19148550927639008,
                -0.11899328976869583,
                0.16584816575050354,
                0.028791256248950958,
                0.36600232124328613,
                -0.2818756103515625,
                -0.011825433000922203,
                -0.16006262600421906,
                -0.1703677922487259,
                0.02527557872235775,
                -0.004203356336802244,
                -0.08897785097360611,
                -0.22832879424095154,
                0.1152910590171814,
                0.5245597958564758,
                -0.014225354418158531,
                -0.14344459772109985,
                0.14950576424598694,
                0.3007291257381439,
                0.2576631009578705,
                -0.2689993381500244,
                -0.10376201570034027,
                -0.11777014285326004,
                0.32713809609413147,
                0.03454139083623886,
                -0.28129148483276367,
                0.008173313923180103,
                0.05448723956942558,
                0.10233679413795471,
                0.05965597182512283,
                -0.004989656154066324,
                -0.1605321764945984,
                -0.0592980720102787,
                -0.08811832219362259,
                0.2502124011516571,
                -0.005862356163561344,
                -0.09175057709217072,
                -0.3062994182109833,
                -0.22173433005809784,
                0.0057976748794317245,
                0.008389923721551895,
                -0.0851336345076561,
                -0.05893661081790924,
                0.2680179178714752,
                0.09606325626373291,
                0.09305675327777863,
                0.30352672934532166,
                -0.0484306737780571,
                -0.17219676077365875,
                -0.36052069067955017,
                -0.2453252673149109,
                -0.06327798962593079,
                -0.059181664139032364,
                -0.12633086740970612
              ],
              [
                -0.07600699365139008,
                -0.08051891624927521,
                0.033965740352869034,
                0.017367497086524963,
                -0.04012991487979889,
                0.07125693559646606,
                -0.1442515254020691,
                0.17231766879558563,
                0.0824558213353157,
                -0.004811231046915054,
                -0.2516653537750244,
                -0.178103968501091,
                0.17869354784488678,
                0.07575194537639618,
                0.08362126350402832,
                -0.10576120018959045,
                -0.12135422229766846,
                -0.07926168292760849,
                0.22761541604995728,
                0.05993261933326721,
                0.019974224269390106,
                0.15573394298553467,
                -0.1355227828025818,
                -0.10676805675029755,
                0.20212125778198242,
                -0.1822894960641861,
                0.1279575377702713,
                0.11058956384658813,
                0.11340419948101044,
                0.008887387812137604,
                0.032778266817331314,
                0.14284521341323853,
                0.12473888695240021,
                -0.025867851451039314,
                0.14876432716846466,
                0.2605970799922943,
                0.26589080691337585,
                0.12721550464630127,
                -0.11800196021795273,
                0.20644980669021606,
                -0.043490614742040634,
                0.051871683448553085,
                -0.2835279405117035,
                -0.1401587575674057,
                0.1002223938703537,
                0.06916270405054092,
                0.0207741130143404,
                0.17170068621635437,
                -0.014344302006065845,
                -0.05290981009602547,
                0.1152217760682106,
                0.18580330908298492,
                -0.106146439909935,
                -0.007755875587463379,
                0.34586045145988464,
                0.09997394680976868,
                0.0016547609120607376,
                0.07425441592931747,
                0.10432247072458267,
                -0.32707494497299194,
                0.052302855998277664,
                0.07338929176330566,
                -0.055126916617155075,
                0.16524043679237366,
                -0.18112064898014069,
                -0.21335594356060028,
                -0.04045397415757179,
                -0.027061263099312782,
                0.20931538939476013,
                0.05207395181059837,
                0.161907359957695,
                -0.0565241314470768,
                0.05479070544242859
              ]
            ]
          },
          {
            "bias": [
              -0.16793081164360046
            ],
            "weights": [
              [
                -0.37895074486732483,
                -0.3106244206428528,
                0.30600637197494507,
                -0.3295452296733856,
                0.4262990653514862,
                -0.24279507994651794,
                0.3179607689380646,
                0.28036579489707947,
                -0.3827717900276184,
                -0.30739477276802063,
                -0.2865021526813507,
                -0.3134976625442505,
                0.34007036685943604,
                -0.23834188282489777,
                -0.42056041955947876,
                -0.24728234112262726,
                -0.3279346227645874,
                0.28707629442214966,
                0.37921541929244995,
                0.3753390610218048,
                -0.33806705474853516,
                -0.2516688108444214,
                0.31420406699180603,
                -0.398681104183197,
                0.3790539503097534,
                0.39955219626426697,
                0.3653396666049957,
                -0.3671245276927948,
                -0.34680235385894775,
                -0.3172262907028198,
                -0.27999910712242126,
                0.33909839391708374
              ]
            ]
          }
        ]
      },
      {
        "activation": "tanh",
        "kind": "mlp_dense",
        "layers": [
          {
            "bias": [
              0.0839037150144577,
              0.05953525751829147,
              0.05241028219461441,
              -0.20675909519195557,
              -0.012359230779111385,
              0.05292871221899986,
              0.09210621565580368,
              0.08946237713098526,
              -0.1689153015613556,
              0.012031050398945808,
              0.1733192503452301,
              -0.29516172409057617,
              -0.05858806520700455,
              0.2407178431749344,
              0.08081162720918655,
              0.039830997586250305,
              -0.050267625600099564,
              0.06610137969255447,
              0.22360315918922424,
              0.3317047655582428,
              -0.07213757932186127,
              0.12475074082612991,
              -0.15476316213607788,
              -0.11114680767059326,
              -0.1032494530081749,
              0.15285083651542664,
              -0.07777823507785797,
              -0.14518511295318604,
              0.24966642260551453,
              0.03362252563238144,
              0.004909208510071039,
              0.3279952108860016
            ],
            "weights": [
              [
                -0.03870796039700508,
                -0.2668984830379486,
                -0.0663054957985878,
                0.2357289344072342,
                0.04989863559603691,
                0.06661535799503326,
                0.09508832544088364,
                -0.1486634463071823,
                -0.08973106741905212,
                0.04686349257826805,
                0.04168442636728287,
                -0.16184821724891663,
                0.3063836991786957,
                0.3247382342815399,
                -0.06668145209550858,
                -0.05675710737705231,
                -0.050423577427864075,
                -0.004154806025326252,
                0.1506899893283844,
                -0.0068949079141020775,
                -0.17417897284030914,
                0.049724653363227844,
                0.0470607727766037,
                -0.16346445679664612,
                -0.04769381880760193,
                0.161241814494133,
                -0.16616199910640717,
                0.14171959459781647,
                -0.06326700001955032,
                0.06355897337198257,
                -0.07830675691366196,
                0.046179305762052536,
                -0.05564027279615402,
                0.11296391487121582,
                -0.016604358330368996,
                -0.10993261635303497,
                -0.08041840046644211,
                0.22637075185775757,
                -0.027535330504179,
                -0.10671322047710419,
                0.05670252442359924,
                0.11694522202014923,
                -0.008618163876235485,
                0.14331211149692535,
                0.09873301535844803,
                -0.08771280944347382,
                -0.03501749411225319,
                -0.03185006603598595,
                -0.0929606482386589,
                -0.14706912636756897,
                0.0982920452952385,
                0.04831824079155922,
                -0.12339499592781067,
                0.09743368625640869,
                0.09782208502292633,
                0.017729680985212326,
                0.18815988302230835,
                -0.0811457559466362,
                -0.030891617760062218,
                0.09858936816453934,
                -0.1747630387544632,
                0.04330122098326683,
                0.11711303889751434,
                -0.02234197035431862,
                0.01886698044836521,
                -0.050759200006723404,
                -0.09557543694972992,
                0.3520762026309967,
                0.14132128655910492,
                -0.05216490477323532,
                0.045935243368148804,
                0.19483324885368347,
                0.046654120087623596
              ],
              [
                0.11543302237987518,
                0.3075992166996002,
                -0.10388515144586563,
                -0.06512396037578583,
                -0.07640682905912399,
                0.013335302472114563,
                0.0013577521312981844,
                -0.28404122591018677,
                -0.10709045827388763,
                0.03142065554857254,
                0.19636428356170654,
                -0.06611225008964539,
                -0.3581104576587677,
                -0.08782845735549927,
                -0.1245884820818901,
                0.07255014032125473,
                -0.12129779905080795,
                0.012463290244340897,
                -0.005036638118326664,
                -0.04862266033887863,
                0.24506942927837372,
                0.05479411780834198,
                0.028765253722667694,
                0.15644009411334991,
                -0.21993809938430786,
                0.08975918591022491,
                -0.23747409880161285,
                0.18602319061756134,
                0.021746225655078888,
                0.035665396600961685,
                -0.033850688487291336,
                -0.014843320474028587,
                0.05906838923692703,
                0.07548775523900986,
                0.009020095691084862,
                -0.17502793669700623,
                -0.08259697258472443,
                -0.07501193135976791,
                -0.016601687297225,
                -0.22191081941127777,
                0.11431688070297241,
                0.10693778842687607,
                -0.19480480253696442,
                0.14268110692501068,
                0.021997857838869095,
                0.042363859713077545,
                0.10410087555646896,
                0.0400245301425457,
                0.16742636263370514,
                0.15075857937335968,
                0.10868598520755768,
                -0.17686468362808228,
                0.06725403666496277,
