{
  "calibration": {
    "intercept": 0.19032414807590045,
    "slope": 0.8755183474920288
  },
  "champion": "neural_sweep",
  "fail_closed": {
    "missing_assessment": true,
    "non_finite": true,
    "unknown_intent": true
  },
  "feature_names": [
    "assessment.missing",
    "contract.changed",
    "contract.exact_items",
    "contract.exact_sentences",
    "contract.kind.code",
    "contract.kind.free_text",
    "contract.kind.json",
    "contract.kind.label",
    "contract.kind.list",
    "contract.kind.number",
    "contract.max_words_log",
    "contract.strict",
    "contract.valid",
    "fg.deterministic_fit",
    "fg.format_complexity",
    "fg.generation_demand",
    "fg.knowledge_uncertainty",
    "fg.reasoning_demand",
    "intent.code_debugging",
    "intent.code_generation",
    "intent.factual_qa",
    "intent.logic_puzzle",
    "intent.math_reasoning",
    "intent.ner",
    "intent.sentiment",
    "intent.summarization",
    "mechanical.ambiguity",
    "mechanical.code_branch_count",
    "mechanical.code_language.javascript",
    "mechanical.code_language.other",
    "mechanical.code_language.python",
    "mechanical.code_language.typescript",
    "mechanical.code_lines_log",
    "mechanical.code_loop_count",
    "mechanical.code_present",
    "mechanical.currentness",
    "mechanical.entity_type_count",
    "mechanical.external_knowledge",
    "mechanical.json_requested",
    "mechanical.language_en",
    "mechanical.language_es",
    "mechanical.language_other",
    "mechanical.language_pt",
    "mechanical.negation",
    "mechanical.number_density",
    "mechanical.operator_count",
    "mechanical.prompt_chars_log",
    "mechanical.prompt_injection",
    "mechanical.prompt_tokens_log",
    "mechanical.sentence_limit",
    "mechanical.shape.boolean",
    "mechanical.shape.code",
    "mechanical.shape.free_text",
    "mechanical.shape.json",
    "mechanical.shape.list",
    "mechanical.shape.number",
    "mechanical.shape.short_text",
    "mechanical.source_chars_log",
    "mechanical.strict_format",
    "mechanical.variable_count",
    "mechanical.verifier.closed_label",
    "mechanical.verifier.code_syntax",
    "mechanical.verifier.json_structure",
    "mechanical.verifier.numeric",
    "mechanical.word_count_log",
    "mechanical.word_limit",
    "prompt.char_log",
    "prompt.constraint_count",
    "prompt.line_log",
    "proof.registered",
    "proof.supported",
    "proof.unique",
    "proof.valid"
  ],
  "fit": {
    "calibration_rows": 459,
    "protected_rows_accessed": 0,
    "rows": 2625,
    "threshold_rows": 415
  },
  "model": {
    "kind": "ensemble",
    "members": [
      {
        "activation": "tanh",
        "kind": "mlp_dense",
        "layers": [
          {
            "bias": [
              0.08686336129903793,
              -0.2789693772792816,
              0.0025947049725800753,
              0.128896564245224,
              -0.4468868672847748,
              -0.04070773720741272,
              -0.3349573612213135,
              0.16281844675540924,
              -0.15318724513053894,
              0.10768664628267288,
              0.3792112469673157,
              -0.12668290734291077,
              -0.16730397939682007,
              0.17422530055046082,
              0.16098251938819885,
              -0.033130135387182236,
              0.1983303278684616,
              -0.2915550172328949,
              -0.3313654661178589,
              -0.199539914727211,
              -0.019808901473879814,
              -0.07406125962734222,
              -0.48555538058280945,
              0.5539628267288208,
              -0.09221801161766052,
              -0.2065422385931015,
              0.01986626349389553,
              0.23815025389194489,
              0.025692885741591454,
              0.04302984103560448,
              0.2666330337524414,
              -0.17628279328346252
            ],
            "weights": [
              [
                -0.048705652356147766,
                -0.012180677615106106,
                -0.013020683079957962,
                0.15111029148101807,
                0.11301695555448532,
                -0.09318023920059204,
                0.022809254005551338,
                0.054642196744680405,
                -0.03422011807560921,
                0.05068468675017357,
                0.1259479969739914,
                -0.02388608083128929,
                -0.2559802532196045,
                -0.0663432627916336,
                -0.021862052381038666,
                -0.045889515429735184,
                -0.12089437246322632,
                0.06217764690518379,
                -0.007825976237654686,
                0.05459180846810341,
                0.04363788291811943,
                0.0788097158074379,
                -0.045365795493125916,
                0.13119441270828247,
                -0.1389055997133255,
                -0.07967443019151688,
                0.059525273740291595,
                0.06313829869031906,
                -0.023061465471982956,
                0.022707095369696617,
                0.11477739363908768,
                0.18672017753124237,
                0.24629177153110504,
                0.25842902064323425,
                0.04156625643372536,
                -0.2035951018333435,
                0.014258532784879208,
                -0.14036469161510468,
                -0.07679744064807892,
                -0.07115469127893448,
                0.10295765101909637,
                0.06610728800296783,
                -0.03894630819559097,
                -0.0639663115143776,
                0.14482581615447998,
                0.2579345107078552,
                0.07586969435214996,
                0.029521729797124863,
                -0.0097120963037014,
                0.01628110744059086,
                -0.12953849136829376,
                -0.020375700667500496,
                -0.068269282579422,
                0.040465518832206726,
                0.12832988798618317,
                0.06625692546367645,
                -0.18002383410930634,
                -0.008981508202850819,
                0.049436841160058975,
                -0.11014292389154434,
                0.02503998950123787,
                0.12895336747169495,
                -0.019676830619573593,
                -0.06923914700746536,
                -0.0012772667687386274,
                0.07849668711423874,
                0.02600562758743763,
                -0.1803552657365799,
                0.06907867640256882,
                -0.0589161291718483,
                -0.05301014706492424,
                -0.09181007742881775,
                0.06845692545175552
              ],
              [
                -0.08907454460859299,
                0.055609408766031265,
                0.03505740314722061,
                0.0015287253772839904,
                -0.14133939146995544,
                -0.13843953609466553,
                -0.031021621078252792,
                -0.18807187676429749,
                -0.00890863873064518,
                0.1159263402223587,
                0.04986227676272392,
                0.12553565204143524,
                -0.4962690472602844,
                0.167555034160614,
                -0.14973869919776917,
                -0.06307101249694824,
                0.03852946311235428,
                0.15330643951892853,
                -0.020512264221906662,
                -0.1410570591688156,
                0.15665189921855927,
                -0.23747438192367554,
                0.04733758792281151,
                -0.059483833611011505,
                0.12511324882507324,
                -0.08004800230264664,
                0.12486711144447327,
                0.30158671736717224,
                0.132158100605011,
                0.11695301532745361,
                0.024172455072402954,
                -0.20124974846839905,
                0.05959422513842583,
                0.016036029905080795,
                0.09356037527322769,
                0.050493594259023666,
                -0.0008387448033317924,
                -0.0853714570403099,
                0.0015914104878902435,
                -0.0017162214498966932,
                -0.017347628250718117,
                0.10814233869314194,
                0.13806839287281036,
                -0.06059333309531212,
                0.10319537669420242,
                0.2884542942047119,
                0.035226255655288696,
                0.17335636913776398,
                0.07614852488040924,
                0.024977941066026688,
                -0.018814461305737495,
                0.03878960385918617,
                -0.128535196185112,
                0.091325543820858,
                0.08278157562017441,
                0.1281997263431549,
                -0.009882722049951553,
                -0.39014285802841187,
                0.002796255284920335,
                -0.2831972539424896,
                0.21699795126914978,
                0.2045457512140274,
                -0.021395431831479073,
                0.026697738096117973,
                0.060980476438999176,
                0.05636511370539665,
                -0.04989445209503174,
                -0.2232283353805542,
                -0.19477614760398865,
                0.2865035831928253,
                0.1748301386833191,
                0.026024432852864265,
                -0.025305677205324173
              ],
              [
                0.05966278538107872,
                -0.09099359065294266,
                -0.31194475293159485,
                -0.0803055465221405,
                0.06665995717048645,
                0.14211426675319672,
                0.07592928409576416,
                0.08480560034513474,
                0.0417744442820549,
                -0.10638456046581268,
                0.26521036028862,
                0.1159195527434349,
                0.3642505407333374,
                0.11861637234687805,
                0.1654123067855835,
                -0.04736843332648277,
                0.2728862762451172,
                -0.08115855604410172,
                -0.0064873783849179745,
                0.042495351284742355,
                -0.4502003788948059,
                -0.23534071445465088,
                -0.06892447918653488,
                -0.09512676298618317,
                0.09581616520881653,
                0.005450021475553513,
                -0.3301149904727936,
                0.0031457669101655483,
                -0.009980253875255585,
                0.023870529606938362,
                0.0599500946700573,
                0.07155530154705048,
                -0.03784298524260521,
                0.02601567842066288,
                0.15781064331531525,
                -0.2034151554107666,
                -0.12250218540430069,
                0.4206554591655731,
                0.06087931618094444,
                0.0051895128563046455,
                0.12487029284238815,
                -0.026476165279746056,
                0.06355079263448715,
                0.12262491136789322,
                -0.015172690153121948,
                -0.15236859023571014,
                -0.12561197578907013,
                -0.13470634818077087,
                -0.16015848517417908,
                -0.010117397643625736,
                0.1095527857542038,
                -0.04551513493061066,
                0.057480115443468094,
                -0.0019392516696825624,
                0.16955675184726715,
                0.08686777204275131,
                -0.28912046551704407,
                -0.07526080310344696,
                0.09511294960975647,
                0.05651719868183136,
                0.08349188417196274,
                -0.12067466974258423,
                0.043432388454675674,
                -0.04034699872136116,
                -0.13203853368759155,
                -0.23609989881515503,
                -0.3164356052875519,
                0.04961061477661133,
                0.018480075523257256,
                0.1671585589647293,
                0.2652070224285126,
                -0.010952675715088844,
                0.1924082189798355
              ],
              [
                -0.09642121195793152,
                0.12171093374490738,
                -0.11206601560115814,
                0.0269609522074461,
                -0.004588811658322811,
                0.0566510446369648,
                -0.05373973771929741,
                -0.07501903176307678,
                -0.0854964628815651,
                0.03205934911966324,
                -0.06260444968938828,
                0.11801455169916153,
                -0.4928745925426483,
                -0.041245006024837494,
                -0.2968730330467224,
                0.05078430101275444,
                -0.18161948025226593,
                0.19848047196865082,
                -0.02243392914533615,
                -0.15767920017242432,
                0.09784497320652008,
                0.0532095730304718,
                0.3023104965686798,
                0.0931110605597496,
                -0.2546504735946655,
                -0.08784446865320206,
                -0.23129934072494507,
                0.13332213461399078,
                0.15405608713626862,
                0.2026086002588272,
                -0.10078959167003632,
                -0.1848098486661911,
                -0.1654963493347168,
                -0.06793925911188126,
                -0.043179649859666824,
                -0.4499099850654602,
                0.24138759076595306,
                0.5266497731208801,
                -0.2456766813993454,
                -0.19786028563976288,
                0.13896632194519043,
                -0.15949903428554535,
                0.09083787351846695,
                -0.013862214051187038,
                0.11182700842618942,
                0.14119166135787964,
                -0.03394269198179245,
                -0.022048698738217354,
                0.09809356927871704,
                -0.03515082970261574,
                0.1017259731888771,
                0.14160315692424774,
                0.07435748726129532,
                -0.18856863677501678,
                -0.12112613022327423,
                0.009782855398952961,
                0.10290571302175522,
                -0.02406073734164238,
                -0.06561151146888733,
                0.06504514068365097,
                -0.08794696629047394,
                0.17316071689128876,
                -0.10266753286123276,
                0.02310045063495636,
                0.17373445630073547,
                -0.08450054377317429,
                0.029793817549943924,
                0.12582507729530334,
                -0.26586034893989563,
                0.09945366531610489,
                0.0560169517993927,
                0.06065221130847931,
                -0.07563284039497375
              ],
              [
                0.0449642688035965,
                -0.3080347776412964,
                -0.03069276735186577,
                0.2365942746400833,
                0.05904476344585419,
                0.030817192047834396,
                -0.0858951210975647,
                0.10121125727891922,
                0.07943630963563919,
                0.0021281971130520105,
                0.13906128704547882,
                0.1302609145641327,
                0.3213581442832947,
                0.09404460340738297,
                -0.04236434027552605,
                -0.12998153269290924,
                -0.09163238853216171,
                0.21827825903892517,
                0.16987603902816772,
                -0.03452184796333313,
                0.20152981579303741,
                0.07881361991167068,
                -0.03627742454409599,
                -0.09895122051239014,
                -0.001953498227521777,
                0.07079903781414032,
                -0.04285113513469696,
                -0.03683878481388092,
                -0.10877051949501038,
                -0.06869818270206451,
                0.11965244263410568,
                0.36730536818504333,
                -0.23240286111831665,
                0.31799745559692383,
                -0.027119679376482964,
                -0.11911361664533615,
                0.056113578379154205,
                0.15748322010040283,
                0.0092634791508317,
                0.24348796904087067,
                0.2354349046945572,
                -0.18835748732089996,
                -0.40004590153694153,
                0.3302740454673767,
                -0.01230553537607193,
                0.03791298717260361,
                0.016972161829471588,
                0.15897230803966522,
                -0.036404889076948166,
                -0.16786186397075653,
                -0.01811312511563301,
                0.07831219583749771,
                0.087956503033638,
                -0.12621432542800903,
                0.18913066387176514,
                -0.0667407289147377,
                -0.09001022577285767,
                -0.03618313744664192,
                0.19622935354709625,
                -0.16807320713996887,
                -0.06107465177774429,
                -0.03402046859264374,
                -0.14071737229824066,
                -0.09078001976013184,
                -0.08670851588249207,
                -0.2359277307987213,
                -0.004054352641105652,
                0.26557016372680664,
                -0.025560198351740837,
                -0.024816954508423805,
                0.07997862249612808,
                -0.10935162752866745,
                0.06346055865287781
              ],
              [
                0.06568687409162521,
                0.009269777685403824,
                -0.12365517020225525,
                0.06908734142780304,
                0.04283790662884712,
                -0.17189060151576996,
                -0.0461290217936039,
                0.07846324145793915,
                0.010410684160888195,
                0.20136554539203644,
                0.30317026376724243,
                -0.041801389306783676,
                -0.35070309042930603,
                -0.47017601132392883,
                -0.1980813443660736,
                0.16247110068798065,
                -0.10751588642597198,
                -0.17096634209156036,
                0.03219281882047653,
                0.06171286851167679,
                0.2055387943983078,
                0.17313812673091888,
                -0.008210444822907448,
                -0.04527127370238304,
                -0.20922274887561798,
                0.21309968829154968,
                -0.010830875486135483,
                -0.03239874541759491,
                -0.0640549510717392,
                -0.08380898833274841,
                -0.0027804700657725334,
                -0.08295901864767075,
                0.25780582427978516,
                0.3371487557888031,
                0.28368133306503296,
                -0.46522432565689087,
                0.28012320399284363,
                0.028360890224575996,
                -0.08027229458093643,
                0.01841812953352928,
                -0.024060625582933426,
                -0.0917612835764885,
                -0.14298242330551147,
                0.33987361192703247,
                0.37405866384506226,
                0.3415062427520752,
                0.10916545242071152,
                -0.20853883028030396,
                0.18939697742462158,
                -0.017336023971438408,
                -0.14123602211475372,
                0.059889305382966995,
                0.06708834320306778,
                -0.05836480110883713,
                0.0460062138736248,
                0.0959504023194313,
                -0.02544127218425274,
                -0.1388857066631317,
                0.07156426459550858,
                0.1754441112279892,
                -0.19132505357265472,
                0.02572164498269558,
                0.062862329185009,
                -0.06994929164648056,
                0.20650652050971985,
                -0.028299517929553986,
                -0.03397734835743904,
                -0.20925021171569824,
                0.28477808833122253,
                -0.1618773639202118,
                -0.05631984397768974,
                -0.08930782973766327,
                -0.10601337999105453
              ],
              [
                -0.10236157476902008,
                0.09142186492681503,
                0.060624539852142334,
                -0.10036472231149673,
                0.12997010350227356,
                -0.011326462961733341,
                -0.03315595164895058,
                0.03944539651274681,
                -0.007115658838301897,
                -0.01471666805446148,
                -0.005160073284059763,
                -0.1244971826672554,
                0.2070295810699463,
                -0.02676181122660637,
                0.03051360696554184,
                -0.05594359710812569,
                -0.04651081562042236,
                0.053424131125211716,
                -0.0400262176990509,
                0.14003369212150574,
                0.04132417216897011,
                -0.2451901137828827,
                0.028887351974844933,
                -0.07258883863687515,
                -0.003942305687814951,
                0.05136525258421898,
                0.14142462611198425,
                -0.09286830574274063,
                0.06374823302030563,
                0.011921974830329418,
                0.1494157612323761,
                0.11187143623828888,
                -0.12697401642799377,
                0.17313328385353088,
                -0.12370980530977249,
                0.16926129162311554,
                -0.014200296252965927,
                0.39726147055625916,
                -0.07494433969259262,
                -0.154751256108284,
                -0.07504047453403473,
                0.15664714574813843,
                0.18120799958705902,
                -0.05573217198252678,
                0.000823956448584795,
                -0.32362890243530273,
                -0.017510036006569862,
                -0.07732715457677841,
                0.009711411781609058,
                0.03778395801782608,
                -0.08306632936000824,
                -0.05264664068818092,
                0.11599933356046677,
                0.04508798569440842,
                -0.16234275698661804,
                0.04812499135732651,
                -0.026573214679956436,
                0.1402248740196228,
                0.008460798300802708,
                -0.033580925315618515,
                0.1744866669178009,
                -0.16051584482192993,
                0.11802446097135544,
                -0.013002838008105755,
                0.08842186629772186,
                -0.034588564187288284,
                0.16007985174655914,
                0.19538815319538116,
                -0.05378478020429611,
                0.07223354279994965,
                0.026387464255094528,
                5.784577297163196e-05,
                0.0582391731441021
              ],
              [
                0.10779459029436111,
                -0.2084023654460907,
                -0.24656686186790466,
                0.1734117567539215,
                0.10743355005979538,
                -0.11728886514902115,
                0.015445375815033913,
                0.05946504324674606,
                0.033809877932071686,
                -0.03173058107495308,
                0.22925184667110443,
                0.10427975654602051,
                0.3799821138381958,
                -0.28683391213417053,
                -0.0794505774974823,
                -0.21148927509784698,
                0.17168821394443512,
                -0.20337024331092834,
                0.01875518076121807,
                0.09224952012300491,
                0.04569721221923828,
                -0.06781111657619476,
                0.03757684305310249,
                -0.17595259845256805,
                0.1862737536430359,
                0.019563795998692513,
                -0.04426250979304314,
                -0.03800871595740318,
                0.06394800543785095,
                0.03564613685011864,
                -0.026067271828651428,
                0.15425331890583038,
                -0.14862346649169922,
                -0.04523908719420433,
                0.049870360642671585,
                -0.08273379504680634,
                0.23262298107147217,
                0.4845619201660156,
                -0.10729831457138062,
                0.17561009526252747,
                0.06225508078932762,
                0.06466162949800491,
                -0.14086851477622986,
                0.38271161913871765,
                -0.12813617289066315,
                -0.03952747583389282,
                0.14224809408187866,
                -0.04084315896034241,
                -0.06899456679821014,
                -0.15737290680408478,
                0.06081699952483177,
                -0.047319117933511734,
                0.01183260791003704,
                -0.04584232345223427,
                0.2697066366672516,
                -0.022802459076046944,
                -0.06342995166778564,
                0.09168947488069534,
                0.19269634783267975,
                -0.3927428424358368,
                0.01634828746318817,
                -0.024104440584778786,
                -0.11681674420833588,
                0.04624223709106445,
                -0.09718957543373108,
                -0.10239556431770325,
                0.16767418384552002,
                0.1520773023366928,
                0.006106577813625336,
                0.08867078274488449,
                0.1762651801109314,
                -0.00618472695350647,
                -0.10962995141744614
              ],
              [
                -0.10052695870399475,
                0.289127379655838,
                -0.1301489621400833,
                -0.0521840937435627,
                0.028047237545251846,
                -0.2243443727493286,
                0.04848198965191841,
                -0.1213197335600853,
                0.11262620985507965,
                0.16131360828876495,
                0.2640964984893799,
                0.001343470998108387,
                -0.08373192697763443,
                0.32780420780181885,
                0.038057658821344376,
                0.06530177593231201,
                0.008332312107086182,
                0.09022979438304901,
                -0.09550917148590088,
                0.02347523346543312,
                -0.022431012243032455,
                0.23133666813373566,
                -0.12163662910461426,
                -0.1571759283542633,
                0.04105941578745842,
                -0.10208255797624588,
                0.12833017110824585,
                -0.01584441401064396,
                0.054068777710199356,
                0.004226570948958397,
                -0.0180271677672863,
                0.33282649517059326,
                -0.023636283352971077,
                0.08851631730794907,
                -0.011064434424042702,
                0.4780755341053009,
                0.05596688762307167,
                -0.06749388575553894,
                0.06384491920471191,
                -0.10627559572458267,
                -0.10158013552427292,
                -0.26892340183258057,
                0.07709548622369766,
                0.2987513840198517,
                0.0015970520908012986,
                -0.08840222656726837,
                0.19572553038597107,
                -0.21519668400287628,
                0.20867571234703064,
                0.24610842764377594,
                -0.012600148096680641,
                -0.006274682004004717,
                0.009992376901209354,
                0.23361924290657043,
                0.04767909273505211,
                0.02373754419386387,
                -0.04913095757365227,
                -0.02128719538450241,
                -0.055299583822488785,
                0.19956037402153015,
                0.08507825434207916,
                -0.08644423633813858,
                0.16861777007579803,
                0.03385188430547714,
                0.19365547597408295,
                -0.0772683396935463,
                0.17396800220012665,
                0.0952925980091095,
                0.18949264287948608,
                0.16042031347751617,
                0.10156743973493576,
                -0.07762559503316879,
                -0.08342596143484116
              ],
              [
                -0.10699612647294998,
                -0.09745714068412781,
                -0.003733044723048806,
                0.13302095234394073,
                -0.14534598588943481,
                0.10774055123329163,
                0.06443951278924942,
                0.01694376952946186,
                0.10032735764980316,
                0.0735068991780281,
                -0.011323590762913227,
                -0.0052263191901147366,
                -0.3620438575744629,
                -0.10287102311849594,
                -0.11674372106790543,
                0.15535210072994232,
                -0.23018808662891388,
                0.058806512504816055,
                0.019749684259295464,
                -0.11133300513029099,
                -0.04454326629638672,
                0.06428571790456772,
                0.1473710834980011,
                0.13613569736480713,
                -0.13293981552124023,
                -0.03908371925354004,
                0.24258294701576233,
                0.23462150990962982,
                -0.12987636029720306,
                0.028148826211690903,
                -0.13539722561836243,
                -0.20983673632144928,
                -0.016862336546182632,
                0.05669940263032913,
                -0.09271621704101562,
                0.1263171136379242,
                -0.02679869346320629,
                0.13863830268383026,
                0.05447312444448471,
                -0.00417154049500823,
                -0.013607817701995373,
                0.017549319192767143,
                0.11658894270658493,
                0.06048693507909775,
                0.07843942195177078,
                0.09969527274370193,
                0.0015744761331006885,
                -0.16325555741786957,
                0.0011791684664785862,
                -0.19409379363059998,
                -0.121897853910923,
                -0.15374602377414703,
                0.03582841157913208,
                -0.022279709577560425,
                0.1165727972984314,
                -0.12785030901432037,
                0.101429782807827,
                -0.16779334843158722,
                0.07555093616247177,
                0.010606157593429089,
                0.03094599023461342,
                -0.004541067406535149,
                -0.04787963628768921,
                -0.06318545341491699,
                0.05613091215491295,
                -0.0787523165345192,
                -0.15959806740283966,
                0.050491441041231155,
                -0.09547712653875351,
                -0.1047019362449646,
                0.06926899403333664,
                0.035957418382167816,
                -0.10938262939453125
              ],
              [
                -0.04528743401169777,
                -0.010562223382294178,
                -0.13812929391860962,
                -0.13926735520362854,
                0.1706475466489792,
                -0.1315404623746872,
                -0.11080773919820786,
                0.0030146792996674776,
                4.083683234057389e-05,
                0.02230031043291092,
                0.23805572092533112,
                0.06585226207971573,
                -0.15219460427761078,
                -0.10816960781812668,
                -0.013787774369120598,
                0.07751519978046417,
                -0.3492886424064636,
                0.1290547251701355,
                -0.40968790650367737,
                0.2437063455581665,
                -0.3835480213165283,
                0.2739810347557068,
                0.1083822026848793,
                0.024698205292224884,
                0.13175949454307556,
                -0.11119693517684937,
                0.02999545820057392,
                0.05168873816728592,
                0.0517129972577095,
                0.18606053292751312,
                -0.037486135959625244,
                0.19550186395645142,
                -0.03790837898850441,
                0.37976711988449097,
                -0.2934398055076599,
                0.25519859790802,
                -0.09774582833051682,
                0.5333563089370728,
                -0.09044930338859558,
                0.3607342541217804,
                -0.11101976037025452,
                0.0281854048371315,
                -0.23917660117149353,
                0.2723293900489807,
                0.055588725954294205,
                -0.06637254357337952,
                0.18007363379001617,
                0.30599167943000793,
                0.2743476331233978,
                -0.4608556628227234,
                -0.16664718091487885,
                0.04253220930695534,
                -0.07677005231380463,
                -0.007620831951498985,
                -0.3761972486972809,
                -0.022923916578292847,
                -0.0029851964209228754,
                -0.12457358837127686,
                -0.10872197896242142,
                0.2083117663860321,
                0.059376999735832214,
                0.05020717531442642,
                -0.0879347175359726,
                -0.04744317755103111,
                0.10739270597696304,
                -0.03821809962391853,
                0.2773340344429016,
                0.24601589143276215,
                0.09578908234834671,
                -0.00766004016622901,
                -0.10504399240016937,
                -0.05594209209084511,
                -0.202544167637825
              ],
              [
                0.09798435866832733,
                0.1910609006881714,
                0.001906328834593296,
                -0.008353302255272865,
                -0.045257680118083954,
                -0.002777623012661934,
                -0.07171392440795898,
                -0.06568708270788193,
                -0.0015493804821744561,
                0.03152363747358322,
                -0.1962902545928955,
                0.004124240018427372,
                -0.39847251772880554,
                0.28912392258644104,
                -0.03625917807221413,
                0.011196443811058998,
                0.04602143168449402,
                -0.0020322976633906364,
                -0.09994906187057495,
                -0.0723097175359726,
                -0.14444230496883392,
                0.07076285779476166,
                0.13185998797416687,
                -0.004252445884048939,
                0.0647049993276596,
                0.0935833752155304,
                0.08990008383989334,
                0.05840419605374336,
                -0.01607775129377842,
                0.014582495205104351,
                -0.08556854724884033,
                -0.058262746781110764,
                0.051109760999679565,
                -0.1958766132593155,
                -0.011219528503715992,
                0.13615682721138,
                -0.06136780232191086,
                -0.3221140205860138,
                -0.06033836305141449,
                0.06821566820144653,
                -0.007124209310859442,
                0.14485757052898407,
                0.0013813594123348594,
                0.08053348958492279,
                0.12044690549373627,
                0.08615797758102417,
                -0.0949997827410698,
                0.006955558899790049,
                0.12035327404737473,
                -0.07734738290309906,
                0.04532632976770401,
                0.12794874608516693,
                -0.1389276087284088,
                -0.09630666673183441,
                0.16581712663173676,
                -0.001262216130271554,
                0.03597990423440933,
                0.029323715716600418,
                0.057545099407434464,
                0.0018113538390025496,
                -0.0007106073317117989,
                0.0989585593342781,
                0.08174970746040344,
                0.13278821110725403,
                0.04919033870100975,
                0.2470507174730301,
                0.05501284822821617,
                -0.18269364535808563,
                -0.07548071444034576,
                0.02615094557404518,
                -0.03939194232225418,
                -0.11788675934076309,
                -0.1351776272058487
              ],
              [
                0.008016481064260006,
                -0.07241833955049515,
                0.05550430342555046,
                -0.07753387838602066,
                -0.04628901928663254,
                0.035731635987758636,
                0.05357568338513374,
                0.019700786098837852,
                0.07472109794616699,
                -0.13144193589687347,
                0.1255076378583908,
                0.06983114778995514,
                0.28650951385498047,
                0.0982406958937645,
                0.04189433157444,
                -0.16916267573833466,
                0.002600276842713356,
                -0.1309758871793747,
                0.002016318030655384,
                0.04486161470413208,
                0.049598440527915955,
                0.089329294860363,
                -0.21542498469352722,
                0.24145102500915527,
                0.09771905094385147,
                0.06793644279241562,
                -0.07977015525102615,
                -0.07366280257701874,
                0.19005751609802246,
                -0.09597129374742508,
                0.06351618468761444,
                0.00045621267054229975,
                -0.08568041771650314,
                0.17726697027683258,
                0.03229336440563202,
                0.10293944180011749,
                -0.18167154490947723,
                -0.2797274589538574,
                0.2158520370721817,
                0.07269392162561417,
                -0.04656922072172165,
                -0.24353937804698944,
                -0.19553552567958832,
                0.007033845875412226,
                -0.05335653945803642,
                -0.08568093925714493,
                0.08358895033597946,
                0.10794712603092194,
                0.023218760266900063,
                -0.07095777243375778,
                -0.02455797977745533,
                0.06301393359899521,
                -0.037538811564445496,
                0.14084689319133759,
                0.02108951099216938,
                -0.0020097997039556503,
                -0.06710376590490341,
                0.014380830340087414,
                0.15570761263370514,
                -0.16239362955093384,
                0.06810402870178223,
                -0.047818079590797424,
                0.07382680475711823,
                -0.10983943939208984,
                -0.1571553647518158,
                -0.18197277188301086,
                -0.06680845469236374,
                -0.03233470767736435,
                -0.027388885617256165,
                -0.021679529920220375,
                0.031089115887880325,
                -0.030219456180930138,
                -0.012743394821882248
              ],
              [
                -0.03341382369399071,
                -0.09052623808383942,
                0.36104610562324524,
                -0.20926587283611298,
                0.03466955944895744,
                0.08963469415903091,
                -0.20531591773033142,
                -0.06675916910171509,
                0.004158459138125181,
                0.14935602247714996,
                0.38433027267456055,
                -0.005472519900649786,
                -0.4002473056316376,
                0.08922923356294632,
                -0.4227258861064911,
                0.243872731924057,
                0.13228824734687805,
                0.12205951660871506,
                0.034893106669187546,
                -0.008542006835341454,
                0.112472303211689,
                -0.08135155588388443,
                0.17626862227916718,
                -0.15693992376327515,
                -0.1818111687898636,
                0.09478718787431717,
                -0.14341549575328827,
                0.2156851440668106,
                0.06412132829427719,
                -0.033778462558984756,
                -0.00898308027535677,
                -0.22822843492031097,
                -0.050443023443222046,
                -0.09199123829603195,
                -0.0005477859522216022,
                -0.028398385271430016,
                0.21706843376159668,
                0.03092505782842636,
                -0.018205951899290085,
                -0.20907405018806458,
                0.2287406176328659,
                -0.11447913199663162,
                0.027312489226460457,
                0.0629957765340805,
                0.25947117805480957,
                0.11026088148355484,
                0.022286798804998398,
                -0.06856361776590347,
                0.04035870358347893,
                0.049479492008686066,
                -0.01596016064286232,
                -0.1370459645986557,
                0.07743057608604431,
                -0.046548254787921906,
                -0.11015838384628296,
                0.07990077137947083,
                0.021528273820877075,
                -0.05740009993314743,
                -0.08051982522010803,
                -0.31562909483909607,
                0.09302321821451187,
                -0.25240880250930786,
                -0.001043326104991138,
                -0.033340390771627426,
                0.22403843700885773,
                -0.13522940874099731,
                -0.02346324920654297,
                -0.024556944146752357,
                -0.23622345924377441,
                0.23958663642406464,
                0.08141785115003586,
                -0.011008196510374546,
                -0.06916474550962448
              ],
              [
                0.01555626466870308,
                -0.07595152407884598,
                0.22722657024860382,
                0.0831998661160469,
                0.19386734068393707,
                -0.27390146255493164,
                -0.05977996066212654,
                -0.04335460066795349,
                0.0065804035402834415,
                0.0934038981795311,
                -0.22943489253520966,
                0.16523928940296173,
                -0.3296738564968109,
                0.0015098945004865527,
                -0.06756716966629028,
                0.011794570833444595,
                0.08969506621360779,
                -0.19076690077781677,
                -0.16251976788043976,
                0.11856237053871155,
                -0.0027486509643495083,
                0.04442697390913963,
                0.14071926474571228,
                0.21763065457344055,
                -0.048805467784404755,
                -0.04379185289144516,
                -0.03558257594704628,
                0.048817623406648636,
                0.005120850633829832,
                -0.06561055779457092,
                0.07328146696090698,
                -0.15933264791965485,
                0.2347501516342163,
                0.28863099217414856,
                -0.05282118543982506,
                -0.17285555601119995,
                0.017707016319036484,
                -0.20257063210010529,
                -0.012299632653594017,
                0.12292565405368805,
                0.0460563525557518,
                0.052058421075344086,
                -0.20406655967235565,
                -0.2125541716814041,
                0.02088671177625656,
                0.10420721769332886,
                0.0005746287060901523,
                0.03971904143691063,
                -0.07683360576629639,
                0.0450250469148159,
                -0.2524062395095825,
                0.09667123854160309,
                -0.10997539013624191,
                -0.10928361117839813,
                -0.03265959024429321,
                -0.0662710964679718,
                0.031446319073438644,
                -0.16193640232086182,
                0.10513371974229813,
                0.037180159240961075,
                -0.04449208453297615,
                -0.08230584859848022,
                0.020163534209132195,
                0.08091934025287628,
                0.046909112483263016,
                -0.027003973722457886,
                -0.09528649598360062,
                0.1266416311264038,
                -0.1359473317861557,
                -0.058580148965120316,
                -0.04514306038618088,
                0.08065350353717804,
                -0.05253414064645767
              ],
              [
                0.08235836029052734,
                -0.02237778902053833,
                -0.0013276385143399239,
                0.1083737388253212,
                0.0361192412674427,
                -0.05561508983373642,
                -0.016259461641311646,
                0.06496097892522812,
                0.09062670171260834,
                0.0669378787279129,
                -0.05584528669714928,
                -0.03913416713476181,
                -0.11932924389839172,
                0.02222635969519615,
                -0.08359615504741669,
                0.03804507479071617,
                -0.17889101803302765,
                -0.0008203639299608767,
                -0.04830484092235565,
                -0.06437341868877411,
                0.05501973256468773,
                0.19288115203380585,
                -0.07830863445997238,
                0.043060075491666794,
                -0.08639492839574814,
                0.08708246797323227,
                0.045588139444589615,
                0.021640529856085777,
                -0.06259507685899734,
                0.05561200901865959,
                -0.0039797620847821236,
                -0.055363453924655914,
                0.14081360399723053,
                -0.003627307480201125,
                -0.03502802923321724,
                0.0762958824634552,
                0.12992489337921143,
                0.14477962255477905,
                0.041413601487874985,
                0.029188720509409904,
                -0.04205351322889328,
                0.02346000447869301,
                0.03429471328854561,
                0.09434497356414795,
                0.02961486577987671,
                0.18577994406223297,
                -0.007853196933865547,
                -0.1850069910287857,
                0.01526948157697916,
                0.024168888106942177,
                -0.12707360088825226,
                0.016298579052090645,
                -0.03778458386659622,
                -0.09717325866222382,
                0.0441773384809494,
                -0.08487632125616074,
                -0.16266155242919922,
                -0.12893632054328918,
                -0.091889888048172,
                -0.05956583470106125,
                -0.03447577357292175,
                0.1310439556837082,
                0.056022338569164276,
                -0.13229824602603912,
                0.07276320457458496,
                0.009315120987594128,
                0.12782077491283417,
                0.011792685836553574,
                -0.21981149911880493,
                0.07144514471292496,
                -0.05242009088397026,
                -0.09675215929746628,
                -0.11594697088003159
              ],
              [
                0.004988124128431082,
                0.26601600646972656,
                0.2219598889350891,
                -0.09145863354206085,
                -0.04392604902386665,
                -0.37763985991477966,
                -0.000692394154611975,
                -0.12923336029052734,
                -0.060885392129421234,
                0.06534574180841446,
                0.05141701176762581,
                -0.04587076976895332,
                -0.31955644488334656,
                -0.13979403674602509,
                0.08360355347394943,
                0.23041923344135284,
                0.014471371658146381,
                -0.2831912040710449,
                -0.1835300326347351,
                0.042292118072509766,
                -0.13417227566242218,
                -0.04805627092719078,
                0.15627814829349518,
                0.48945772647857666,
                0.03023398481309414,
                -0.20032335817813873,
                -0.09330033510923386,
                0.14125245809555054,
                0.026494652032852173,
                0.17272745072841644,
                -0.14355666935443878,
                0.2246876358985901,
                0.22174981236457825,
                0.061012838035821915,
                -0.10321633517742157,
                -0.007380339782685041,
                0.033667851239442825,
                0.15959815680980682,
                -0.18216343224048615,
                0.3889044225215912,
                -0.06364158540964127,
                -0.03760254383087158,
                -0.4853571653366089,
                -0.08254555612802505,
                0.31678205728530884,
                0.3009749948978424,
                -0.015808172523975372,
                -0.1294359713792801,
                0.23122179508209229,
                0.05096691846847534,
                0.004651024471968412,
                -0.0005121300928294659,
                0.17887744307518005,
                -0.043612558394670486,
                -0.30606570839881897,
                -0.0004132225294597447,
                -0.01638183183968067,
                0.030584512278437614,
                8.900135435396805e-05,
                -0.052223317325115204,
                -0.021766716614365578,
                -0.15999044477939606,
                -0.19975686073303223,
                0.14184269309043884,
                0.10109435766935349,
                0.13160622119903564,
                -0.043294861912727356,
                -0.09601254016160965,
                -0.03712907060980797,
                0.11280474811792374,
                0.1901724934577942,
                -0.09009557217359543,
                -0.013895274139940739
              ],
              [
                0.040020477026700974,
                0.005126182921230793,
                0.10470204055309296,
                0.06738702952861786,
                0.09918191283941269,
                0.20791038870811462,
                0.17022666335105896,
                0.14402659237384796,
                -0.0387798435986042,
                -0.08269542455673218,
                -0.427208811044693,
                0.11299499124288559,
                0.2813986837863922,
                -0.05496285855770111,
                0.2578568756580353,
                0.13940106332302094,
                -0.043085839599370956,
                -0.08834537118673325,
                -0.024563049897551537,
                0.054341256618499756,
                -0.3162665069103241,
                0.03337083011865616,
                0.05544991418719292,
                -0.07697983831167221,
                0.20984044671058655,
                0.09013534337282181,
                -0.17438332736492157,
                -0.05594929680228233,
                0.328342467546463,
                -0.19360196590423584,
                0.0886489674448967,
                0.12087824940681458,
                -0.01691160351037979,
                0.10638036578893661,
                0.08622212707996368,
                -0.11422327160835266,
                -0.007408462464809418,
                0.5080481767654419,
                0.10866187512874603,
                0.04067368060350418,
                -0.013692467473447323,
                -0.05506661906838417,
                0.11479751020669937,
                0.20610222220420837,
                0.007933073677122593,
                -0.15851201117038727,
                -0.3478703498840332,
                0.04149457439780235,
                -0.43231433629989624,
                -0.060411952435970306,
                0.13567863404750824,
                0.05945076793432236,
                -0.042362939566373825,
                0.13330845534801483,
                0.19040954113006592,
                0.41871634125709534,
                0.03367602080106735,
                -0.017102772369980812,
                -0.050949953496456146,
                0.18182499706745148,
                0.11186099052429199,
                0.07686419785022736,
                0.041270460933446884,
                0.4273916780948639,
                -0.31309643387794495,
                0.18847714364528656,
                -0.36375465989112854,
                0.042401477694511414,
                0.27881529927253723,
                0.19254955649375916,
                0.10638213902711868,
                0.15097695589065552,
                0.24641600251197815
              ],
              [
                0.045455560088157654,
                0.1488301157951355,
                0.08074962347745895,
                -0.10852043330669403,
                -0.024776073172688484,
                0.1501411348581314,
                0.017228692770004272,
                -0.04215232655405998,
                0.03378233313560486,
                -0.1302538514137268,
                0.0731901302933693,
                0.146124005317688,
                0.12858979403972626,
                0.2868015468120575,
                -0.04578353464603424,
                -0.10418470203876495,
                0.1205589547753334,
                0.02247081696987152,
                0.07526027411222458,
                -0.1244707852602005,
                0.010171649046242237,
                -0.23968853056430817,
                0.023403912782669067,
                0.05516154319047928,
                -0.01359590608626604,
                0.01569930650293827,
                0.23691725730895996,
                -0.09577122330665588,
                0.0069961040280759335,
                0.04856327921152115,
                -0.05578476935625076,
                -0.09595537185668945,
                -0.2734641432762146,
                -0.1476290374994278,
                0.07348677515983582,
                0.3134205937385559,
                0.053217027336359024,
                -0.005445634014904499,
                -0.04131009429693222,
                0.16382451355457306,
                -0.30302032828330994,
                0.10418500751256943,
                0.07715237885713577,
                -0.30276790261268616,
                0.045947443693876266,
                -0.018983347341418266,
                0.06157276779413223,
                0.46670907735824585,
                0.13676033914089203,
                -0.05119846388697624,
                0.18480011820793152,
                0.013698448427021503,
                -0.10397983342409134,
                -0.08230996131896973,
                0.30221256613731384,
                -0.06950264424085617,
                0.07602351903915405,
                0.1956031620502472,
                -0.024586742743849754,
                -0.07119980454444885,
                0.20033325254917145,
                0.01979183591902256,
                0.01570822298526764,
                -0.17236392199993134,
                0.06306762248277664,
                0.12820519506931305,
                0.022504372522234917,
                -0.21761836111545563,
                0.2472878247499466,
                0.09221069514751434,
                0.15267755091190338,
                0.044206541031599045,
                0.05647628381848335
              ],
              [
                0.020151052623987198,
                0.11515400558710098,
                0.1220506876707077,
                0.12555387616157532,
                -0.1133141815662384,
                0.43785157799720764,
                0.09378615021705627,
                0.04162363335490227,
                -0.07513978332281113,
                -0.12005945295095444,
                -0.5557059049606323,
                0.03787848725914955,
                0.2842640280723572,
                0.6397867202758789,
                0.06916754692792892,
                -0.3526151180267334,
                -0.12449123710393906,
                0.16309809684753418,
                0.42299315333366394,
                -0.3786943256855011,
                0.04034574329853058,
                -0.4092322587966919,
                0.1809026449918747,
                -0.07075927406549454,
                0.1389087438583374,
                -0.04470059275627136,
                0.01336389034986496,
                -0.4184072017669678,
                -0.06416552513837814,
                -0.00969226285815239,
                -0.014576961286365986,
                0.31315481662750244,
                -0.14854232966899872,
                -0.19270212948322296,
                0.35850459337234497,
                0.09493713080883026,
                -0.0021266802214086056,
                -0.15332254767417908,
                0.030759206041693687,
                -0.4475652277469635,
                0.10731445252895355,
                0.19135142862796783,
                0.21688362956047058,
                -0.4294230341911316,
                -0.11732069402933121,
                -0.3354615867137909,
                -0.02146490290760994,
                -0.3973296880722046,
                -0.08192861825227737,
                0.1853606253862381,
                -0.08528131991624832,
                0.32089951634407043,
                -0.06300193816423416,
                0.09118378162384033,
                -0.1664973944425583,
                -0.028010645881295204,
                0.03922150284051895,
                0.24663972854614258,
                -0.0644708126783371,
                -0.3897036612033844,
                0.10373149067163467,
                0.3642829358577728,
                0.10017114132642746,
                0.05057185888290405,
                -0.09522440284490585,
                0.022442353889346123,
                -0.09407013654708862,
                -0.27572163939476013,
                0.10693926364183426,
                0.25981777906417847,
                0.1790933907032013,
                0.09393199533224106,
                0.03346850350499153
              ],
              [
                -0.11132150143384933,
                -0.15139569342136383,
                -0.1886785626411438,
                -0.44320279359817505,
                -0.03173413872718811,
                -0.02254270203411579,
                -0.016978774219751358,
                0.001037099864333868,
                0.105287566781044,
                0.08885183930397034,
                0.21083228290081024,
                -0.18772977590560913,
                -0.30066990852355957,
                0.2960720956325531,
                -0.1008039265871048,
                -0.01756729558110237,
                0.08038162440061569,
                0.19338907301425934,
                -0.055986616760492325,
                -0.0034436972346156836,
                0.12659558653831482,
                0.07732326537370682,
                -0.10673294961452484,
                -0.01304166205227375,
                -0.10177130997180939,
                0.15085148811340332,
                -0.10929014533758163,
                0.10858795046806335,
                -0.061163876205682755,
                -0.04735774174332619,
                0.04939732328057289,
                0.14670434594154358,
                0.1714092344045639,
                0.3922390341758728,
                -0.03736888989806175,
                0.11693130433559418,
                -0.10898196697235107,
                -0.06906929612159729,
                -0.02059274911880493,
                0.04597540944814682,
                0.18223971128463745,
                -0.08192141354084015,
                -0.06989510357379913,
                -0.34867429733276367,
                0.17898640036582947,
                0.0018774090567603707,
                0.06086090952157974,
                0.04755866155028343,
                -0.05768897756934166,
                0.24216511845588684,
                -0.1474553495645523,
                -0.044938959181308746,
                0.12382950633764267,
                0.16212984919548035,
                -0.2131585329771042,
                -0.004774139262735844,
                0.08791839331388474,
                -0.1374722719192505,
                -0.27111104130744934,
                -0.09983279556035995,
                0.10948953777551651,
                -0.09289658069610596,
                0.06871329993009567,
                -0.02195095270872116,
                0.08274033665657043,
                -0.05393407866358757,
                -0.09454938769340515,
                -0.3116753399372101,
                -0.20691178739070892,
                0.08306028693914413,
                0.1601799577474594,
                -0.01880859211087227,
                -0.04101339727640152
              ],
              [
                -0.023501025512814522,
                -0.08787480741739273,
                -0.00561650563031435,
                -0.22130338847637177,
                0.13784311711788177,
                0.13766784965991974,
                -0.04581237584352493,
                -0.0011794179445132613,
                -0.09740908443927765,
                0.03670128807425499,
                -0.1381138265132904,
                0.00637433398514986,
                -0.2833920419216156,
                -0.030434297397732735,
                -0.1129545271396637,
                -0.03968552127480507,
                0.09482359141111374,
                0.03774864599108696,
                -0.03427684307098389,
                0.12889601290225983,
                0.18690478801727295,
                -0.08557616174221039,
                -0.0167863667011261,
                0.06512072682380676,
                -0.023690612986683846,
                -0.187856987118721,
                0.2387557327747345,
                0.11369012296199799,
                0.08587037026882172,
                0.004010593984276056,
                -0.16792485117912292,
                0.09299197047948837,
                0.10664599388837814,
                -0.08517830818891525,
                0.028661619871854782,
                0.21019311249256134,
                0.2215152084827423,
                -0.28632962703704834,
                0.02510642074048519,
                0.08329740166664124,
                0.08045923709869385,
                -0.13001905381679535,
                -0.04180409014225006,
                -0.18218447268009186,
                0.1737779676914215,
                0.179423987865448,
                0.11528091132640839,
                -0.0015695744659751654,
                0.06341858953237534,
                0.18083308637142181,
                0.018309783190488815,
                -0.02809014543890953,
                -0.07191510498523712,
                0.10629116743803024,
                -0.12092079967260361,
                -0.127360537648201,
                0.06115557625889778,
                -0.1472516804933548,
                -0.2690824568271637,
                -0.3062951862812042,
                -0.004268364980816841,
                -0.08016055822372437,
                0.022958548739552498,
                0.04366884380578995,
                -0.04495866596698761,
                0.19150780141353607,
                0.006644784938544035,
                -0.4559381902217865,
                -0.08972335606813431,
                -0.019350234419107437,
                0.14766083657741547,
                -0.07885423302650452,
                -0.031652674078941345
              ],
              [
                0.06265944987535477,
                0.27273795008659363,
                0.015542051754891872,
                -0.07332325726747513,
                0.13082608580589294,
                0.10284916311502457,
                -0.05909620225429535,
                -0.004733121022582054,
                -0.05451665446162224,
                -0.040435370057821274,
                0.18934907019138336,
                0.11071228235960007,
                0.21788707375526428,
                0.370189368724823,
                0.17288364470005035,
                -0.20828360319137573,
                0.15831799805164337,
                -0.052053406834602356,
                0.11373873800039291,
                -0.08179370313882828,
                0.08595927804708481,
                -0.06446617096662521,
                0.11778266727924347,
                -0.17917795479297638,
                0.11481323838233948,
                0.09267467260360718,
                -0.08382217586040497,
                -0.09155582636594772,
                -0.05988273769617081,
                -0.030211107805371284,
                0.050692930817604065,
                -0.12932878732681274,
                0.13957545161247253,
                -0.09271787852048874,
                0.26891201734542847,
                -0.53306645154953,
                -0.050799451768398285,
                -0.14632146060466766,
                -0.05049242079257965,
                -0.018624531105160713,
                0.15798333287239075,
                -0.020410019904375076,
                -0.3070420026779175,
                -0.4823196530342102,
                -0.0061055622063577175,
                0.031391043215990067,
                0.1275046169757843,
                -0.17876851558685303,
                -0.10492291301488876,
                -0.17507080733776093,
                -0.13591940701007843,
                -0.07473532110452652,
                0.011476227082312107,
                -0.0512363575398922,
                -0.06728508323431015,
                0.3436116576194763,
                0.39214658737182617,
                0.15624751150608063,
                0.02477864921092987,
                -0.2862708270549774,
                -0.03559468314051628,
                -0.12880828976631165,
                0.012792350724339485,
                0.2172766476869583,
                -0.07156816869974136,
                -0.3778575658798218,
                0.10941687971353531,
                -0.376166969537735,
                0.5614051818847656,
                0.03433290496468544,
                0.11371603608131409,
                -0.010256038047373295,
                0.12104024738073349
              ],
              [
                0.0584682822227478,
                -0.5826818943023682,
                0.36484554409980774,
                0.02117302082479,
                -0.27837395668029785,
                0.18100538849830627,
                0.10371658951044083,
                -0.2756247818470001,
                0.00315090105868876,
                0.02226530946791172,
                0.2505565583705902,
                -0.02665117383003235,
                -0.38841482996940613,
                0.35315194725990295,
                -0.20594626665115356,
                -0.2147001028060913,
                0.35691148042678833,
                0.011659851297736168,
                -0.2997826337814331,
                0.10338480770587921,
                0.22474905848503113,
                -0.002676613861694932,
                0.0313292071223259,
                0.10369975119829178,
                -0.25291648507118225,
                0.11184076964855194,
                -0.3023512363433838,
                0.16708920896053314,
                -0.5799583196640015,
                0.03130780905485153,
                -0.0070055206306278706,
                0.08699288964271545,
                -0.003842275822535157,
                0.5629277229309082,
                -0.12506701052188873,
                0.2085447609424591,
                0.12747642397880554,
                -0.35394740104675293,
                0.044447172433137894,
                -0.027754416689276695,
                -0.19094066321849823,
                0.2567339539527893,
                -0.08613625168800354,
                -0.19483929872512817,
                0.03460507467389107,
                0.018222538754343987,
                0.3261876702308655,
                -0.07315599918365479,
                0.25460338592529297,
                -0.19642384350299835,
                -0.21412217617034912,
                -0.21118366718292236,
                0.2759396731853485,
                0.005708612035959959,
                -0.25743386149406433,
                -0.5590642094612122,
                0.02751334197819233,
                0.06181183084845543,
                -0.04893830046057701,
                0.05282999202609062,
                0.20011363923549652,
                -0.17145277559757233,
                -0.04673556238412857,
                -0.513915479183197,
                0.2294236719608307,
                0.20269133150577545,
                0.13235633075237274,
                -0.3295486867427826,
                -0.13264493644237518,
                0.08752932399511337,
                0.06283839046955109,
                0.16234461963176727,
                0.2245466560125351
              ],
              [
                -0.0346868522465229,
                -0.04076268896460533,
                -0.05243567377328873,
                -0.07631043344736099,
                -0.07596755027770996,
                0.3112989664077759,
                -0.02750554122030735,
                0.058246009051799774,
                -0.1057259812951088,
                -0.04353693127632141,
                -0.34716564416885376,
                0.0011164565803483129,
                0.24991609156131744,
                0.009938140399754047,
                -0.12721002101898193,
                -0.3699667453765869,
                -0.38400885462760925,
                -0.06795911490917206,
                0.28934988379478455,
                -0.10469771921634674,
                0.24922508001327515,
                0.23881796002388,
                -0.2537481486797333,
                -0.39432859420776367,
                -0.13068541884422302,
                0.1749454289674759,
                0.1003141850233078,
                -0.2906656265258789,
                0.18497340381145477,
                -0.10554435104131699,
                0.01524859294295311,
                0.3040182888507843,
                -0.02113211154937744,
                -0.24597452580928802,
                0.12448518723249435,
                -0.20634236931800842,
                -0.13117727637290955,
                -0.014499134384095669,
                -0.0047116270288825035,
                -0.37762898206710815,
                -0.07143662869930267,
                0.16055549681186676,
                0.4620201587677002,
                -0.20188437402248383,
                -0.22734017670154572,
                -0.11721976101398468,
                0.024333493784070015,
                0.02401093766093254,
                -0.04043136537075043,
                0.06547404080629349,
                0.046022772789001465,
                0.12297402322292328,
                -0.05570151284337044,
                0.05267251655459404,
                0.27232545614242554,
                -0.1396118402481079,
                -0.08408068865537643,
                0.17545822262763977,
                0.04856333136558533,
                0.062125660479068756,
                -0.10251552611589432,
                0.026928002014756203,
                0.027321308851242065,
                -0.11737094819545746,
                0.0400422103703022,
                -0.12633463740348816,
                -0.00036609196104109287,
                0.37913087010383606,
                0.008302988484501839,
                -0.20177136361598969,
                -0.24490822851657867,
                0.042406171560287476,
                0.04488850012421608
              ],
              [
                -0.08451950550079346,
                0.14210881292819977,
                0.09567877650260925,
                0.003845502156764269,
                0.09757307171821594,
                0.039776694029569626,
                0.08342473953962326,
                0.06516651064157486,
                0.11429546028375626,
                -0.005517337471246719,
                -0.012365601025521755,
                -0.08693710714578629,
                0.19873128831386566,
                -0.16057685017585754,
                0.14232009649276733,
                -0.004057050216943026,
                -0.040182724595069885,
                0.008573411963880062,
                0.2440899908542633,
                -0.08053697645664215,
                -0.005321410950273275,
                0.061071932315826416,
                -0.1540149748325348,
                -0.05951762571930885,
                -0.05011017620563507,
                0.15126460790634155,
                0.31460198760032654,
                -0.014340835623443127,
                0.15549641847610474,
                0.05050569400191307,
                0.10382238775491714,
                -0.06904040277004242,
                -0.06749322265386581,
                0.37819933891296387,
                -0.0231968741863966,
                0.07660356909036636,
                -0.13409855961799622,
                -0.32374754548072815,
                -0.0070483507588505745,
                0.04643359035253525,
                0.17858323454856873,
                0.13386961817741394,
                -0.10442700237035751,
                0.32729387283325195,
                -0.1970950961112976,
                -0.12608051300048828,
                0.006499676965177059,
                0.009679814800620079,
                -0.12696108222007751,
                -0.06833302229642868,
                0.03778522461652756,
                -0.03524228557944298,
                -0.013823025859892368,
                0.1885562241077423,
                0.1263350546360016,
                -0.1252521276473999,
                0.0172741636633873,
                0.006395135074853897,
                -0.05530707538127899,
                0.09009182453155518,
                0.03911525756120682,
                -0.058676693588495255,
                0.13532353937625885,
                -0.016172390431165695,
                -0.11120214313268661,
                0.12366551905870438,
                0.021521251648664474,
                -0.06360798329114914,
                -0.10073598474264145,
                0.07418838143348694,
                -0.012663272209465504,
                0.0078043267130851746,
                -0.00890430249273777
              ],
              [
                -0.044767316430807114,
                -0.21798434853553772,
                0.009642664343118668,
                -0.14766912162303925,
                0.09482903778553009,
                0.006880369037389755,
                0.030863655731081963,
                0.09004208445549011,
                0.10069608688354492,
                -0.19136586785316467,
                0.040122140198946,
                0.057592783123254776,
                0.3575257956981659,
                0.12130044400691986,
                0.07135578989982605,
                -0.04231009632349014,
                -0.2326796054840088,
                -0.054936982691287994,
                0.14695487916469574,
                -0.08710215240716934,
                0.2351229190826416,
                -0.040959954261779785,
                -0.08153203129768372,
                -0.07939793169498444,
                0.04149765521287918,
                -0.05480574443936348,
                -0.0709528997540474,
                -0.03980998322367668,
                -0.12330134212970734,
                -0.014768931083381176,
                0.0574796125292778,
                0.1869751513004303,
                0.009010273031890392,
                0.11609814316034317,
                0.13691076636314392,
                0.016458170488476753,
                0.036550022661685944,
                -0.11998074501752853,
                -0.06052714213728905,
                -0.1855544149875641,
                0.08167306333780289,
                0.21311809122562408,
                0.21898944675922394,
                0.1874927431344986,
                -0.140690878033638,
                -0.13261014223098755,
                0.037927400320768356,
                0.058135081082582474,
                -0.15604421496391296,
                0.07947330176830292,
                -0.023421261459589005,
                -0.15271411836147308,
                0.003980292938649654,
                0.06191341578960419,
                -0.06939273327589035,
                0.03312733769416809,
                -0.04789608344435692,
                -0.12392592430114746,
                -0.05006926879286766,
                -0.032731130719184875,
                -0.0748927965760231,
                -0.04430362582206726,
                0.044076886028051376,
                -0.04692124202847481,
                0.015137630514800549,
                -0.03192931413650513,
                0.1275431513786316,
                0.2585977017879486,
                -0.11190977692604065,
                -0.031124722212553024,
                -0.08904280513525009,
                -0.007027468644082546,
                0.01650780811905861
              ],
              [
                0.013661515899002552,
                0.1385515034198761,
                0.0051145488396286964,
                0.011531723663210869,
                0.024714063853025436,
                0.136657252907753,
                0.08008941262960434,
                0.004536147229373455,
                -0.0971214547753334,
                0.15609429776668549,
                -0.08874057233333588,
                0.011386051774024963,
                -0.23205436766147614,
                -0.10739012807607651,
                -0.09675069153308868,
                0.033261653035879135,
                -0.04785984009504318,
                0.03865254297852516,
                -0.05652574822306633,
                -0.11382073909044266,
                0.24329231679439545,
                -0.028066692873835564,
                -0.048910196870565414,
                -0.05142072215676308,
                -0.11196797341108322,
                -0.0019523907685652375,
                0.10125797986984253,
                -0.04459534212946892,
                -0.040736474096775055,
                -0.09946724027395248,
                -0.06656906008720398,
                -0.09617812931537628,
                0.0946134552359581,
                -0.10385338217020035,
                0.17369134724140167,
                0.00598106486722827,
                0.02783389948308468,
                -0.25989770889282227,
                -0.04901454225182533,
                0.09289665520191193,
                0.06911821663379669,
                -0.0013260291889309883,
                -0.052585650235414505,
                0.040093351155519485,
                0.19848661124706268,
                0.19961734116077423,
                0.15271790325641632,
                -0.029533570632338524,
                0.16832338273525238,
                -0.08199021965265274,
                0.0902850553393364,
                0.06654050201177597,
                -0.12097179144620895,
                0.0014461128739640117,
                -0.08917023241519928,
                -0.011673137545585632,
                0.022280676290392876,
                0.028492581099271774,
                -0.11334338039159775,
                -0.16547991335391998,
                0.10393069684505463,
                0.12571702897548676,
                0.07710674405097961,
                0.002926028799265623,
                0.08111711591482162,
                -0.018802233040332794,
                0.03933433070778847,
                -0.19237227737903595,
                -0.07702489197254181,
                -0.04878295958042145,
                -0.006664756685495377,
                -0.021527472883462906,
                0.009298612363636494
              ],
              [
                0.028560176491737366,
                -0.023564686998724937,
                0.2228100299835205,
                0.004287817515432835,
                -0.0402437187731266,
                -0.09731531888246536,
                -0.16585518419742584,
                0.06076901778578758,
                0.0675056204199791,
                0.0032086502760648727,
                0.013786320574581623,
                -0.13663065433502197,
                -0.2729248106479645,
                -0.04512404277920723,
                -0.2787105441093445,
                -0.022803474217653275,
                -0.049818724393844604,
                0.03317345306277275,
                0.0454234816133976,
                -0.07075982540845871,
                0.25530365109443665,
                -0.03590027987957001,
                0.21587151288986206,
                -0.214647576212883,
                -0.18964196741580963,
                -0.09039843827486038,
                -0.31121590733528137,
                0.08418556302785873,
                0.003765881061553955,
                0.004886585287749767,
                -0.06504789739847183,
                0.16234059631824493,
                0.056806955486536026,
                -0.10599662363529205,
                0.03386501595377922,
                -0.3207259178161621,
                0.15362128615379333,
                0.3560105264186859,
                -0.09559642523527145,
                -0.06381454318761826,
                0.2190004140138626,
                0.04866793379187584,
                -0.05727527663111687,
                0.25561749935150146,
                0.010208375751972198,
                0.011210908181965351,
                0.19461509585380554,
                -0.013042357750236988,
                0.11259880661964417,
                -0.34300312399864197,
                -0.0021614704746752977,
                0.011939076706767082,
                -0.007510782685130835,
                -0.0534232072532177,
                0.05551283806562424,
                0.031021306291222572,
                0.030395574867725372,
                -0.04943590611219406,
                -0.1327846646308899,
                0.049126867204904556,
                -0.10141078382730484,
                0.033276405185461044,
                -0.19008837640285492,
                -0.00604969821870327,
                0.20652993023395538,
                -0.13353556394577026,
                0.15461759269237518,
                -0.008174660615622997,
                -0.12075106054544449,
                -0.0019457086455076933,
                -0.04107237979769707,
                -0.0823260098695755,
                0.032324448227882385
              ],
              [
                -0.09691333025693893,
                0.06409323215484619,
                0.03132690489292145,
                -0.1159743219614029,
                -0.057915251702070236,
                0.03281829506158829,
                -0.0717918798327446,
                -0.07662639021873474,
                -0.11573056876659393,
                0.08129255473613739,
                0.048663076013326645,
                -0.05648644641041756,
                -0.38473939895629883,
                0.19381998479366302,
                -0.005541615653783083,
                -0.05687265843153,
                -0.06470374763011932,
                0.07846355438232422,
                -0.09647893160581589,
                -0.1062823161482811,
                -0.08078604191541672,
                0.16880466043949127,
                -0.0998486578464508,
                0.087519571185112,
                0.06907919049263,
                0.010956586338579655,
                0.12890462577342987,
                0.24953976273536682,
                0.1446475237607956,
                -0.009725460782647133,
                0.09580744802951813,
                0.09361670166254044,
                0.068021759390831,
                -0.15203584730625153,
                0.05551663041114807,
                -0.10576099157333374,
                0.07668508589267731,
                0.2221091091632843,
                -0.04112643003463745,
                -0.07034255564212799,
                -0.05137252435088158,
                -0.029054416343569756,
                -0.08000683039426804,
                -0.08449864387512207,
                0.00917486846446991,
                0.020084049552679062,
                -0.06552018970251083,
                0.3151237964630127,
                0.08232052624225616,
                0.14472076296806335,
                -0.00394096877425909,
                0.01979333534836769,
                0.0842958465218544,
                -0.13257388770580292,
                0.16672120988368988,
                -0.10028087347745895,
                -0.27231138944625854,
                -0.13507413864135742,
                -0.14678773283958435,
                -0.12811629474163055,
                0.1465059071779251,
                0.1506272256374359,
                0.019561495631933212,
                0.07281002402305603,
                0.07212118059396744,
                -0.014416207559406757,
                -0.05833381041884422,
                -0.07482819259166718,
                -0.08872916549444199,
                -0.02300926111638546,
                -0.004692595452070236,
                -0.09898710995912552,
                0.03675214573740959
              ],
              [
                -0.11616230010986328,
                0.49826139211654663,
                0.06401901692152023,
                0.09006066620349884,
                -0.02553510293364525,
                -0.4133002460002899,
                0.25589460134506226,
                -0.11357960104942322,
                -0.051983628422021866,
                0.007905542850494385,
                0.27146971225738525,
                -0.06171305477619171,
                -0.286587655544281,
                -0.20196031033992767,
                -0.07893750816583633,
                -0.049736060202121735,
                -0.1634221076965332,
                -0.3941822648048401,
                -0.14487498998641968,
                0.14888551831245422,
                0.03700508922338486,
                0.14423324167728424,
                -0.10391322523355484,
                -0.05342903733253479,
                -0.017950519919395447,
                0.0723477229475975,
                -0.15617254376411438,
                -0.1079104095697403,
                -0.10361232608556747,
                0.009956417605280876,
                -0.0989212691783905,
                -0.23858684301376343,
                0.1537470519542694,
                -0.2623652517795563,
                -0.029335223138332367,
                -0.5591802000999451,
                0.034348681569099426,
                -0.20696589350700378,
                0.313005268573761,
                -0.13438719511032104,
                -0.36411914229393005,
                -0.07765598595142365,
                0.2883302867412567,
                -0.0036469893530011177,
                -0.16466227173805237,
                0.005390457343310118,
                -0.340374231338501,
                0.04712485522031784,
                -0.31994208693504333,
                0.28908681869506836,
                -0.24084804952144623,
                0.10527068376541138,
                -0.10162041336297989,
                0.30554381012916565,
                -0.2862619459629059,
                -0.009437184780836105,
                -0.321560800075531,
                -0.13739676773548126,
                -0.1346454918384552,
                0.32259687781333923,
                0.04575003683567047,
                0.10563258081674576,
                0.3233753442764282,
                0.17864741384983063,
                -0.20424793660640717,
                -0.06780043989419937,
                -0.4434383809566498,
                -0.37194740772247314,
                -0.18254514038562775,
                -0.09438734501600266,
                0.08792022615671158,
                -0.19140596687793732,
                -0.25865110754966736
              ],
              [
                -0.07611502707004547,
                0.17061279714107513,
                -0.28814104199409485,
                -0.1876634806394577,
                -0.0450003445148468,
                0.10792842507362366,
                -0.11235075443983078,
                0.09099245816469193,
                0.08257503062486649,
                -0.06747686117887497,
                -0.1894693672657013,
                -0.11166734993457794,
                0.1827528327703476,
                0.1255403757095337,
                0.024270713329315186,
                -0.1900419294834137,
                0.06685391813516617,
                0.0848880410194397,
                0.17495523393154144,
                0.05803482234477997,
                0.0879555493593216,
                0.03516492620110512,
                -0.13380630314350128,
                -0.11051306873559952,
                0.1504979282617569,
                0.08841530978679657,
                0.29055479168891907,
                0.06959570944309235,
                0.2791615426540375,
                0.09758610278367996,
                -0.04016648232936859,
                -0.22021453082561493,
                0.19578920304775238,
                -0.009057234041392803,
                0.19353538751602173,
                0.30919262766838074,
                0.29892846941947937,
                0.246921107172966,
                -0.08606543391942978,
                0.12105986475944519,
                0.14191952347755432,
                0.04462263360619545,
                -0.36060631275177,
                -0.061752405017614365,
                0.07601797580718994,
                0.06777335703372955,
                0.09774978458881378,
                0.26075994968414307,
                0.005137077998369932,
                0.04631252586841583,
                0.1565011888742447,
                0.054750148206949234,
                -0.05097673460841179,
                0.02433980628848076,
                0.25890374183654785,
                0.2803493142127991,
                -0.02558109164237976,
                0.022402312606573105,
                0.11125730723142624,
                -0.28759992122650146,
                0.0312855988740921,
                -0.05782541632652283,
                -0.023099051788449287,
                0.34571075439453125,
                -0.14095214009284973,
                -0.2152569741010666,
                0.036434028297662735,
                -0.08885038644075394,
                0.26891806721687317,
                -0.0004286056791897863,
                0.10956078767776489,
                -0.07411301136016846,
                0.03736111521720886
              ]
            ]
          },
          {
            "bias": [
              -0.15078240633010864
            ],
            "weights": [
              [
                -0.3899884819984436,
                -0.30646705627441406,
                0.2805575132369995,
                -0.2689468264579773,
                0.48109155893325806,
                -0.24884839355945587,
                0.3801330327987671,
                0.30483874678611755,
                -0.29007261991500854,
                -0.31138110160827637,
                -0.33440718054771423,
                -0.34620729088783264,
                0.3519427478313446,
                -0.19647444784641266,
                -0.4018450677394867,
                -0.26629963517189026,
                -0.3179590404033661,
                0.2566705048084259,
                0.3254128098487854,
                0.43518486618995667,
                -0.34279391169548035,
                -0.2442481964826584,
                0.36889567971229553,
                -0.3717959225177765,
                0.2706531286239624,
                0.318090558052063,
                0.3454844057559967,
                -0.38676774501800537,
                -0.3716801106929779,
                -0.37227529287338257,
                -0.32348307967185974,
                0.32374656200408936
              ]
            ]
          }
        ]
      },
      {
        "activation": "tanh",
        "kind": "mlp_dense",
        "layers": [
          {
            "bias": [
              0.06099756062030792,
              0.328033447265625,
              0.09564479440450668,
              0.02436695247888565,
              -0.2566359043121338,
              0.06337034702301025,
              0.05474768951535225,
              0.0019479366019368172,
              -0.15855248272418976,
              -0.1497652530670166,
              0.26396989822387695,
              0.11660052835941315,
              -0.011725282296538353,
              0.31481197476387024,
              0.18924206495285034,
              0.2669846713542938,
              -0.20473383367061615,
              0.15288008749485016,
              0.17806631326675415,
              -0.22970540821552277,
              -0.08370965719223022,
              0.36990928649902344,
              -0.2853379249572754,
              -0.029742421582341194,
              0.20294587314128876,
              0.04007565975189209,
              -0.0039709629490971565,
              -0.039271436631679535,
              0.22623199224472046,
              0.20463766157627106,
              0.07261556386947632,
              -0.046716928482055664
            ],
            "weights": [
              [
                -0.03876383975148201,
                -0.12953639030456543,
                -0.1820811629295349,
                0.22510065138339996,
                0.05767279863357544,
                0.09880445152521133,
                0.06628639996051788,
                0.029052570462226868,
                -0.08986145257949829,
                -0.03617892786860466,
                0.07568175345659256,
                -0.04877468943595886,
                0.33150655031204224,
                0.20371483266353607,
                -0.008091682568192482,
                -0.04149439185857773,
                0.16144265234470367,
                0.06915994733572006,
                0.1307988166809082,
                -0.03322899714112282,
                -0.08835117518901825,
                -0.01016545481979847,
                0.025887392461299896,
                -0.09175753593444824,
                -0.05225863680243492,
                0.04092232510447502,
                -0.17012017965316772,
                0.01647973246872425,
                0.08404839038848877,
                0.10142409801483154,
                -0.11612764745950699,
                -0.0054329754784703255,
                -0.037527281790971756,
                0.1254473328590393,
                -0.02182001620531082,
                -0.20581164956092834,
                -0.08310522884130478,
                0.14612357318401337,
                -0.05651282146573067,
                -0.11591682583093643,
                -0.015096289105713367,
                0.01351673249155283,
                0.22922249138355255,
                0.2029258757829666,
                -0.005755418445914984,
                -0.1076388955116272,
                -0.05442490801215172,
                -0.1492280662059784,
                -0.13497424125671387,
                -0.1456519216299057,
                0.09129687398672104,
                -0.004060328472405672,
                -0.08478862792253494,
                0.06863531470298767,
                0.03948764130473137,
                0.04753120616078377,
                0.26746299862861633,
                -0.037757277488708496,
                0.1151285246014595,
                0.061417486518621445,
                -0.07331639528274536,
                -0.0090845488011837,
                0.08834298700094223,
                0.007401918526738882,
                0.005372105166316032,
                -0.11852463334798813,
                -0.11507035046815872,
                0.33224058151245117,
                0.12395670264959335,
                -0.008497797884047031,
                0.08974213153123856,
                0.15899446606636047,
                0.01060265488922596
              ],
              [
                0.11559693515300751,
                0.14148762822151184,
                -0.24889571964740753,
                -0.04116932675242424,
                -0.08870942890644073,
                -0.08143163472414017,
                -0.08753907680511475,
                -0.18362773954868317,
                -0.10724319517612457,
                0.11482333391904831,
                0.20925359427928925,
                -0.00034402828896418214,
                -0.3756783902645111,
                0.15905804932117462,
                -0.143467515707016,
                0.09027914702892303,
                0.02103365771472454,
                -0.01581128127872944,
                -0.024837056174874306,
                -0.008042911998927593,
                0.25812578201293945,
                0.0019151068991050124,
                -0.1758928894996643,
                0.24379929900169373,
                -0.04473407566547394,
                -0.00062553770840168,
                -0.11208843439817429,
                0.14630165696144104,
                0.0382736511528492,
                0.03880906477570534,
                -0.038131967186927795,
                0.09489015489816666,
                -0.008909104391932487,
                0.01553526520729065,
                -0.01766042225062847,
                -0.016663651913404465,
                -0.10516118258237839,
                -0.25083786249160767,
                -0.1055239737033844,
                0.08008236438035965,
                -0.3545530140399933,
                0.13523857295513153,
                0.02233244478702545,
                -0.20880593359470367,
                -0.049530111253261566,
                0.046379975974559784,
                0.2331724464893341,
                -0.020399251952767372,
                0.32366621494293213,
                -0.09035752713680267,
